{"learner":{"attributes":{"scikit_learn":"{\"_estimator_type\": \"regressor\"}"},"feature_names":[],"feature_types":[],"gradient_booster":{"model":{"gbtree_model_param":{"num_parallel_tree":"1","num_trees":"400"},"iteration_indptr":[0,4,8,12,16,20,24,28,32,36,40,44,48,52,56,60,64,68,72,76,80,84,88,92,96,100,104,108,112,116,120,124,128,132,136,140,144,148,152,156,160,164,168,172,176,180,184,188,192,196,200,204,208,212,216,220,224,228,232,236,240,244,248,252,256,260,264,268,272,276,280,284,288,292,296,300,304,308,312,316,320,324,328,332,336,340,344,348,352,356,360,364,368,372,376,380,384,388,392,396,400],"tree_info":[0,1,2,3,0,1,2,3,0,1,2,3,0,1,2,3,0,1,2,3,0,1,2,3,0,1,2,3,0,1,2,3,0,1,2,3,0,1,2,3,0,1,2,3,0,1,2,3,0,1,2,3,0,1,2,3,0,1,2,3,0,1,2,3,0,1,2,3,0,1,2,3,0,1,2,3,0,1,2,3,0,1,2,3,0,1,2,3,0,1,2,3,0,1,2,3,0,1,2,3,0,1,2,3,0,1,2,3,0,1,2,3,0,1,2,3,0,1,2,3,0,1,2,3,0,1,2,3,0,1,2,3,0,1,2,3,0,1,2,3,0,1,2,3,0,1,2,3,0,1,2,3,0,1,2,3,0,1,2,3,0,1,2,3,0,1,2,3,0,1,2,3,0,1,2,3,0,1,2,3,0,1,2,3,0,1,2,3,0,1,2,3,0,1,2,3,0,1,2,3,0,1,2,3,0,1,2,3,0,1,2,3,0,1,2,3,0,1,2,3,0,1,2,3,0,1,2,3,0,1,2,3,0,1,2,3,0,1,2,3,0,1,2,3,0,1,2,3,0,1,2,3,0,1,2,3,0,1,2,3,0,1,2,3,0,1,2,3,0,1,2,3,0,1,2,3,0,1,2,3,0,1,2,3,0,1,2,3,0,1,2,3,0,1,2,3,0,1,2,3,0,1,2,3,0,1,2,3,0,1,2,3,0,1,2,3,0,1,2,3,0,1,2,3,0,1,2,3,0,1,2,3,0,1,2,3,0,1,2,3,0,1,2,3,0,1,2,3,0,1,2,3,0,1,2,3,0,1,2,3,0,1,2,3,0,1,2,3,0,1,2,3,0,1,2,3,0,1,2,3,0,1,2,3,0,1,2,3,0,1,2,3,0,1,2,3,0,1,2,3],"trees":[{"base_weights":[-1.9420107E-3,9.039846E-2,-1.2520442E-2,-3.5470973E-3,1.018537E-1,-2.9477935E-2,5.253744E-2,2.0432954E-1,6.621895E-2,-1.9333087E-2,-4.731709E-2,3.4045193E-2,1.6508788E-1,4.8870496E-3,2.6928845E-1,3.3349805E-2,1.7301361E-1,-3.6425337E-2,1.2748605E-1,-8.337335E-2,-4.1972775E-2,5.4943804E-2,-1.0940763E-2,2.0658992E-1,-7.6686713E-4,3.1560395E-2,1.8352248E-2,1.0369417E-2,1.886178E-3,2.3187414E-2,1.0146942E-2,-1.1769992E-3,-5.8641667E-3,5.4003514E-2,-1.7601819E-3,-4.4359826E-3,-1.0261281E-2,1.9688772E-3,-4.9346644E-3,4.6398826E-3,2.6124096E-2,-3.7569733E-4,-4.818604E-3,1.350333E-2,2.7904434E-2,2.3204586E-3,-6.031207E-3],"categories":[],"categories_nodes":[],"categories_segments":[],"categories_sizes":[],"default_left":[0,0,0,0,0,0,0,0,0,0,0,0,0,0,0,0,0,0,0,0,0,0,0,0,0,0,0,0,0,0,0,0,0,0,0,0,0,0,0,0,0,0,0,0,0,0,0],"id":0,"left_children":[1,3,5,-1,7,9,11,13,15,17,19,21,23,-1,25,27,29,31,33,35,37,39,41,43,45,-1,-1,-1,-1,-1,-1,-1,-1,-1,-1,-1,-1,-1,-1,-1,-1,-1,-1,-1,-1,-1,-1],"loss_changes":[9.408301E-1,1.4635748E-1,9.547297E-1,0E0,3.1877422E-1,1.2323439E-1,3.6693412E-1,2.1910417E-1,2.3643726E-1,1.1063008E0,4.428923E-2,1.4632341E-1,1.7224121E-1,0E0,5.6363344E-3,5.307829E-2,4.3849915E-2,2.1512371E-1,2.7628753E0,1.8716693E-2,1.0009271E-1,1.7473596E-1,1.3197079E-2,6.601155E-2,9.963826E-3,0E0,0E0,0E0,0E0,0E0,0E0,0E0,0E0,0E0,0E0,0E0,0E0,0E0,0E0,0E0,0E0,0E0,0E0,0E0,0E0,0E0,0E0],"parents":[2147483647,0,0,1,1,2,2,4,4,5,5,6,6,7,7,8,8,9,9,10,10,11,11,12,12,14,14,15,15,16,16,17,17,18,18,19,19,20,20,21,21,22,22,23,23,24,24],"right_children":[2,4,6,-1,8,10,12,14,16,18,20,22,24,-1,26,28,30,32,34,36,38,40,42,44,46,-1,-1,-1,-1,-1,-1,-1,-1,-1,-1,-1,-1,-1,-1,-1,-1,-1,-1,-1,-1,-1,-1],"split_conditions":[3.5349452E-1,2.0140074E-1,5.1850104E-1,-3.5470973E-3,2.72953E-1,4.614903E-1,6.5439254E-1,2.2284019E-1,3.4172833E-1,4.550188E-1,4.6720985E-1,5.6924295E-1,8.189679E-1,4.8870496E-3,2.5818753E-1,2.8397003E-1,3.4660763E-1,4.1473898E-1,4.5525965E-1,4.63477E-1,4.7308183E-1,5.65899E-1,6.3414603E-1,6.9467825E-1,1E0,3.1560395E-2,1.8352248E-2,1.0369417E-2,1.886178E-3,2.3187414E-2,1.0146942E-2,-1.1769992E-3,-5.8641667E-3,5.4003514E-2,-1.7601819E-3,-4.4359826E-3,-1.0261281E-2,1.9688772E-3,-4.9346644E-3,4.6398826E-3,2.6124096E-2,-3.7569733E-4,-4.818604E-3,1.350333E-2,2.7904434E-2,2.3204586E-3,-6.031207E-3],"split_indices":[0,0,0,0,0,0,0,0,0,0,0,0,0,0,0,0,0,0,0,0,0,0,0,0,0,0,0,0,0,0,0,0,0,0,0,0,0,0,0,0,0,0,0,0,0,0,0],"split_type":[0,0,0,0,0,0,0,0,0,0,0,0,0,0,0,0,0,0,0,0,0,0,0,0,0,0,0,0,0,0,0,0,0,0,0,0,0,0,0,0,0,0,0,0,0,0,0],"sum_hessian":[9.61E2,9.8E1,8.63E2,8E0,9E1,6.85E2,1.78E2,2.2E1,6.8E1,4.38E2,2.47E2,1.54E2,2.4E1,7E0,1.5E1,5.3E1,1.5E1,3.93E2,4.5E1,3E1,2.17E2,1.05E2,4.9E1,1.9E1,5E0,8E0,7E0,8E0,4.5E1,7E0,8E0,1.87E2,2.06E2,1.1E1,3.4E1,1.1E1,1.9E1,2.3E1,1.94E2,1.02E2,3E0,4.2E1,7E0,1.1E1,8E0,4E0,1E0],"tree_param":{"num_deleted":"0","num_feature":"1","num_nodes":"47","size_leaf_vector":"1"}},{"base_weights":[6.457452E-3,1.0795599E-1,-5.180063E-3,-2.0037465E-2,1.1942836E-1,-2.3443723E-2,6.484257E-2,-9.897217E-4,-2.6170218E-3,2.259806E-1,8.21801E-2,-1.30249765E-2,-4.1792057E-2,4.4878878E-2,1.8602376E-1,6.427038E-3,2.9271191E-2,4.9329244E-2,1.8791549E-1,-2.9834567E-2,1.3123597E-1,-8.0620386E-2,-3.607889E-2,6.636637E-2,-1.5721679E-3,2.2563061E-1,2.299693E-2,1.1556384E-2,3.5297927E-3,2.4661781E-2,1.1485616E-2,-3.9292438E-4,-5.321798E-3,5.443874E-2,-1.4165555E-3,-4.141043E-3,-1.0011534E-2,2.65735E-3,-4.3604933E-3,5.700409E-3,2.9085344E-2,6.57445E-4,-4.5163715E-3,1.5651338E-2,2.9271686E-2,4.9339104E-3,-5.4356973E-3],"categories":[],"categories_nodes":[],"categories_segments":[],"categories_sizes":[],"default_left":[0,0,0,0,0,0,0,0,0,0,0,0,0,0,0,0,0,0,0,0,0,0,0,0,0,0,0,0,0,0,0,0,0,0,0,0,0,0,0,0,0,0,0,0,0,0,0],"id":1,"left_children":[1,3,5,7,9,11,13,-1,-1,15,17,19,21,23,25,-1,-1,27,29,31,33,35,37,39,41,43,45,-1,-1,-1,-1,-1,-1,-1,-1,-1,-1,-1,-1,-1,-1,-1,-1,-1,-1,-1,-1],"loss_changes":[1.1368648E0,1.4776337E-1,1.1064636E0,3.0067633E-4,3.4259737E-1,1.3059598E-1,4.246925E-1,0E0,0E0,2.2938335E-1,2.304016E-1,1.0684761E0,5.2105784E-2,1.5481237E-1,1.5623564E-1,0E0,0E0,4.6106204E-2,4.029447E-2,2.3845828E-1,2.7710629E0,1.9550458E-2,1.0395113E-1,2.0620146E-1,1.8053109E-2,4.6922207E-2,1.4907944E-2,0E0,0E0,0E0,0E0,0E0,0E0,0E0,0E0,0E0,0E0,0E0,0E0,0E0,0E0,0E0,0E0,0E0,0E0,0E0,0E0],"parents":[2147483647,0,0,1,1,2,2,3,3,4,4,5,5,6,6,9,9,10,10,11,11,12,12,13,13,14,14,17,17,18,18,19,19,20,20,21,21,22,22,23,23,24,24,25,25,26,26],"right_children":[2,4,6,8,10,12,14,-1,-1,16,18,20,22,24,26,-1,-1,28,30,32,34,36,38,40,42,44,46,-1,-1,-1,-1,-1,-1,-1,-1,-1,-1,-1,-1,-1,-1,-1,-1,-1,-1,-1,-1],"split_conditions":[3.5349452E-1,2.0140074E-1,5.1850104E-1,1.7417204E-1,2.72953E-1,4.614903E-1,6.5439254E-1,-9.897217E-4,-2.6170218E-3,2.2284019E-1,3.4172833E-1,4.550188E-1,4.6720985E-1,5.6924295E-1,8.189679E-1,6.427038E-3,2.9271191E-2,2.8397003E-1,3.4660763E-1,4.1473898E-1,4.5525965E-1,4.63477E-1,4.7308183E-1,5.65899E-1,6.3414603E-1,6.9467825E-1,1E0,1.1556384E-2,3.5297927E-3,2.4661781E-2,1.1485616E-2,-3.9292438E-4,-5.321798E-3,5.443874E-2,-1.4165555E-3,-4.141043E-3,-1.0011534E-2,2.65735E-3,-4.3604933E-3,5.700409E-3,2.9085344E-2,6.57445E-4,-4.5163715E-3,1.5651338E-2,2.9271686E-2,4.9339104E-3,-5.4356973E-3],"split_indices":[0,0,0,0,0,0,0,0,0,0,0,0,0,0,0,0,0,0,0,0,0,0,0,0,0,0,0,0,0,0,0,0,0,0,0,0,0,0,0,0,0,0,0,0,0,0,0],"split_type":[0,0,0,0,0,0,0,0,0,0,0,0,0,0,0,0,0,0,0,0,0,0,0,0,0,0,0,0,0,0,0,0,0,0,0,0,0,0,0,0,0,0,0,0,0,0,0],"sum_hessian":[9.61E2,9.8E1,8.63E2,8E0,9E1,6.85E2,1.78E2,4E0,4E0,2.2E1,6.8E1,4.38E2,2.47E2,1.54E2,2.4E1,7E0,1.5E1,5.3E1,1.5E1,3.93E2,4.5E1,3E1,2.17E2,1.05E2,4.9E1,1.9E1,5E0,8E0,4.5E1,7E0,8E0,1.87E2,2.06E2,1.1E1,3.4E1,1.1E1,1.9E1,2.3E1,1.94E2,1.02E2,3E0,4.2E1,7E0,1.1E1,8E0,4E0,1E0],"tree_param":{"num_deleted":"0","num_feature":"1","num_nodes":"47","size_leaf_vector":"1"}},{"base_weights":[-2.2498285E-3,8.113466E-2,-1.1801697E-2,-4.528127E-3,9.274574E-2,-2.6884811E-2,4.6068788E-2,1.7504494E-1,6.396854E-2,-1.7850565E-2,-4.2768475E-2,3.017818E-2,1.427478E-1,4.6269572E-3,2.2849232E-2,3.2397375E-2,1.6652319E-1,-3.4577835E-2,1.2581019E-1,-7.790589E-2,-3.7575684E-2,5.0618023E-2,-1.3757846E-2,1.8164647E-1,-1.0705668E-2,9.596392E-3,1.925615E-3,2.1778492E-2,1.0245462E-2,-1.1089024E-3,-5.574363E-3,5.2892476E-2,-1.5995099E-3,-4.4000796E-3,-9.435366E-3,1.6505521E-3,-4.4039134E-3,4.20024E-3,2.5981575E-2,-6.708329E-4,-4.992928E-3,1.2100571E-2,2.4231788E-2,1.3533368E-3,-6.5950425E-3],"categories":[],"categories_nodes":[],"categories_segments":[],"categories_sizes":[],"default_left":[0,0,0,0,0,0,0,0,0,0,0,0,0,0,0,0,0,0,0,0,0,0,0,0,0,0,0,0,0,0,0,0,0,0,0,0,0,0,0,0,0,0,0,0,0],"id":2,"left_children":[1,3,5,-1,7,9,11,13,15,17,19,21,23,-1,-1,25,27,29,31,33,35,37,39,41,43,-1,-1,-1,-1,-1,-1,-1,-1,-1,-1,-1,-1,-1,-1,-1,-1,-1,-1,-1,-1],"loss_changes":[7.6716906E-1,1.4951444E-1,7.5539565E-1,0E0,2.0432168E-1,9.767547E-2,2.7068776E-1,1.4772993E-1,2.180112E-1,1.0592903E0,4.2323023E-2,1.3989343E-1,1.51173E-1,0E0,0E0,4.3260574E-2,3.0235171E-2,1.9526258E-1,2.637994E0,1.313594E-2,7.692906E-2,1.801382E-1,1.2414616E-2,4.4261336E-2,8.927009E-3,0E0,0E0,0E0,0E0,0E0,0E0,0E0,0E0,0E0,0E0,0E0,0E0,0E0,0E0,0E0,0E0,0E0,0E0,0E0,0E0],"parents":[2147483647,0,0,1,1,2,2,4,4,5,5,6,6,7,7,8,8,9,9,10,10,11,11,12,12,15,15,16,16,17,17,18,18,19,19,20,20,21,21,22,22,23,23,24,24],"right_children":[2,4,6,-1,8,10,12,14,16,18,20,22,24,-1,-1,26,28,30,32,34,36,38,40,42,44,-1,-1,-1,-1,-1,-1,-1,-1,-1,-1,-1,-1,-1,-1,-1,-1,-1,-1,-1,-1],"split_conditions":[3.5349452E-1,2.0140074E-1,5.1850104E-1,-4.528127E-3,2.72953E-1,4.614903E-1,6.5439254E-1,2.2284019E-1,3.4172833E-1,4.550188E-1,4.6720985E-1,5.6924295E-1,8.189679E-1,4.6269572E-3,2.2849232E-2,2.8397003E-1,3.4660763E-1,4.1473898E-1,4.5525965E-1,4.63477E-1,4.7308183E-1,5.65899E-1,6.3414603E-1,6.9467825E-1,1E0,9.596392E-3,1.925615E-3,2.1778492E-2,1.0245462E-2,-1.1089024E-3,-5.574363E-3,5.2892476E-2,-1.5995099E-3,-4.4000796E-3,-9.435366E-3,1.6505521E-3,-4.4039134E-3,4.20024E-3,2.5981575E-2,-6.708329E-4,-4.992928E-3,1.2100571E-2,2.4231788E-2,1.3533368E-3,-6.5950425E-3],"split_indices":[0,0,0,0,0,0,0,0,0,0,0,0,0,0,0,0,0,0,0,0,0,0,0,0,0,0,0,0,0,0,0,0,0,0,0,0,0,0,0,0,0,0,0,0,0],"split_type":[0,0,0,0,0,0,0,0,0,0,0,0,0,0,0,0,0,0,0,0,0,0,0,0,0,0,0,0,0,0,0,0,0,0,0,0,0,0,0,0,0,0,0,0,0],"sum_hessian":[9.61E2,9.8E1,8.63E2,8E0,9E1,6.85E2,1.78E2,2.2E1,6.8E1,4.38E2,2.47E2,1.54E2,2.4E1,7E0,1.5E1,5.3E1,1.5E1,3.93E2,4.5E1,3E1,2.17E2,1.05E2,4.9E1,1.9E1,5E0,8E0,4.5E1,7E0,8E0,1.87E2,2.06E2,1.1E1,3.4E1,1.1E1,1.9E1,2.3E1,1.94E2,1.02E2,3E0,4.2E1,7E0,1.1E1,8E0,4E0,1E0],"tree_param":{"num_deleted":"0","num_feature":"1","num_nodes":"45","size_leaf_vector":"1"}},{"base_weights":[-2.2655604E-3,9.1502056E-2,-1.3007144E-2,-3.5016933E-3,1.0300941E-1,-2.961132E-2,5.0699398E-2,1.9462329E-1,7.097856E-2,-1.9426573E-2,-4.7520563E-2,3.379633E-2,1.5347044E-1,5.491193E-3,2.52315E-1,3.813956E-2,1.7737402E-1,-3.61727E-2,1.2442994E-1,-8.582766E-2,-4.185524E-2,5.470926E-2,-1.121501E-2,1.9386935E-1,-6.771013E-3,3.0538741E-2,1.6106922E-2,9.935157E-3,2.5334174E-3,2.3250462E-2,1.0866081E-2,-1.1335769E-3,-5.855516E-3,5.3499985E-2,-1.9892023E-3,-5.2554756E-3,-1.0150002E-2,1.5925253E-3,-4.875204E-3,4.5191552E-3,2.8611297E-2,-2.5945663E-4,-5.614802E-3,1.3225309E-2,2.5448332E-2,1.9541548E-3,-6.9166906E-3],"categories":[],"categories_nodes":[],"categories_segments":[],"categories_sizes":[],"default_left":[0,0,0,0,0,0,0,0,0,0,0,0,0,0,0,0,0,0,0,0,0,0,0,0,0,0,0,0,0,0,0,0,0,0,0,0,0,0,0,0,0,0,0,0,0,0,0],"id":3,"left_children":[1,3,5,-1,7,9,11,13,15,17,19,21,23,-1,25,27,29,31,33,35,37,39,41,43,45,-1,-1,-1,-1,-1,-1,-1,-1,-1,-1,-1,-1,-1,-1,-1,-1,-1,-1,-1,-1,-1,-1],"loss_changes":[9.7012883E-1,1.4774102E-1,9.1543573E-1,0E0,2.532227E-1,1.2420398E-1,3.0576232E-1,1.715293E-1,2.3431551E-1,1.0620692E0,5.022919E-2,1.46518E-1,1.6315222E-1,0E0,2.829361E-2,3.9810546E-2,3.5347104E-2,2.1836543E-1,2.7363381E0,1.0831103E-2,8.7649524E-2,2.2052804E-1,1.9221442E-2,4.1039944E-2,1.1202402E-2,0E0,0E0,0E0,0E0,0E0,0E0,0E0,0E0,0E0,0E0,0E0,0E0,0E0,0E0,0E0,0E0,0E0,0E0,0E0,0E0,0E0,0E0],"parents":[2147483647,0,0,1,1,2,2,4,4,5,5,6,6,7,7,8,8,9,9,10,10,11,11,12,12,14,14,15,15,16,16,17,17,18,18,19,19,20,20,21,21,22,22,23,23,24,24],"right_children":[2,4,6,-1,8,10,12,14,16,18,20,22,24,-1,26,28,30,32,34,36,38,40,42,44,46,-1,-1,-1,-1,-1,-1,-1,-1,-1,-1,-1,-1,-1,-1,-1,-1,-1,-1,-1,-1,-1,-1],"split_conditions":[3.5349452E-1,2.0140074E-1,5.1850104E-1,-3.5016933E-3,2.72953E-1,4.614903E-1,6.5439254E-1,2.2284019E-1,3.4172833E-1,4.550188E-1,4.6720985E-1,5.6924295E-1,8.189679E-1,5.491193E-3,2.5818753E-1,2.8397003E-1,3.4660763E-1,4.1473898E-1,4.5525965E-1,4.63477E-1,4.7308183E-1,5.65899E-1,6.3414603E-1,6.9467825E-1,1E0,3.0538741E-2,1.6106922E-2,9.935157E-3,2.5334174E-3,2.3250462E-2,1.0866081E-2,-1.1335769E-3,-5.855516E-3,5.3499985E-2,-1.9892023E-3,-5.2554756E-3,-1.0150002E-2,1.5925253E-3,-4.875204E-3,4.5191552E-3,2.8611297E-2,-2.5945663E-4,-5.614802E-3,1.3225309E-2,2.5448332E-2,1.9541548E-3,-6.9166906E-3],"split_indices":[0,0,0,0,0,0,0,0,0,0,0,0,0,0,0,0,0,0,0,0,0,0,0,0,0,0,0,0,0,0,0,0,0,0,0,0,0,0,0,0,0,0,0,0,0,0,0],"split_type":[0,0,0,0,0,0,0,0,0,0,0,0,0,0,0,0,0,0,0,0,0,0,0,0,0,0,0,0,0,0,0,0,0,0,0,0,0,0,0,0,0,0,0,0,0,0,0],"sum_hessian":[9.61E2,9.8E1,8.63E2,8E0,9E1,6.85E2,1.78E2,2.2E1,6.8E1,4.38E2,2.47E2,1.54E2,2.4E1,7E0,1.5E1,5.3E1,1.5E1,3.93E2,4.5E1,3E1,2.17E2,1.05E2,4.9E1,1.9E1,5E0,8E0,7E0,8E0,4.5E1,7E0,8E0,1.87E2,2.06E2,1.1E1,3.4E1,1.1E1,1.9E1,2.3E1,1.94E2,1.02E2,3E0,4.2E1,7E0,1.1E1,8E0,4E0,1E0],"tree_param":{"num_deleted":"0","num_feature":"1","num_nodes":"47","size_leaf_vector":"1"}},{"base_weights":[-1.552746E-3,8.233683E-2,-1.1163296E-2,-3.2317992E-3,9.2771515E-2,-2.6489995E-2,4.7637146E-2,1.8627918E-1,6.0257778E-2,-1.729681E-2,-4.26566E-2,3.0805642E-2,1.5008698E-1,4.4594333E-3,2.4547915E-1,3.0241784E-2,1.5779564E-1,-3.2800674E-2,1.1587317E-1,-7.551012E-2,-3.77891E-2,4.973965E-2,-9.950567E-3,1.8800132E-1,-1.3086362E-3,2.8755028E-2,1.6746426E-2,-3.1506745E-4,5.511847E-3,2.1158515E-2,9.2449915E-3,-1.0599256E-3,-5.2805822E-3,4.9053192E-2,-1.589192E-3,-4.0293504E-3,-9.286459E-3,1.7801935E-3,-4.4437284E-3,1.5384116E-3,9.421678E-3,-3.390006E-4,-4.3969764E-3,1.2265524E-2,2.5424039E-2,2.1348223E-3,-5.729647E-3],"categories":[],"categories_nodes":[],"categories_segments":[],"categories_sizes":[],"default_left":[0,0,0,0,0,0,0,0,0,0,0,0,0,0,0,0,0,0,0,0,0,0,0,0,0,0,0,0,0,0,0,0,0,0,0,0,0,0,0,0,0,0,0,0,0,0,0],"id":4,"left_children":[1,3,5,-1,7,9,11,13,15,17,19,21,23,-1,25,27,29,31,33,35,37,39,41,43,45,-1,-1,-1,-1,-1,-1,-1,-1,-1,-1,-1,-1,-1,-1,-1,-1,-1,-1,-1,-1,-1,-1],"loss_changes":[7.765075E-1,1.2144053E-1,7.7991307E-1,0E0,2.65441E-1,1.0121736E-1,3.0404136E-1,1.8197101E-1,1.9723901E-1,9.101817E-1,3.680533E-2,1.201051E-1,1.4374757E-1,0E0,4.3604374E-3,4.503112E-2,3.667757E-2,1.7443252E-1,2.278675E0,1.52042955E-2,8.135939E-2,1.6052231E-1,1.1010192E-2,5.538535E-2,8.834228E-3,0E0,0E0,0E0,0E0,0E0,0E0,0E0,0E0,0E0,0E0,0E0,0E0,0E0,0E0,0E0,0E0,0E0,0E0,0E0,0E0,0E0,0E0],"parents":[2147483647,0,0,1,1,2,2,4,4,5,5,6,6,7,7,8,8,9,9,10,10,11,11,12,12,14,14,15,15,16,16,17,17,18,18,19,19,20,20,21,21,22,22,23,23,24,24],"right_children":[2,4,6,-1,8,10,12,14,16,18,20,22,24,-1,26,28,30,32,34,36,38,40,42,44,46,-1,-1,-1,-1,-1,-1,-1,-1,-1,-1,-1,-1,-1,-1,-1,-1,-1,-1,-1,-1,-1,-1],"split_conditions":[3.5349452E-1,2.0140074E-1,5.1850104E-1,-3.2317992E-3,2.72953E-1,4.614903E-1,6.5439254E-1,2.2284019E-1,3.4172833E-1,4.550188E-1,4.6720985E-1,5.6924295E-1,8.189679E-1,4.4594333E-3,2.5818753E-1,3.069125E-1,3.4660763E-1,4.1473898E-1,4.5525965E-1,4.63477E-1,4.7308183E-1,5.4638493E-1,6.3414603E-1,6.9467825E-1,1E0,2.8755028E-2,1.6746426E-2,-3.1506745E-4,5.511847E-3,2.1158515E-2,9.2449915E-3,-1.0599256E-3,-5.2805822E-3,4.9053192E-2,-1.589192E-3,-4.0293504E-3,-9.286459E-3,1.7801935E-3,-4.4437284E-3,1.5384116E-3,9.421678E-3,-3.390006E-4,-4.3969764E-3,1.2265524E-2,2.5424039E-2,2.1348223E-3,-5.729647E-3],"split_indices":[0,0,0,0,0,0,0,0,0,0,0,0,0,0,0,0,0,0,0,0,0,0,0,0,0,0,0,0,0,0,0,0,0,0,0,0,0,0,0,0,0,0,0,0,0,0,0],"split_type":[0,0,0,0,0,0,0,0,0,0,0,0,0,0,0,0,0,0,0,0,0,0,0,0,0,0,0,0,0,0,0,0,0,0,0,0,0,0,0,0,0,0,0,0,0,0,0],"sum_hessian":[9.61E2,9.8E1,8.63E2,8E0,9E1,6.85E2,1.78E2,2.2E1,6.8E1,4.38E2,2.47E2,1.54E2,2.4E1,7E0,1.5E1,5.3E1,1.5E1,3.93E2,4.5E1,3E1,2.17E2,1.05E2,4.9E1,1.9E1,5E0,8E0,7E0,2.3E1,3E1,7E0,8E0,1.87E2,2.06E2,1.1E1,3.4E1,1.1E1,1.9E1,2.3E1,1.94E2,6E1,4.5E1,4.2E1,7E0,1.1E1,8E0,4E0,1E0],"tree_param":{"num_deleted":"0","num_feature":"1","num_nodes":"47","size_leaf_vector":"1"}},{"base_weights":[6.0093445E-3,9.800207E-2,-4.5384434E-3,-1.843447E-2,1.08440824E-1,-2.10535E-2,5.8779255E-2,-9.105441E-4,-2.4076605E-3,2.0493464E-1,7.470461E-2,-1.1614715E-2,-3.767678E-2,4.059052E-2,1.6919823E-1,5.8646724E-3,2.6527017E-1,4.4675697E-2,1.7138316E-1,-2.686561E-2,1.1926502E-1,-7.301488E-2,-3.247881E-2,6.0057897E-2,-1.492124E-3,2.053137E-1,2.0613607E-2,3.1056235E-2,1.8115774E-2,1.4724424E-3,7.408162E-3,2.2503875E-2,1.0464671E-2,-5.6471454E-4,-5.008559E-3,4.9448524E-2,-1.278948E-3,-3.7614466E-3,-9.060438E-3,2.4026867E-3,-3.92668E-3,5.135902E-3,2.6903946E-2,5.9322995E-4,-4.1211885E-3,1.4216631E-2,2.666976E-2,4.539198E-3,-5.1639127E-3],"categories":[],"categories_nodes":[],"categories_segments":[],"categories_sizes":[],"default_left":[0,0,0,0,0,0,0,0,0,0,0,0,0,0,0,0,0,0,0,0,0,0,0,0,0,0,0,0,0,0,0,0,0,0,0,0,0,0,0,0,0,0,0,0,0,0,0,0,0],"id":5,"left_children":[1,3,5,7,9,11,13,-1,-1,15,17,19,21,23,25,-1,27,29,31,33,35,37,39,41,43,45,47,-1,-1,-1,-1,-1,-1,-1,-1,-1,-1,-1,-1,-1,-1,-1,-1,-1,-1,-1,-1,-1,-1],"loss_changes":[9.3389237E-1,1.223287E-1,9.0471834E-1,2.544925E-4,2.809261E-1,1.0719827E-1,3.526324E-1,0E0,0E0,1.874491E-1,1.9266075E-1,8.794628E-1,4.318279E-2,1.2707156E-1,1.2992287E-1,0E0,4.693389E-3,4.6469405E-2,3.3742994E-2,1.9383797E-1,2.285602E0,1.5894905E-2,8.4559515E-2,1.788803E-1,1.4989297E-2,3.9609194E-2,1.3085832E-2,0E0,0E0,0E0,0E0,0E0,0E0,0E0,0E0,0E0,0E0,0E0,0E0,0E0,0E0,0E0,0E0,0E0,0E0,0E0,0E0,0E0,0E0],"parents":[2147483647,0,0,1,1,2,2,3,3,4,4,5,5,6,6,9,9,10,10,11,11,12,12,13,13,14,14,16,16,17,17,18,18,19,19,20,20,21,21,22,22,23,23,24,24,25,25,26,26],"right_children":[2,4,6,8,10,12,14,-1,-1,16,18,20,22,24,26,-1,28,30,32,34,36,38,40,42,44,46,48,-1,-1,-1,-1,-1,-1,-1,-1,-1,-1,-1,-1,-1,-1,-1,-1,-1,-1,-1,-1,-1,-1],"split_conditions":[3.5349452E-1,2.0140074E-1,5.1850104E-1,1.7417204E-1,2.72953E-1,4.614903E-1,6.5439254E-1,-9.105441E-4,-2.4076605E-3,2.2284019E-1,3.4172833E-1,4.550188E-1,4.6720985E-1,5.6924295E-1,8.189679E-1,5.8646724E-3,2.5818753E-1,3.087049E-1,3.4660763E-1,4.184344E-1,4.5525965E-1,4.63477E-1,4.7308183E-1,5.65899E-1,6.3414603E-1,6.9467825E-1,1E0,3.1056235E-2,1.8115774E-2,1.4724424E-3,7.408162E-3,2.2503875E-2,1.0464671E-2,-5.6471454E-4,-5.008559E-3,4.9448524E-2,-1.278948E-3,-3.7614466E-3,-9.060438E-3,2.4026867E-3,-3.92668E-3,5.135902E-3,2.6903946E-2,5.9322995E-4,-4.1211885E-3,1.4216631E-2,2.666976E-2,4.539198E-3,-5.1639127E-3],"split_indices":[0,0,0,0,0,0,0,0,0,0,0,0,0,0,0,0,0,0,0,0,0,0,0,0,0,0,0,0,0,0,0,0,0,0,0,0,0,0,0,0,0,0,0,0,0,0,0,0,0],"split_type":[0,0,0,0,0,0,0,0,0,0,0,0,0,0,0,0,0,0,0,0,0,0,0,0,0,0,0,0,0,0,0,0,0,0,0,0,0,0,0,0,0,0,0,0,0,0,0,0,0],"sum_hessian":[9.61E2,9.8E1,8.63E2,8E0,9E1,6.85E2,1.78E2,4E0,4E0,2.2E1,6.8E1,4.38E2,2.47E2,1.54E2,2.4E1,7E0,1.5E1,5.3E1,1.5E1,3.93E2,4.5E1,3E1,2.17E2,1.05E2,4.9E1,1.9E1,5E0,8E0,7E0,2.7E1,2.6E1,7E0,8E0,2.06E2,1.87E2,1.1E1,3.4E1,1.1E1,1.9E1,2.3E1,1.94E2,1.02E2,3E0,4.2E1,7E0,1.1E1,8E0,4E0,1E0],"tree_param":{"num_deleted":"0","num_feature":"1","num_nodes":"49","size_leaf_vector":"1"}},{"base_weights":[-1.8687916E-3,7.369285E-2,-1.0524734E-2,-4.1256275E-2,8.4251635E-2,-2.4155483E-2,4.1772574E-2,-5.0130705E-3,-2.4130587E-3,1.5873507E-1,5.8202785E-2,-1.5963893E-2,-3.8558513E-2,2.7318545E-2,1.2971665E-1,4.2220983E-3,2.0707117E-1,2.9371005E-2,1.5187237E-1,-3.1137016E-2,1.1434424E-1,-7.056161E-2,-3.383074E-2,4.5840956E-2,-1.2495335E-2,1.6529843E-1,-1.0508719E-2,2.4340492E-2,1.4031182E-2,-1.3063163E-4,5.217374E-3,1.9872876E-2,9.334754E-3,-9.986022E-4,-5.0196196E-3,4.8044E-2,-1.444129E-3,-3.9967396E-3,-8.539005E-3,1.492374E-3,-3.96578E-3,3.784294E-3,2.403296E-2,-6.053095E-4,-4.5560463E-3,1.0991352E-2,2.207785E-2,1.2450698E-3,-6.26529E-3],"categories":[],"categories_nodes":[],"categories_segments":[],"categories_sizes":[],"default_left":[0,0,0,0,0,0,0,0,0,0,0,0,0,0,0,0,0,0,0,0,0,0,0,0,0,0,0,0,0,0,0,0,0,0,0,0,0,0,0,0,0,0,0,0,0,0,0,0,0],"id":6,"left_children":[1,3,5,7,9,11,13,-1,-1,15,17,19,21,23,25,-1,27,29,31,33,35,37,39,41,43,45,47,-1,-1,-1,-1,-1,-1,-1,-1,-1,-1,-1,-1,-1,-1,-1,-1,-1,-1,-1,-1,-1,-1],"loss_changes":[6.2997866E-1,1.236344E-1,6.169127E-1,1.5814323E-4,1.6732013E-1,8.032128E-2,2.2399151E-1,0E0,0E0,1.2078953E-1,1.8188493E-1,8.715428E-1,3.5136074E-2,1.148774E-1,1.2647378E-1,0E0,4.6572685E-3,3.7842605E-2,2.5325358E-2,1.583283E-1,2.1757383E0,1.0650784E-2,6.252462E-2,1.5579066E-1,1.03748925E-2,3.718865E-2,7.963273E-3,0E0,0E0,0E0,0E0,0E0,0E0,0E0,0E0,0E0,0E0,0E0,0E0,0E0,0E0,0E0,0E0,0E0,0E0,0E0,0E0,0E0,0E0],"parents":[2147483647,0,0,1,1,2,2,3,3,4,4,5,5,6,6,9,9,10,10,11,11,12,12,13,13,14,14,16,16,17,17,18,18,19,19,20,20,21,21,22,22,23,23,24,24,25,25,26,26],"right_children":[2,4,6,8,10,12,14,-1,-1,16,18,20,22,24,26,-1,28,30,32,34,36,38,40,42,44,46,48,-1,-1,-1,-1,-1,-1,-1,-1,-1,-1,-1,-1,-1,-1,-1,-1,-1,-1,-1,-1,-1,-1],"split_conditions":[3.5349452E-1,2.0140074E-1,5.1850104E-1,1.7417204E-1,2.72953E-1,4.614903E-1,6.5439254E-1,-5.0130705E-3,-2.4130587E-3,2.2284019E-1,3.4172833E-1,4.550188E-1,4.6720985E-1,5.6924295E-1,8.189679E-1,4.2220983E-3,2.5818753E-1,3.069125E-1,3.4660763E-1,4.1473898E-1,4.5525965E-1,4.63477E-1,4.7308183E-1,5.65899E-1,6.3414603E-1,6.9467825E-1,1E0,2.4340492E-2,1.4031182E-2,-1.3063163E-4,5.217374E-3,1.9872876E-2,9.334754E-3,-9.986022E-4,-5.0196196E-3,4.8044E-2,-1.444129E-3,-3.9967396E-3,-8.539005E-3,1.492374E-3,-3.96578E-3,3.784294E-3,2.403296E-2,-6.053095E-4,-4.5560463E-3,1.0991352E-2,2.207785E-2,1.2450698E-3,-6.26529E-3],"split_indices":[0,0,0,0,0,0,0,0,0,0,0,0,0,0,0,0,0,0,0,0,0,0,0,0,0,0,0,0,0,0,0,0,0,0,0,0,0,0,0,0,0,0,0,0,0,0,0,0,0],"split_type":[0,0,0,0,0,0,0,0,0,0,0,0,0,0,0,0,0,0,0,0,0,0,0,0,0,0,0,0,0,0,0,0,0,0,0,0,0,0,0,0,0,0,0,0,0,0,0,0,0],"sum_hessian":[9.61E2,9.8E1,8.63E2,8E0,9E1,6.85E2,1.78E2,4E0,4E0,2.2E1,6.8E1,4.38E2,2.47E2,1.54E2,2.4E1,7E0,1.5E1,5.3E1,1.5E1,3.93E2,4.5E1,3E1,2.17E2,1.05E2,4.9E1,1.9E1,5E0,8E0,7E0,2.3E1,3E1,7E0,8E0,1.87E2,2.06E2,1.1E1,3.4E1,1.1E1,1.9E1,2.3E1,1.94E2,1.02E2,3E0,4.2E1,7E0,1.1E1,8E0,4E0,1E0],"tree_param":{"num_deleted":"0","num_feature":"1","num_nodes":"49","size_leaf_vector":"1"}},{"base_weights":[-1.8497935E-3,8.3313674E-2,-1.1605967E-2,-3.190431E-3,9.3793325E-2,-2.6612531E-2,4.597006E-2,1.7742778E-1,6.4555846E-2,-1.7382499E-2,-4.2843867E-2,3.0592548E-2,1.3947184E-1,5.0107134E-3,2.2999887E-1,3.45565E-2,1.617689E-1,-3.2573167E-2,1.1310675E-1,-7.774185E-2,-3.768478E-2,4.955089E-2,-1.0210992E-2,1.764161E-1,-6.921001E-3,2.7824184E-2,1.4697566E-2,1.8458112E-4,5.876618E-3,2.1216048E-2,9.900208E-3,-1.2064673E-3,-5.498107E-3,4.859582E-2,-1.7959655E-3,-4.773724E-3,-9.185753E-3,1.4399075E-3,-4.3901843E-3,4.071628E-3,2.646545E-2,-2.3411411E-4,-5.1235068E-3,1.201299E-2,2.3186257E-2,1.7978225E-3,-6.5708566E-3],"categories":[],"categories_nodes":[],"categories_segments":[],"categories_sizes":[],"default_left":[0,0,0,0,0,0,0,0,0,0,0,0,0,0,0,0,0,0,0,0,0,0,0,0,0,0,0,0,0,0,0,0,0,0,0,0,0,0,0,0,0,0,0,0,0,0,0],"id":7,"left_children":[1,3,5,-1,7,9,11,13,15,17,19,21,23,-1,25,27,29,31,33,35,37,39,41,43,45,-1,-1,-1,-1,-1,-1,-1,-1,-1,-1,-1,-1,-1,-1,-1,-1,-1,-1,-1,-1,-1,-1],"loss_changes":[8.0026335E-1,1.2252939E-1,7.4773526E-1,0E0,2.1106476E-1,1.0202888E-1,2.5310382E-1,1.4242321E-1,1.9563645E-1,8.7387824E-1,4.172066E-2,1.2040892E-1,1.3643041E-1,0E0,2.3189783E-2,4.265496E-2,2.9602379E-2,1.8040025E-1,2.2566693E0,8.744568E-3,7.1222454E-2,1.9066215E-1,1.6022718E-2,3.456378E-2,9.963912E-3,0E0,0E0,0E0,0E0,0E0,0E0,0E0,0E0,0E0,0E0,0E0,0E0,0E0,0E0,0E0,0E0,0E0,0E0,0E0,0E0,0E0,0E0],"parents":[2147483647,0,0,1,1,2,2,4,4,5,5,6,6,7,7,8,8,9,9,10,10,11,11,12,12,14,14,15,15,16,16,17,17,18,18,19,19,20,20,21,21,22,22,23,23,24,24],"right_children":[2,4,6,-1,8,10,12,14,16,18,20,22,24,-1,26,28,30,32,34,36,38,40,42,44,46,-1,-1,-1,-1,-1,-1,-1,-1,-1,-1,-1,-1,-1,-1,-1,-1,-1,-1,-1,-1,-1,-1],"split_conditions":[3.5349452E-1,2.0140074E-1,5.1850104E-1,-3.190431E-3,2.72953E-1,4.614903E-1,6.5439254E-1,2.2284019E-1,3.4172833E-1,4.550188E-1,4.6720985E-1,5.6924295E-1,8.189679E-1,5.0107134E-3,2.5818753E-1,3.069125E-1,3.4660763E-1,4.184344E-1,4.5525965E-1,4.63477E-1,4.7308183E-1,5.65899E-1,6.3414603E-1,6.9467825E-1,1E0,2.7824184E-2,1.4697566E-2,1.8458112E-4,5.876618E-3,2.1216048E-2,9.900208E-3,-1.2064673E-3,-5.498107E-3,4.859582E-2,-1.7959655E-3,-4.773724E-3,-9.185753E-3,1.4399075E-3,-4.3901843E-3,4.071628E-3,2.646545E-2,-2.3411411E-4,-5.1235068E-3,1.201299E-2,2.3186257E-2,1.7978225E-3,-6.5708566E-3],"split_indices":[0,0,0,0,0,0,0,0,0,0,0,0,0,0,0,0,0,0,0,0,0,0,0,0,0,0,0,0,0,0,0,0,0,0,0,0,0,0,0,0,0,0,0,0,0,0,0],"split_type":[0,0,0,0,0,0,0,0,0,0,0,0,0,0,0,0,0,0,0,0,0,0,0,0,0,0,0,0,0,0,0,0,0,0,0,0,0,0,0,0,0,0,0,0,0,0,0],"sum_hessian":[9.61E2,9.8E1,8.63E2,8E0,9E1,6.85E2,1.78E2,2.2E1,6.8E1,4.38E2,2.47E2,1.54E2,2.4E1,7E0,1.5E1,5.3E1,1.5E1,3.93E2,4.5E1,3E1,2.17E2,1.05E2,4.9E1,1.9E1,5E0,8E0,7E0,2.3E1,3E1,7E0,8E0,2.06E2,1.87E2,1.1E1,3.4E1,1.1E1,1.9E1,2.3E1,1.94E2,1.02E2,3E0,4.2E1,7E0,1.1E1,8E0,4E0,1E0],"tree_param":{"num_deleted":"0","num_feature":"1","num_nodes":"47","size_leaf_vector":"1"}},{"base_weights":[-1.2438396E-3,7.493475E-2,-9.971197E-3,1.1522423E-1,4.7947463E-2,-2.380434E-2,4.309868E-2,3.783186E-3,1.8471725E-1,-5.7573896E-2,8.360821E-2,-1.5473453E-2,-3.8455367E-2,2.7765237E-2,1.3644207E-1,-2.9445288E-3,4.0692324E-3,2.6199022E-2,1.2970637E-1,-4.0203568E-2,-8.77479E-3,4.9784414E-2,1.439163E-1,-2.919817E-2,1.0840066E-1,-4.6309296E-2,-1.9721517E-2,4.4869088E-2,-9.05023E-3,1.7108566E-1,-1.7769051E-3,4.487701E-3,1.54243065E-2,-5.8615464E-3,-2.7038276E-4,8.939309E-3,-2.0378737E-3,1.9307144E-2,8.423215E-3,-9.5449714E-4,-4.6736943E-3,5.271814E-2,-1.434813E-3,-3.931368E-3,-9.820988E-3,7.4444166E-3,-4.255371E-3,3.7065987E-3,2.3458164E-2,-3.058889E-4,-4.012241E-3,1.1141185E-2,2.3164123E-2,1.964037E-3,-5.4431646E-3],"categories":[],"categories_nodes":[],"categories_segments":[],"categories_sizes":[],"default_left":[0,0,0,0,0,0,0,0,0,0,0,0,0,0,0,0,0,0,0,0,0,0,0,0,0,0,0,0,0,0,0,0,0,0,0,0,0,0,0,0,0,0,0,0,0,0,0,0,0,0,0,0,0,0,0],"id":8,"left_children":[1,3,5,7,9,11,13,15,17,19,21,23,25,27,29,-1,-1,-1,31,33,-1,35,37,39,41,43,45,47,49,51,53,-1,-1,-1,-1,-1,-1,-1,-1,-1,-1,-1,-1,-1,-1,-1,-1,-1,-1,-1,-1,-1,-1,-1,-1],"loss_changes":[6.4032114E-1,1.0211831E-1,6.353084E-1,3.0133176E-1,2.3435485E-1,8.3135456E-2,2.5241E-1,2.0821145E-2,6.80387E-2,4.8583373E-3,8.666822E-2,7.4952525E-1,3.5575986E-2,9.800744E-2,1.2001401E-1,0E0,0E0,0E0,2.6380956E-2,8.1268065E-3,0E0,8.797287E-2,3.0677706E-2,1.3605231E-1,2.2693765E0,5.931437E-2,1.6441858E-1,1.4822169E-1,9.185471E-3,4.6464086E-2,7.835384E-3,0E0,0E0,0E0,0E0,0E0,0E0,0E0,0E0,0E0,0E0,0E0,0E0,0E0,0E0,0E0,0E0,0E0,0E0,0E0,0E0,0E0,0E0,0E0,0E0],"parents":[2147483647,0,0,1,1,2,2,3,3,4,4,5,5,6,6,7,7,8,8,9,9,10,10,11,11,12,12,13,13,14,14,18,18,19,19,21,21,22,22,23,23,24,24,25,25,26,26,27,27,28,28,29,29,30,30],"right_children":[2,4,6,8,10,12,14,16,18,20,22,24,26,28,30,-1,-1,-1,32,34,-1,36,38,40,42,44,46,48,50,52,54,-1,-1,-1,-1,-1,-1,-1,-1,-1,-1,-1,-1,-1,-1,-1,-1,-1,-1,-1,-1,-1,-1,-1,-1],"split_conditions":[3.5349452E-1,2.8397003E-1,5.1850104E-1,2.2284019E-1,3.069125E-1,4.614903E-1,6.5439254E-1,2.0140074E-1,2.5818753E-1,3.0370265E-1,3.4172833E-1,4.5511007E-1,4.9764174E-1,5.6924295E-1,8.189679E-1,-2.9445288E-3,4.0692324E-3,2.6199022E-2,2.662511E-1,2.9985717E-1,-8.77479E-3,3.2993495E-1,3.4660763E-1,4.1473898E-1,4.5525965E-1,4.9437287E-1,5.0104266E-1,5.65899E-1,6.3414603E-1,6.9467825E-1,1E0,4.487701E-3,1.54243065E-2,-5.8615464E-3,-2.7038276E-4,8.939309E-3,-2.0378737E-3,1.9307144E-2,8.423215E-3,-9.5449714E-4,-4.6736943E-3,5.271814E-2,-1.434813E-3,-3.931368E-3,-9.820988E-3,7.4444166E-3,-4.255371E-3,3.7065987E-3,2.3458164E-2,-3.058889E-4,-4.012241E-3,1.1141185E-2,2.3164123E-2,1.964037E-3,-5.4431646E-3],"split_indices":[0,0,0,0,0,0,0,0,0,0,0,0,0,0,0,0,0,0,0,0,0,0,0,0,0,0,0,0,0,0,0,0,0,0,0,0,0,0,0,0,0,0,0,0,0,0,0,0,0,0,0,0,0,0,0],"split_type":[0,0,0,0,0,0,0,0,0,0,0,0,0,0,0,0,0,0,0,0,0,0,0,0,0,0,0,0,0,0,0,0,0,0,0,0,0,0,0,0,0,0,0,0,0,0,0,0,0,0,0,0,0,0,0],"sum_hessian":[9.61E2,9.8E1,8.63E2,3.8E1,6E1,6.85E2,1.78E2,1.5E1,2.3E1,1.5E1,4.5E1,4.38E2,2.47E2,1.54E2,2.4E1,8E0,7E0,8E0,1.5E1,1.1E1,4E0,3E1,1.5E1,3.95E2,4.3E1,1.73E2,7.4E1,1.05E2,4.9E1,1.9E1,5E0,4E0,1.1E1,7E0,4E0,1.9E1,1.1E1,7E0,8E0,1.87E2,2.08E2,9E0,3.4E1,1.54E2,1.9E1,1.4E1,6E1,1.02E2,3E0,4.2E1,7E0,1.1E1,8E0,4E0,1E0],"tree_param":{"num_deleted":"0","num_feature":"1","num_nodes":"55","size_leaf_vector":"1"}},{"base_weights":[5.6065284E-3,8.914699E-2,-3.972305E-3,1.3026641E-1,6.139609E-2,-1.5839674E-2,7.045652E-2,1.7217733E-2,2.0020443E-1,-4.4862974E-2,9.7021066E-2,-1.8906971E-2,1.8914506E-2,4.7758985E-2,1.5388888E-1,-1.6959712E-2,5.3515146E-3,2.829568E-2,1.4114346E-1,-2.3162259E-2,-8.79721E-3,6.3293E-2,1.5630537E-1,-1.0356214E-2,-3.396695E-2,1.0303714E-1,4.272652E-3,1.494546E-1,2.0368578E-2,1.8682666E-1,1.8448131E-2,-8.377001E-4,-2.215048E-3,6.235565E-3,1.6220976E-2,-5.905884E-3,2.1683835E-4,1.0395008E-2,-9.7432017E-4,2.0534785E-2,9.534478E-3,-2.4193197E-3,1.0838568E-2,-6.6127004E-3,-2.9237922E-3,5.8663744E-3,1.2680312E-2,-4.20988E-3,1.7419908E-3,9.908988E-3,2.8073072E-2,5.9951316E-3,-1.4134705E-4,1.291344E-2,2.4299115E-2,4.1760625E-3,-4.905717E-3],"categories":[],"categories_nodes":[],"categories_segments":[],"categories_sizes":[],"default_left":[0,0,0,0,0,0,0,0,0,0,0,0,0,0,0,0,0,0,0,0,0,0,0,0,0,0,0,0,0,0,0,0,0,0,0,0,0,0,0,0,0,0,0,0,0,0,0,0,0,0,0,0,0,0,0,0,0],"id":9,"left_children":[1,3,5,7,9,11,13,15,17,19,21,23,25,27,29,31,-1,-1,33,35,-1,37,39,41,43,45,47,49,51,53,55,-1,-1,-1,-1,-1,-1,-1,-1,-1,-1,-1,-1,-1,-1,-1,-1,-1,-1,-1,-1,-1,-1,-1,-1,-1,-1],"loss_changes":[7.701659E-1,1.0497117E-1,7.64265E-1,3.0490255E-1,2.3526675E-1,7.9882234E-2,2.1800178E-1,2.0756444E-2,7.736093E-2,1.29303485E-2,8.2086E-2,8.798735E-2,7.469415E-2,2.615768E-1,1.0808134E-1,2.1540304E-4,0E0,0E0,1.6441584E-2,1.1039462E-2,0E0,9.30654E-2,2.8255701E-2,7.239122E-1,3.5783857E-2,2.0524487E-3,3.30452E-2,1.0441613E-1,6.5611415E-2,3.3426642E-2,1.149096E-2,0E0,0E0,0E0,0E0,0E0,0E0,0E0,0E0,0E0,0E0,0E0,0E0,0E0,0E0,0E0,0E0,0E0,0E0,0E0,0E0,0E0,0E0,0E0,0E0,0E0,0E0],"parents":[2147483647,0,0,1,1,2,2,3,3,4,4,5,5,6,6,7,7,8,8,9,9,10,10,11,11,12,12,13,13,14,14,15,15,18,18,19,19,21,21,22,22,23,23,24,24,25,25,26,26,27,27,28,28,29,29,30,30],"right_children":[2,4,6,8,10,12,14,16,18,20,22,24,26,28,30,32,-1,-1,34,36,-1,38,40,42,44,46,48,50,52,54,56,-1,-1,-1,-1,-1,-1,-1,-1,-1,-1,-1,-1,-1,-1,-1,-1,-1,-1,-1,-1,-1,-1,-1,-1,-1,-1],"split_conditions":[3.5349452E-1,2.8397003E-1,5.4638493E-1,2.2284019E-1,3.069125E-1,5.1850104E-1,6.5439254E-1,2.0140074E-1,2.5818753E-1,3.0370265E-1,3.4172833E-1,4.614903E-1,5.2286255E-1,5.537352E-1,8.189679E-1,1.7417204E-1,5.3515146E-3,2.829568E-2,2.662511E-1,2.8922725E-1,-8.79721E-3,3.2993495E-1,3.4660763E-1,4.550188E-1,4.6720985E-1,5.210467E-1,5.263938E-1,5.5172586E-1,5.6924295E-1,6.9467825E-1,1E0,-8.377001E-4,-2.215048E-3,6.235565E-3,1.6220976E-2,-5.905884E-3,2.1683835E-4,1.0395008E-2,-9.7432017E-4,2.0534785E-2,9.534478E-3,-2.4193197E-3,1.0838568E-2,-6.6127004E-3,-2.9237922E-3,5.8663744E-3,1.2680312E-2,-4.20988E-3,1.7419908E-3,9.908988E-3,2.8073072E-2,5.9951316E-3,-1.4134705E-4,1.291344E-2,2.4299115E-2,4.1760625E-3,-4.905717E-3],"split_indices":[0,0,0,0,0,0,0,0,0,0,0,0,0,0,0,0,0,0,0,0,0,0,0,0,0,0,0,0,0,0,0,0,0,0,0,0,0,0,0,0,0,0,0,0,0,0,0,0,0,0,0,0,0,0,0,0,0],"split_type":[0,0,0,0,0,0,0,0,0,0,0,0,0,0,0,0,0,0,0,0,0,0,0,0,0,0,0,0,0,0,0,0,0,0,0,0,0,0,0,0,0,0,0,0,0,0,0,0,0,0,0,0,0,0,0,0,0],"sum_hessian":[9.61E2,9.8E1,8.63E2,3.8E1,6E1,7.45E2,1.18E2,1.5E1,2.3E1,1.5E1,4.5E1,6.85E2,6E1,9.4E1,2.4E1,8E0,7E0,8E0,1.5E1,1.1E1,4E0,3E1,1.5E1,4.38E2,2.47E2,8E0,5.2E1,1.9E1,7.5E1,1.9E1,5E0,4E0,4E0,4E0,1.1E1,4E0,7E0,1.9E1,1.1E1,7E0,8E0,3.93E2,4.5E1,3E1,2.17E2,4E0,4E0,1.1E1,4.1E1,1.5E1,4E0,2.6E1,4.9E1,1.1E1,8E0,4E0,1E0],"tree_param":{"num_deleted":"0","num_feature":"1","num_nodes":"57","size_leaf_vector":"1"}},{"base_weights":[-1.530417E-3,6.70252E-2,-9.383977E-3,-3.7955772E-2,7.66714E-2,-1.910225E-2,5.1617835E-2,-4.612026E-3,-2.2200134E-3,1.3278577E-1,4.6897348E-2,-2.8344188E-2,-9.114104E-3,1.3015074E-1,3.5395075E-2,3.8526652E-3,1.5867274E-1,-5.1018506E-2,7.993553E-2,-1.0777118E-2,-4.827811E-2,2.715154E-1,-2.4677983E-2,8.4888145E-2,2.4896087E-2,7.800446E-3,1.1786695E-1,2.217689E-2,1.1326409E-2,-3.3256856E-3,-8.344277E-3,4.7124666E-3,1.38510605E-2,-1.4656087E-3,1.171819E-3,-4.623737E-3,-1.1086459E-2,1.6954668E-4,5.1418375E-2,-3.2190122E-3,1.0454825E-3,1.37554435E-2,1.502755E-3,4.2973524E-3,-1.1349024E-3,1.5042205E-2,-1.029455E-3],"categories":[],"categories_nodes":[],"categories_segments":[],"categories_sizes":[],"default_left":[0,0,0,0,0,0,0,0,0,0,0,0,0,0,0,0,0,0,0,0,0,0,0,0,0,0,0,0,0,0,0,0,0,0,0,0,0,0,0,0,0,0,0,0,0,0,0],"id":10,"left_children":[1,3,5,7,9,11,13,-1,-1,15,17,19,21,23,25,-1,27,29,31,33,35,37,39,41,-1,43,45,-1,-1,-1,-1,-1,-1,-1,-1,-1,-1,-1,-1,-1,-1,-1,-1,-1,-1,-1,-1],"loss_changes":[5.1857525E-1,1.0316408E-1,5.131931E-1,1.3385434E-4,1.458112E-1,6.860483E-2,1.4700174E-1,0E0,0E0,6.9529414E-2,2.0141084E-1,1.3499957E-1,1.5790665E0,8.6419255E-2,2.2665866E-1,0E0,4.364419E-2,6.4394884E-3,8.188006E-2,1.8234273E-2,1.7991722E-2,1.2431868E0,9.0598E-2,5.680167E-2,0E0,5.1677182E-2,1.058563E-1,0E0,0E0,0E0,0E0,0E0,0E0,0E0,0E0,0E0,0E0,0E0,0E0,0E0,0E0,0E0,0E0,0E0,0E0,0E0,0E0],"parents":[2147483647,0,0,1,1,2,2,3,3,4,4,5,5,6,6,9,9,10,10,11,11,12,12,13,13,14,14,16,16,17,17,18,18,19,19,20,20,21,21,22,22,23,23,25,25,26,26],"right_children":[2,4,6,8,10,12,14,-1,-1,16,18,20,22,24,26,-1,28,30,32,34,36,38,40,42,-1,44,46,-1,-1,-1,-1,-1,-1,-1,-1,-1,-1,-1,-1,-1,-1,-1,-1,-1,-1,-1,-1],"split_conditions":[3.5349452E-1,2.0140074E-1,5.4638493E-1,1.7417204E-1,2.8397003E-1,4.5285463E-1,5.537352E-1,-4.612026E-3,-2.2200134E-3,2.2284019E-1,3.069125E-1,4.184344E-1,4.5525965E-1,5.5172586E-1,6.5439254E-1,3.8526652E-3,2.5818753E-1,3.0370265E-1,3.4172833E-1,4.1205993E-1,4.522369E-1,4.5511007E-1,5.1850104E-1,5.4857653E-1,2.4896087E-2,5.6924295E-1,8.189679E-1,2.217689E-2,1.1326409E-2,-3.3256856E-3,-8.344277E-3,4.7124666E-3,1.38510605E-2,-1.4656087E-3,1.171819E-3,-4.623737E-3,-1.1086459E-2,1.6954668E-4,5.1418375E-2,-3.2190122E-3,1.0454825E-3,1.37554435E-2,1.502755E-3,4.2973524E-3,-1.1349024E-3,1.5042205E-2,-1.029455E-3],"split_indices":[0,0,0,0,0,0,0,0,0,0,0,0,0,0,0,0,0,0,0,0,0,0,0,0,0,0,0,0,0,0,0,0,0,0,0,0,0,0,0,0,0,0,0,0,0,0,0],"split_type":[0,0,0,0,0,0,0,0,0,0,0,0,0,0,0,0,0,0,0,0,0,0,0,0,0,0,0,0,0,0,0,0,0,0,0,0,0,0,0,0,0,0,0,0,0,0,0],"sum_hessian":[9.61E2,9.8E1,8.63E2,8E0,9E1,7.45E2,1.18E2,4E0,4E0,3E1,6E1,3.86E2,3.59E2,1.9E1,9.9E1,7E0,2.3E1,1.5E1,4.5E1,2.06E2,1.8E2,1.8E1,3.41E2,1.5E1,4E0,7.5E1,2.4E1,8E0,1.5E1,1.1E1,4E0,3E1,1.5E1,1.76E2,3E1,1.76E2,4E0,9E0,9E0,2.81E2,6E1,8E0,7E0,2.6E1,4.9E1,1.9E1,5E0],"tree_param":{"num_deleted":"0","num_feature":"1","num_nodes":"47","size_leaf_vector":"1"}},{"base_weights":[-1.4981709E-3,7.580573E-2,-1.0354176E-2,-2.9068373E-3,8.5344866E-2,-2.1048333E-2,5.6773517E-2,1.6175163E-1,5.8639064E-2,-2.391748E-2,1.1562853E-2,3.776322E-2,1.267417E-1,4.5722765E-3,2.096566E-1,3.1213095E-2,1.4753677E-1,-1.5552913E-2,-3.862767E-2,9.3992606E-2,-2.6528183E-3,1.3319355E-1,1.2153089E-2,1.6053446E-1,-7.0244074E-3,2.5350923E-2,1.3411529E-2,9.035625E-3,1.8963063E-3,1.935964E-2,9.020189E-3,-2.9332864E-3,1.0281346E-2,-7.041797E-3,-3.3929837E-3,5.2551697E-3,1.1663499E-2,-4.611855E-3,9.829124E-4,8.77029E-3,2.5212497E-2,5.142545E-3,-9.297047E-4,1.0911799E-2,2.1125259E-2,1.6539965E-3,-6.2423134E-3],"categories":[],"categories_nodes":[],"categories_segments":[],"categories_sizes":[],"default_left":[0,0,0,0,0,0,0,0,0,0,0,0,0,0,0,0,0,0,0,0,0,0,0,0,0,0,0,0,0,0,0,0,0,0,0,0,0,0,0,0,0,0,0,0,0,0,0],"id":11,"left_children":[1,3,5,-1,7,9,11,13,15,17,19,21,23,-1,25,27,29,31,33,35,37,39,41,43,45,-1,-1,-1,-1,-1,-1,-1,-1,-1,-1,-1,-1,-1,-1,-1,-1,-1,-1,-1,-1,-1,-1],"loss_changes":[6.593737E-1,1.0152125E-1,6.214382E-1,0E0,1.7620087E-1,7.007694E-2,1.5349764E-1,1.1825615E-1,1.636242E-1,8.380768E-2,7.1728796E-2,2.3055972E-1,1.1413583E-1,0E0,1.900351E-2,3.7409868E-2,2.4790436E-2,7.19061E-1,3.464842E-2,2.3155212E-3,2.920775E-2,8.609331E-2,6.450031E-2,2.9103458E-2,8.865093E-3,0E0,0E0,0E0,0E0,0E0,0E0,0E0,0E0,0E0,0E0,0E0,0E0,0E0,0E0,0E0,0E0,0E0,0E0,0E0,0E0,0E0,0E0],"parents":[2147483647,0,0,1,1,2,2,4,4,5,5,6,6,7,7,8,8,9,9,10,10,11,11,12,12,14,14,15,15,16,16,17,17,18,18,19,19,20,20,21,21,22,22,23,23,24,24],"right_children":[2,4,6,-1,8,10,12,14,16,18,20,22,24,-1,26,28,30,32,34,36,38,40,42,44,46,-1,-1,-1,-1,-1,-1,-1,-1,-1,-1,-1,-1,-1,-1,-1,-1,-1,-1,-1,-1,-1,-1],"split_conditions":[3.5349452E-1,2.0140074E-1,5.4638493E-1,-2.9068373E-3,2.72953E-1,5.1850104E-1,6.5439254E-1,2.2284019E-1,3.4172833E-1,4.614903E-1,5.2286255E-1,5.537352E-1,8.189679E-1,4.5722765E-3,2.5818753E-1,2.8397003E-1,3.4660763E-1,4.550188E-1,4.6720985E-1,5.210467E-1,5.263938E-1,5.5172586E-1,5.6924295E-1,6.9467825E-1,1E0,2.5350923E-2,1.3411529E-2,9.035625E-3,1.8963063E-3,1.935964E-2,9.020189E-3,-2.9332864E-3,1.0281346E-2,-7.041797E-3,-3.3929837E-3,5.2551697E-3,1.1663499E-2,-4.611855E-3,9.829124E-4,8.77029E-3,2.5212497E-2,5.142545E-3,-9.297047E-4,1.0911799E-2,2.1125259E-2,1.6539965E-3,-6.2423134E-3],"split_indices":[0,0,0,0,0,0,0,0,0,0,0,0,0,0,0,0,0,0,0,0,0,0,0,0,0,0,0,0,0,0,0,0,0,0,0,0,0,0,0,0,0,0,0,0,0,0,0],"split_type":[0,0,0,0,0,0,0,0,0,0,0,0,0,0,0,0,0,0,0,0,0,0,0,0,0,0,0,0,0,0,0,0,0,0,0,0,0,0,0,0,0,0,0,0,0,0,0],"sum_hessian":[9.61E2,9.8E1,8.63E2,8E0,9E1,7.45E2,1.18E2,2.2E1,6.8E1,6.85E2,6E1,9.4E1,2.4E1,7E0,1.5E1,5.3E1,1.5E1,4.38E2,2.47E2,8E0,5.2E1,1.9E1,7.5E1,1.9E1,5E0,8E0,7E0,8E0,4.5E1,7E0,8E0,3.93E2,4.5E1,3E1,2.17E2,4E0,4E0,1.1E1,4.1E1,1.5E1,4E0,2.6E1,4.9E1,1.1E1,8E0,4E0,1E0],"tree_param":{"num_deleted":"0","num_feature":"1","num_nodes":"47","size_leaf_vector":"1"}},{"base_weights":[-9.575804E-4,6.811765E-2,-8.871342E-3,1.04912974E-1,4.347608E-2,-1.8817665E-2,5.355579E-2,3.4751585E-3,1.6816682E-1,-3.9017525E-2,8.17236E-2,-2.1372754E-2,1.0225087E-2,1.3573793E-1,3.6583807E-2,-2.6827927E-3,3.7131736E-3,2.0666158E-2,8.1046484E-2,-5.2748173E-2,1.2724067E-3,4.9343195E-2,1.3125782E-1,-1.3822114E-2,-3.4652423E-2,9.554734E-2,-4.4565233E-3,8.810936E-2,2.6100177E-2,7.336942E-3,1.24030925E-1,-1.8613909E-3,1.6449757E-2,-3.6694203E-3,-8.072807E-3,9.714967E-3,-1.851069E-3,1.7617768E-2,7.674485E-3,-2.6640075E-3,9.626699E-3,-6.458409E-3,-3.023713E-3,5.372624E-3,1.1825898E-2,-5.0813216E-3,8.8943535E-4,1.1739257E-2,-2.9088382E-3,3.5895777E-3,-8.2315673E-4,1.5569237E-2,-2.179065E-4],"categories":[],"categories_nodes":[],"categories_segments":[],"categories_sizes":[],"default_left":[0,0,0,0,0,0,0,0,0,0,0,0,0,0,0,0,0,0,0,0,0,0,0,0,0,0,0,0,0,0,0,0,0,0,0,0,0,0,0,0,0,0,0,0,0,0,0,0,0,0,0,0,0],"id":12,"left_children":[1,3,5,7,9,11,13,15,17,19,21,23,25,27,29,-1,-1,-1,31,33,-1,35,37,39,41,43,45,47,-1,49,51,-1,-1,-1,-1,-1,-1,-1,-1,-1,-1,-1,-1,-1,-1,-1,-1,-1,-1,-1,-1,-1,-1],"loss_changes":[5.264767E-1,8.520153E-2,5.3748304E-1,2.4965253E-1,1.9565438E-1,5.55768E-2,1.6101468E-1,1.7314538E-2,6.3739E-2,1.4880085E-2,6.0888708E-2,6.830627E-2,7.683857E-2,9.632602E-2,2.548454E-1,0E0,0E0,0E0,7.7912875E-2,4.2247623E-3,0E0,8.938239E-2,2.5658727E-2,6.220453E-1,3.0822128E-2,2.1948144E-3,3.325378E-2,5.832555E-2,0E0,3.4086484E-2,1.0023904E-1,0E0,0E0,0E0,0E0,0E0,0E0,0E0,0E0,0E0,0E0,0E0,0E0,0E0,0E0,0E0,0E0,0E0,0E0,0E0,0E0,0E0,0E0],"parents":[2147483647,0,0,1,1,2,2,3,3,4,4,5,5,6,6,7,7,8,8,9,9,10,10,11,11,12,12,13,13,14,14,18,18,19,19,21,21,22,22,23,23,24,24,25,25,26,26,27,27,29,29,30,30],"right_children":[2,4,6,8,10,12,14,16,18,20,22,24,26,28,30,-1,-1,-1,32,34,-1,36,38,40,42,44,46,48,-1,50,52,-1,-1,-1,-1,-1,-1,-1,-1,-1,-1,-1,-1,-1,-1,-1,-1,-1,-1,-1,-1,-1,-1],"split_conditions":[3.5349452E-1,2.8397003E-1,5.4638493E-1,2.2284019E-1,3.087049E-1,5.1850104E-1,5.537352E-1,2.0140074E-1,2.72953E-1,3.069125E-1,3.4172833E-1,4.614903E-1,5.2286255E-1,5.5172586E-1,6.5439254E-1,-2.6827927E-3,3.7131736E-3,2.0666158E-2,2.813411E-1,3.0370265E-1,1.2724067E-3,3.2993495E-1,3.4660763E-1,4.550188E-1,4.6720985E-1,5.210467E-1,5.263938E-1,5.4966646E-1,2.6100177E-2,5.6924295E-1,8.189679E-1,-1.8613909E-3,1.6449757E-2,-3.6694203E-3,-8.072807E-3,9.714967E-3,-1.851069E-3,1.7617768E-2,7.674485E-3,-2.6640075E-3,9.626699E-3,-6.458409E-3,-3.023713E-3,5.372624E-3,1.1825898E-2,-5.0813216E-3,8.8943535E-4,1.1739257E-2,-2.9088382E-3,3.5895777E-3,-8.2315673E-4,1.5569237E-2,-2.179065E-4],"split_indices":[0,0,0,0,0,0,0,0,0,0,0,0,0,0,0,0,0,0,0,0,0,0,0,0,0,0,0,0,0,0,0,0,0,0,0,0,0,0,0,0,0,0,0,0,0,0,0,0,0,0,0,0,0],"split_type":[0,0,0,0,0,0,0,0,0,0,0,0,0,0,0,0,0,0,0,0,0,0,0,0,0,0,0,0,0,0,0,0,0,0,0,0,0,0,0,0,0,0,0,0,0,0,0,0,0,0,0,0,0],"sum_hessian":[9.61E2,9.8E1,8.63E2,3.8E1,6E1,7.45E2,1.18E2,1.5E1,2.3E1,1.9E1,4.1E1,6.85E2,6E1,1.9E1,9.9E1,8E0,7E0,1.5E1,8E0,1.5E1,4E0,2.6E1,1.5E1,4.38E2,2.47E2,8E0,5.2E1,1.5E1,4E0,7.5E1,2.4E1,4E0,4E0,1.1E1,4E0,1.5E1,1.1E1,7E0,8E0,3.93E2,4.5E1,3E1,2.17E2,4E0,4E0,1.1E1,4.1E1,1.2E1,3E0,2.6E1,4.9E1,1.9E1,5E0],"tree_param":{"num_deleted":"0","num_feature":"1","num_nodes":"53","size_leaf_vector":"1"}},{"base_weights":[5.2260594E-3,8.102073E-2,-3.4647947E-3,1.1860006E-1,5.5666383E-2,-1.423565E-2,6.408582E-2,1.5639631E-2,1.8229868E-1,-2.7380077E-2,9.388693E-2,-1.7017901E-2,1.7286643E-2,4.344452E-2,1.399593E-1,-1.5602938E-2,4.8832567E-3,2.2306828E-2,8.956401E-2,-4.128207E-2,2.2582314E-3,6.1569788E-2,1.4255416E-1,-8.17447E-3,-2.9658226E-2,5.4095995E-2,-1.353537E-2,1.3640824E-1,1.840875E-2,1.700046E-1,1.6481705E-2,-7.706842E-4,-2.0378446E-3,-1.2660017E-3,1.7387524E-2,-2.1320123E-3,-8.093433E-3,1.1053656E-2,-8.8500633E-4,1.8737992E-2,8.68697E-3,-2.1438422E-3,5.178955E-2,-1.0339113E-2,-2.5128697E-3,2.8498739E-3,1.6614364E-2,1.4304778E-3,-2.1282993E-3,8.980021E-3,2.5827227E-2,5.4178233E-3,-1.2749467E-4,1.1729709E-2,2.2139192E-2,3.8419773E-3,-4.6604313E-3],"categories":[],"categories_nodes":[],"categories_segments":[],"categories_sizes":[],"default_left":[0,0,0,0,0,0,0,0,0,0,0,0,0,0,0,0,0,0,0,0,0,0,0,0,0,0,0,0,0,0,0,0,0,0,0,0,0,0,0,0,0,0,0,0,0,0,0,0,0,0,0,0,0,0,0,0,0],"id":13,"left_children":[1,3,5,7,9,11,13,15,17,19,21,23,25,27,29,31,-1,-1,33,35,-1,37,39,41,43,45,47,49,51,53,55,-1,-1,-1,-1,-1,-1,-1,-1,-1,-1,-1,-1,-1,-1,-1,-1,-1,-1,-1,-1,-1,-1,-1,-1,-1,-1],"loss_changes":[6.339698E-1,8.772504E-2,6.2953955E-1,2.5292802E-1,1.9618955E-1,6.572059E-2,1.8028861E-1,1.7354453E-2,7.075918E-2,1.482378E-2,5.7279974E-2,7.644127E-2,6.993905E-2,2.1859366E-1,8.994609E-2,1.8231757E-4,0E0,0E0,7.976897E-2,1.09390505E-2,0E0,9.408054E-2,2.3659945E-2,2.8370981E0,9.1582984E-2,7.557225E-2,7.6380773E-3,9.0403944E-2,5.357882E-2,2.8201282E-2,1.0094438E-2,0E0,0E0,0E0,0E0,0E0,0E0,0E0,0E0,0E0,0E0,0E0,0E0,0E0,0E0,0E0,0E0,0E0,0E0,0E0,0E0,0E0,0E0,0E0,0E0,0E0,0E0],"parents":[2147483647,0,0,1,1,2,2,3,3,4,4,5,5,6,6,7,7,8,8,9,9,10,10,11,11,12,12,13,13,14,14,15,15,18,18,19,19,21,21,22,22,23,23,24,24,25,25,26,26,27,27,28,28,29,29,30,30],"right_children":[2,4,6,8,10,12,14,16,18,20,22,24,26,28,30,32,-1,-1,34,36,-1,38,40,42,44,46,48,50,52,54,56,-1,-1,-1,-1,-1,-1,-1,-1,-1,-1,-1,-1,-1,-1,-1,-1,-1,-1,-1,-1,-1,-1,-1,-1,-1,-1],"split_conditions":[3.5349452E-1,2.8397003E-1,5.4638493E-1,2.2284019E-1,3.087049E-1,5.1850104E-1,6.5439254E-1,2.0140074E-1,2.72953E-1,3.069125E-1,3.4172833E-1,4.5525965E-1,5.3274417E-1,5.537352E-1,8.189679E-1,1.7417204E-1,4.8832567E-3,2.2306828E-2,2.813411E-1,3.0370265E-1,2.2582314E-3,3.2993495E-1,3.4660763E-1,4.5511007E-1,4.588401E-1,5.282491E-1,5.3724945E-1,5.5172586E-1,5.6924295E-1,6.9467825E-1,1E0,-7.706842E-4,-2.0378446E-3,-1.2660017E-3,1.7387524E-2,-2.1320123E-3,-8.093433E-3,1.1053656E-2,-8.8500633E-4,1.8737992E-2,8.68697E-3,-2.1438422E-3,5.178955E-2,-1.0339113E-2,-2.5128697E-3,2.8498739E-3,1.6614364E-2,1.4304778E-3,-2.1282993E-3,8.980021E-3,2.5827227E-2,5.4178233E-3,-1.2749467E-4,1.1729709E-2,2.2139192E-2,3.8419773E-3,-4.6604313E-3],"split_indices":[0,0,0,0,0,0,0,0,0,0,0,0,0,0,0,0,0,0,0,0,0,0,0,0,0,0,0,0,0,0,0,0,0,0,0,0,0,0,0,0,0,0,0,0,0,0,0,0,0,0,0,0,0,0,0,0,0],"split_type":[0,0,0,0,0,0,0,0,0,0,0,0,0,0,0,0,0,0,0,0,0,0,0,0,0,0,0,0,0,0,0,0,0,0,0,0,0,0,0,0,0,0,0,0,0,0,0,0,0,0,0,0,0,0,0,0,0],"sum_hessian":[9.61E2,9.8E1,8.63E2,3.8E1,6E1,7.45E2,1.18E2,1.5E1,2.3E1,1.9E1,4.1E1,6.85E2,6E1,9.4E1,2.4E1,8E0,7E0,1.5E1,8E0,1.5E1,4E0,2.6E1,1.5E1,4.04E2,2.81E2,2.7E1,3.3E1,1.9E1,7.5E1,1.9E1,5E0,4E0,4E0,4E0,4E0,1.1E1,4E0,1.5E1,1.1E1,7E0,8E0,3.95E2,9E0,1.5E1,2.66E2,2.3E1,4E0,7E0,2.6E1,1.5E1,4E0,2.6E1,4.9E1,1.1E1,8E0,4E0,1E0],"tree_param":{"num_deleted":"0","num_feature":"1","num_nodes":"57","size_leaf_vector":"1"}},{"base_weights":[-1.2441552E-3,6.070064E-2,-8.340556E-3,-3.4919307E-2,6.9490515E-2,-1.714724E-2,4.6937812E-2,-4.2430633E-3,-2.0424118E-3,1.2071223E-1,4.2320624E-2,-2.5551124E-2,-8.065432E-3,1.19143374E-1,3.2027323E-2,3.515557E-3,1.4420144E-1,-4.6646025E-2,7.234553E-2,-7.689243E-3,-4.2213537E-2,2.4707903E-1,-2.2216542E-2,7.735297E-2,2.2904402E-2,7.0620147E-3,1.0664076E-1,2.0205615E-2,1.0264559E-2,-3.020831E-3,-7.676734E-3,4.2564217E-3,1.2552524E-2,-1.3198764E-3,7.4216956E-3,-4.0473114E-3,-1.0199542E-2,1.542876E-4,4.679073E-2,-3.4235779E-3,-3.5334437E-4,1.2532738E-2,1.3712641E-3,3.8835339E-3,-1.0236821E-3,1.3613196E-2,-9.4366644E-4],"categories":[],"categories_nodes":[],"categories_segments":[],"categories_sizes":[],"default_left":[0,0,0,0,0,0,0,0,0,0,0,0,0,0,0,0,0,0,0,0,0,0,0,0,0,0,0,0,0,0,0,0,0,0,0,0,0,0,0,0,0,0,0,0,0,0,0],"id":14,"left_children":[1,3,5,7,9,11,13,-1,-1,15,17,19,21,23,25,-1,27,29,31,33,35,37,39,41,-1,43,45,-1,-1,-1,-1,-1,-1,-1,-1,-1,-1,-1,-1,-1,-1,-1,-1,-1,-1,-1,-1],"loss_changes":[4.2338717E-1,8.563483E-2,4.2141652E-1,1.1329446E-4,1.2153503E-1,5.6730464E-2,1.24302E-1,0E0,0E0,5.7229936E-2,1.663188E-1,1.1485514E-1,1.305297E0,7.413861E-2,1.8552166E-1,0E0,3.696069E-2,5.6030005E-3,6.751016E-2,8.581718E-2,1.6681105E-2,1.0294834E0,7.66774E-2,4.7131144E-2,0E0,4.2170305E-2,8.686617E-2,0E0,0E0,0E0,0E0,0E0,0E0,0E0,0E0,0E0,0E0,0E0,0E0,0E0,0E0,0E0,0E0,0E0,0E0,0E0,0E0],"parents":[2147483647,0,0,1,1,2,2,3,3,4,4,5,5,6,6,9,9,10,10,11,11,12,12,13,13,14,14,16,16,17,17,18,18,19,19,20,20,21,21,22,22,23,23,25,25,26,26],"right_children":[2,4,6,8,10,12,14,-1,-1,16,18,20,22,24,26,-1,28,30,32,34,36,38,40,42,-1,44,46,-1,-1,-1,-1,-1,-1,-1,-1,-1,-1,-1,-1,-1,-1,-1,-1,-1,-1,-1,-1],"split_conditions":[3.5349452E-1,2.0140074E-1,5.4638493E-1,1.7417204E-1,2.8397003E-1,4.5285463E-1,5.537352E-1,-4.2430633E-3,-2.0424118E-3,2.2284019E-1,3.069125E-1,4.1473898E-1,4.5525965E-1,5.5172586E-1,6.5439254E-1,3.515557E-3,2.5818753E-1,3.0370265E-1,3.4172833E-1,4.1205993E-1,4.522369E-1,4.5511007E-1,4.9764174E-1,5.4857653E-1,2.2904402E-2,5.6924295E-1,8.189679E-1,2.0205615E-2,1.0264559E-2,-3.020831E-3,-7.676734E-3,4.2564217E-3,1.2552524E-2,-1.3198764E-3,7.4216956E-3,-4.0473114E-3,-1.0199542E-2,1.542876E-4,4.679073E-2,-3.4235779E-3,-3.5334437E-4,1.2532738E-2,1.3712641E-3,3.8835339E-3,-1.0236821E-3,1.3613196E-2,-9.4366644E-4],"split_indices":[0,0,0,0,0,0,0,0,0,0,0,0,0,0,0,0,0,0,0,0,0,0,0,0,0,0,0,0,0,0,0,0,0,0,0,0,0,0,0,0,0,0,0,0,0,0,0],"split_type":[0,0,0,0,0,0,0,0,0,0,0,0,0,0,0,0,0,0,0,0,0,0,0,0,0,0,0,0,0,0,0,0,0,0,0,0,0,0,0,0,0,0,0,0,0,0,0],"sum_hessian":[9.61E2,9.8E1,8.63E2,8E0,9E1,7.45E2,1.18E2,4E0,4E0,3E1,6E1,3.86E2,3.59E2,1.9E1,9.9E1,7E0,2.3E1,1.5E1,4.5E1,1.87E2,1.99E2,1.8E1,3.41E2,1.5E1,4E0,7.5E1,2.4E1,8E0,1.5E1,1.1E1,4E0,3E1,1.5E1,1.76E2,1.1E1,1.95E2,4E0,9E0,9E0,2.07E2,1.34E2,8E0,7E0,2.6E1,4.9E1,1.9E1,5E0],"tree_param":{"num_deleted":"0","num_feature":"1","num_nodes":"47","size_leaf_vector":"1"}},{"base_weights":[-1.1866183E-3,6.903061E-2,-9.2309695E-3,-2.6484511E-3,7.7718586E-2,-1.892982E-2,5.16478E-2,1.474606E-1,5.3344894E-2,-2.1530228E-2,1.0624436E-2,3.438896E-2,1.1516549E-1,4.1722027E-3,1.9111359E-1,2.829423E-2,1.3455683E-1,-1.2890158E-2,-3.386249E-2,3.8763203E-2,-2.624524E-2,1.21573344E-1,1.09932115E-2,1.4608286E-1,-7.086687E-3,2.3097508E-2,1.2238021E-2,1.3756225E-4,5.516189E-3,1.7665675E-2,8.218393E-3,-2.602985E-3,5.087306E-2,-1.054863E-2,-2.9443603E-3,8.64732E-3,2.1424196E-3,-7.6939636E-3,-1.4083623E-3,7.948075E-3,2.3195498E-2,4.647338E-3,-8.3859416E-4,9.911551E-3,1.9247457E-2,1.5216765E-3,-5.9301974E-3],"categories":[],"categories_nodes":[],"categories_segments":[],"categories_sizes":[],"default_left":[0,0,0,0,0,0,0,0,0,0,0,0,0,0,0,0,0,0,0,0,0,0,0,0,0,0,0,0,0,0,0,0,0,0,0,0,0,0,0,0,0,0,0,0,0,0,0],"id":15,"left_children":[1,3,5,-1,7,9,11,13,15,17,19,21,23,-1,25,27,29,31,33,35,37,39,41,43,45,-1,-1,-1,-1,-1,-1,-1,-1,-1,-1,-1,-1,-1,-1,-1,-1,-1,-1,-1,-1,-1,-1],"loss_changes":[5.440249E-1,8.42118E-2,5.1113003E-1,0E0,1.4682186E-1,5.756116E-2,1.2649238E-1,9.818989E-2,1.365673E-1,7.265791E-2,6.430285E-2,1.9243917E-1,9.5528126E-2,0E0,1.5570283E-2,3.8979076E-2,2.075994E-2,2.7890859E0,8.6146414E-2,2.7100913E-2,1.5562607E-2,7.448906E-2,5.2645463E-2,2.4500728E-2,7.889871E-3,0E0,0E0,0E0,0E0,0E0,0E0,0E0,0E0,0E0,0E0,0E0,0E0,0E0,0E0,0E0,0E0,0E0,0E0,0E0,0E0,0E0,0E0],"parents":[2147483647,0,0,1,1,2,2,4,4,5,5,6,6,7,7,8,8,9,9,10,10,11,11,12,12,14,14,15,15,16,16,17,17,18,18,19,19,20,20,21,21,22,22,23,23,24,24],"right_children":[2,4,6,-1,8,10,12,14,16,18,20,22,24,-1,26,28,30,32,34,36,38,40,42,44,46,-1,-1,-1,-1,-1,-1,-1,-1,-1,-1,-1,-1,-1,-1,-1,-1,-1,-1,-1,-1,-1,-1],"split_conditions":[3.5349452E-1,2.0140074E-1,5.4638493E-1,-2.6484511E-3,2.72953E-1,5.1850104E-1,6.5439254E-1,2.2284019E-1,3.4172833E-1,4.5525965E-1,5.3724945E-1,5.537352E-1,8.189679E-1,4.1722027E-3,2.5818753E-1,3.087049E-1,3.4660763E-1,4.5511007E-1,4.588401E-1,5.2286255E-1,5.382713E-1,5.5172586E-1,5.6924295E-1,6.9467825E-1,1E0,2.3097508E-2,1.2238021E-2,1.3756225E-4,5.516189E-3,1.7665675E-2,8.218393E-3,-2.602985E-3,5.087306E-2,-1.054863E-2,-2.9443603E-3,8.64732E-3,2.1424196E-3,-7.6939636E-3,-1.4083623E-3,7.948075E-3,2.3195498E-2,4.647338E-3,-8.3859416E-4,9.911551E-3,1.9247457E-2,1.5216765E-3,-5.9301974E-3],"split_indices":[0,0,0,0,0,0,0,0,0,0,0,0,0,0,0,0,0,0,0,0,0,0,0,0,0,0,0,0,0,0,0,0,0,0,0,0,0,0,0,0,0,0,0,0,0,0,0],"split_type":[0,0,0,0,0,0,0,0,0,0,0,0,0,0,0,0,0,0,0,0,0,0,0,0,0,0,0,0,0,0,0,0,0,0,0,0,0,0,0,0,0,0,0,0,0,0,0],"sum_hessian":[9.61E2,9.8E1,8.63E2,8E0,9E1,7.45E2,1.18E2,2.2E1,6.8E1,6.85E2,6E1,9.4E1,2.4E1,7E0,1.5E1,5.3E1,1.5E1,4.04E2,2.81E2,3.4E1,2.6E1,1.9E1,7.5E1,1.9E1,5E0,8E0,7E0,2.7E1,2.6E1,7E0,8E0,3.95E2,9E0,1.5E1,2.66E2,8E0,2.6E1,4E0,2.2E1,1.5E1,4E0,2.6E1,4.9E1,1.1E1,8E0,4E0,1E0],"tree_param":{"num_deleted":"0","num_feature":"1","num_nodes":"47","size_leaf_vector":"1"}},{"base_weights":[-7.344732E-4,6.190155E-2,-7.910668E-3,9.535206E-2,3.950038E-2,-1.6921837E-2,4.8646E-2,3.1920383E-3,1.5281907E-1,-3.563926E-2,7.434068E-2,-1.9239146E-2,9.415802E-3,1.23910666E-1,3.3106603E-2,-2.4443227E-3,3.3882707E-3,2.2033231E-2,1.0529169E-1,-4.8207242E-2,1.1706138E-3,4.4700135E-2,1.197128E-1,-1.1539366E-2,-3.0229118E-2,4.575388E-2,-2.0786613E-2,7.985033E-2,2.4012161E-2,6.6396496E-3,1.1224188E-1,2.475391E-3,1.3007479E-2,-3.3330563E-3,-7.426983E-3,8.804189E-3,-1.6813878E-3,1.6076215E-2,6.9923075E-3,-2.3697359E-3,4.71071E-2,-1.0267376E-2,-2.5774648E-3,2.0313484E-3,1.5871702E-2,5.714432E-4,-2.7868901E-3,1.308694E-2,1.2472576E-3,3.2439155E-3,-7.424876E-4,1.409016E-2,-1.997482E-4],"categories":[],"categories_nodes":[],"categories_segments":[],"categories_sizes":[],"default_left":[0,0,0,0,0,0,0,0,0,0,0,0,0,0,0,0,0,0,0,0,0,0,0,0,0,0,0,0,0,0,0,0,0,0,0,0,0,0,0,0,0,0,0,0,0,0,0,0,0,0,0,0,0],"id":16,"left_children":[1,3,5,7,9,11,13,15,17,19,21,23,25,27,29,-1,-1,-1,31,33,-1,35,37,39,41,43,45,47,-1,49,51,-1,-1,-1,-1,-1,-1,-1,-1,-1,-1,-1,-1,-1,-1,-1,-1,-1,-1,-1,-1,-1,-1],"loss_changes":[4.3289742E-1,7.0417285E-2,4.411536E-1,2.0606247E-1,1.6234058E-1,4.5711383E-2,1.3507625E-1,1.4398517E-2,5.38103E-2,1.2465043E-2,5.113271E-2,5.7700753E-2,6.789844E-2,8.3232075E-2,2.0870176E-1,0E0,0E0,0E0,2.871576E-2,3.7281401E-3,0E0,7.34657E-2,2.1460414E-2,2.38753E0,8.835569E-2,7.724306E-2,6.540647E-3,5.336853E-2,0E0,2.7818048E-2,8.2133114E-2,0E0,0E0,0E0,0E0,0E0,0E0,0E0,0E0,0E0,0E0,0E0,0E0,0E0,0E0,0E0,0E0,0E0,0E0,0E0,0E0,0E0,0E0],"parents":[2147483647,0,0,1,1,2,2,3,3,4,4,5,5,6,6,7,7,8,8,9,9,10,10,11,11,12,12,13,13,14,14,18,18,19,19,21,21,22,22,23,23,24,24,25,25,26,26,27,27,29,29,30,30],"right_children":[2,4,6,8,10,12,14,16,18,20,22,24,26,28,30,-1,-1,-1,32,34,-1,36,38,40,42,44,46,48,-1,50,52,-1,-1,-1,-1,-1,-1,-1,-1,-1,-1,-1,-1,-1,-1,-1,-1,-1,-1,-1,-1,-1,-1],"split_conditions":[3.5349452E-1,2.8397003E-1,5.4638493E-1,2.2284019E-1,3.087049E-1,5.1850104E-1,5.537352E-1,2.0140074E-1,2.5818753E-1,3.069125E-1,3.4172833E-1,4.5525965E-1,5.3274417E-1,5.5172586E-1,6.5439254E-1,-2.4443227E-3,3.3882707E-3,2.2033231E-2,2.662511E-1,3.0370265E-1,1.1706138E-3,3.2993495E-1,3.4660763E-1,4.5511007E-1,4.588401E-1,5.282491E-1,5.3724945E-1,5.4857653E-1,2.4012161E-2,5.6924295E-1,8.189679E-1,2.475391E-3,1.3007479E-2,-3.3330563E-3,-7.426983E-3,8.804189E-3,-1.6813878E-3,1.6076215E-2,6.9923075E-3,-2.3697359E-3,4.71071E-2,-1.0267376E-2,-2.5774648E-3,2.0313484E-3,1.5871702E-2,5.714432E-4,-2.7868901E-3,1.308694E-2,1.2472576E-3,3.2439155E-3,-7.424876E-4,1.409016E-2,-1.997482E-4],"split_indices":[0,0,0,0,0,0,0,0,0,0,0,0,0,0,0,0,0,0,0,0,0,0,0,0,0,0,0,0,0,0,0,0,0,0,0,0,0,0,0,0,0,0,0,0,0,0,0,0,0,0,0,0,0],"split_type":[0,0,0,0,0,0,0,0,0,0,0,0,0,0,0,0,0,0,0,0,0,0,0,0,0,0,0,0,0,0,0,0,0,0,0,0,0,0,0,0,0,0,0,0,0,0,0,0,0,0,0,0,0],"sum_hessian":[9.61E2,9.8E1,8.63E2,3.8E1,6E1,7.45E2,1.18E2,1.5E1,2.3E1,1.9E1,4.1E1,6.85E2,6E1,1.9E1,9.9E1,8E0,7E0,8E0,1.5E1,1.5E1,4E0,2.6E1,1.5E1,4.04E2,2.81E2,2.7E1,3.3E1,1.5E1,4E0,7.5E1,2.4E1,4E0,1.1E1,1.1E1,4E0,1.5E1,1.1E1,7E0,8E0,3.95E2,9E0,1.5E1,2.66E2,2.3E1,4E0,7E0,2.6E1,8E0,7E0,2.6E1,4.9E1,1.9E1,5E0],"tree_param":{"num_deleted":"0","num_feature":"1","num_nodes":"53","size_leaf_vector":"1"}},{"base_weights":[4.9101464E-3,7.362703E-2,-2.9693462E-3,1.07778594E-1,5.0585423E-2,-1.2737606E-2,5.8291923E-2,1.4205337E-2,1.6567E-1,-3.779295E-2,8.022604E-2,-1.5262474E-2,1.5865628E-2,3.952215E-2,1.2728539E-1,-1.4354704E-2,4.455972E-3,2.3797682E-2,1.1464304E-1,-1.9365778E-2,-7.4459584E-3,5.1941715E-2,1.300128E-1,1.5621939E-3,-2.1570642E-2,9.226096E-2,2.5934838E-3,1.2450778E-1,1.6637484E-2,1.546976E-1,1.4697124E-2,-7.0902915E-4,-1.8748175E-3,3.952175E-3,1.3638998E-2,-5.262852E-3,3.8441588E-4,7.880495E-3,-2.2480064E-3,1.7098418E-2,7.914794E-3,-4.1387207E-4,8.55205E-3,-4.011938E-3,-9.1329124E-4,5.1690745E-3,1.14378985E-2,-4.0852134E-3,1.4944768E-3,8.138144E-3,2.376105E-2,4.896107E-3,-1.15000235E-4,1.0654486E-2,2.0171262E-2,3.5346188E-3,-4.42741E-3],"categories":[],"categories_nodes":[],"categories_segments":[],"categories_sizes":[],"default_left":[0,0,0,0,0,0,0,0,0,0,0,0,0,0,0,0,0,0,0,0,0,0,0,0,0,0,0,0,0,0,0,0,0,0,0,0,0,0,0,0,0,0,0,0,0,0,0,0,0,0,0,0,0,0,0,0,0],"id":17,"left_children":[1,3,5,7,9,11,13,15,17,19,21,23,25,27,29,31,-1,-1,33,35,-1,37,39,41,43,45,47,49,51,53,55,-1,-1,-1,-1,-1,-1,-1,-1,-1,-1,-1,-1,-1,-1,-1,-1,-1,-1,-1,-1,-1,-1,-1,-1,-1,-1],"loss_changes":[5.2109754E-1,7.245171E-2,5.177739E-1,2.08913E-1,1.6282697E-1,5.411782E-2,1.4907345E-1,1.45104E-2,6.1267972E-2,9.368628E-3,5.8023423E-2,7.284081E-2,6.1610438E-2,1.8269093E-1,7.488376E-2,1.5431375E-4,0E0,0E0,2.0748183E-2,9.466626E-3,0E0,6.3747026E-2,1.9811004E-2,9.0338096E-2,1.14754975E-1,2.1636635E-3,2.9050812E-2,7.821703E-2,4.3752916E-2,2.3786604E-2,8.871124E-3,0E0,0E0,0E0,0E0,0E0,0E0,0E0,0E0,0E0,0E0,0E0,0E0,0E0,0E0,0E0,0E0,0E0,0E0,0E0,0E0,0E0,0E0,0E0,0E0,0E0,0E0],"parents":[2147483647,0,0,1,1,2,2,3,3,4,4,5,5,6,6,7,7,8,8,9,9,10,10,11,11,12,12,13,13,14,14,15,15,18,18,19,19,21,21,22,22,23,23,24,24,25,25,26,26,27,27,28,28,29,29,30,30],"right_children":[2,4,6,8,10,12,14,16,18,20,22,24,26,28,30,32,-1,-1,34,36,-1,38,40,42,44,46,48,50,52,54,56,-1,-1,-1,-1,-1,-1,-1,-1,-1,-1,-1,-1,-1,-1,-1,-1,-1,-1,-1,-1,-1,-1,-1,-1,-1,-1],"split_conditions":[3.5349452E-1,2.8397003E-1,5.4638493E-1,2.2284019E-1,3.069125E-1,5.1850104E-1,6.5439254E-1,2.0140074E-1,2.5818753E-1,3.0370265E-1,3.4172833E-1,4.1473898E-1,5.2286255E-1,5.537352E-1,8.189679E-1,1.7417204E-1,4.455972E-3,2.3797682E-2,2.662511E-1,2.8922725E-1,-7.4459584E-3,3.3183363E-1,3.4660763E-1,4.1205993E-1,4.5285463E-1,5.210467E-1,5.263938E-1,5.5172586E-1,5.6924295E-1,6.9467825E-1,1E0,-7.0902915E-4,-1.8748175E-3,3.952175E-3,1.3638998E-2,-5.262852E-3,3.8441588E-4,7.880495E-3,-2.2480064E-3,1.7098418E-2,7.914794E-3,-4.1387207E-4,8.55205E-3,-4.011938E-3,-9.1329124E-4,5.1690745E-3,1.14378985E-2,-4.0852134E-3,1.4944768E-3,8.138144E-3,2.376105E-2,4.896107E-3,-1.15000235E-4,1.0654486E-2,2.0171262E-2,3.5346188E-3,-4.42741E-3],"split_indices":[0,0,0,0,0,0,0,0,0,0,0,0,0,0,0,0,0,0,0,0,0,0,0,0,0,0,0,0,0,0,0,0,0,0,0,0,0,0,0,0,0,0,0,0,0,0,0,0,0,0,0,0,0,0,0,0,0],"split_type":[0,0,0,0,0,0,0,0,0,0,0,0,0,0,0,0,0,0,0,0,0,0,0,0,0,0,0,0,0,0,0,0,0,0,0,0,0,0,0,0,0,0,0,0,0,0,0,0,0,0,0,0,0,0,0,0,0],"sum_hessian":[9.61E2,9.8E1,8.63E2,3.8E1,6E1,7.45E2,1.18E2,1.5E1,2.3E1,1.5E1,4.5E1,6.85E2,6E1,9.4E1,2.4E1,8E0,7E0,8E0,1.5E1,1.1E1,4E0,3E1,1.5E1,1.87E2,4.98E2,8E0,5.2E1,1.9E1,7.5E1,1.9E1,5E0,4E0,4E0,4E0,1.1E1,4E0,7E0,2.2E1,8E0,7E0,8E0,1.76E2,1.1E1,1.99E2,2.99E2,4E0,4E0,1.1E1,4.1E1,1.5E1,4E0,2.6E1,4.9E1,1.1E1,8E0,4E0,1E0],"tree_param":{"num_deleted":"0","num_feature":"1","num_nodes":"57","size_leaf_vector":"1"}},{"base_weights":[-9.937839E-4,5.497211E-2,-7.405392E-3,-3.2125764E-2,6.298209E-2,-1.5385572E-2,4.2683844E-2,-3.9036185E-3,-1.879019E-3,1.2115806E-1,4.2677317E-2,-2.3017064E-2,-7.1389787E-3,1.0906946E-1,2.8979883E-2,3.207946E-3,1.5812498E-1,2.0826278E-2,1.13757245E-1,-6.887868E-3,-3.806342E-2,2.2484192E-1,-2.0005932E-2,7.048667E-2,2.1072049E-2,6.3934405E-3,9.648347E-2,8.862975E-3,1.7390426E-2,3.4127892E-3,-2.8573358E-3,1.5823686E-2,6.158012E-3,-1.1886349E-3,6.741372E-3,-3.002276E-3,-4.8809787E-3,1.404018E-4,4.2579565E-2,-2.6376757E-3,9.774042E-4,1.1418718E-2,1.2512783E-3,3.5095636E-3,-9.2336134E-4,1.2319943E-2,-8.6502807E-4],"categories":[],"categories_nodes":[],"categories_segments":[],"categories_sizes":[],"default_left":[0,0,0,0,0,0,0,0,0,0,0,0,0,0,0,0,0,0,0,0,0,0,0,0,0,0,0,0,0,0,0,0,0,0,0,0,0,0,0,0,0,0,0,0,0,0,0],"id":18,"left_children":[1,3,5,7,9,11,13,-1,-1,15,17,19,21,23,25,-1,27,29,31,33,35,37,39,41,-1,43,45,-1,-1,-1,-1,-1,-1,-1,-1,-1,-1,-1,-1,-1,-1,-1,-1,-1,-1,-1,-1],"loss_changes":[3.4560287E-1,7.109094E-2,3.4601572E-1,9.58927E-5,1.02323055E-1,4.6784326E-2,1.0509898E-1,0E0,0E0,7.066557E-2,1.0479961E-1,9.3657196E-2,1.0790577E0,6.358661E-2,1.5184973E-1,0E0,2.1322668E-3,3.6458272E-2,2.738884E-2,7.0623584E-2,1.5816182E-2,8.5251516E-1,6.514306E-2,3.910701E-2,0E0,3.4412395E-2,7.128444E-2,0E0,0E0,0E0,0E0,0E0,0E0,0E0,0E0,0E0,0E0,0E0,0E0,0E0,0E0,0E0,0E0,0E0,0E0,0E0,0E0],"parents":[2147483647,0,0,1,1,2,2,3,3,4,4,5,5,6,6,9,9,10,10,11,11,12,12,13,13,14,14,16,16,17,17,18,18,19,19,20,20,21,21,22,22,23,23,25,25,26,26],"right_children":[2,4,6,8,10,12,14,-1,-1,16,18,20,22,24,26,-1,28,30,32,34,36,38,40,42,-1,44,46,-1,-1,-1,-1,-1,-1,-1,-1,-1,-1,-1,-1,-1,-1,-1,-1,-1,-1,-1,-1],"split_conditions":[3.5349452E-1,2.0140074E-1,5.4638493E-1,1.7417204E-1,2.72953E-1,4.5285463E-1,5.537352E-1,-3.9036185E-3,-1.879019E-3,2.2284019E-1,3.4172833E-1,4.1473898E-1,4.5525965E-1,5.5172586E-1,6.5439254E-1,3.207946E-3,2.4845433E-1,3.2993495E-1,3.4660763E-1,4.1205993E-1,4.380329E-1,4.5511007E-1,5.1850104E-1,5.4857653E-1,2.1072049E-2,5.6924295E-1,8.189679E-1,8.862975E-3,1.7390426E-2,3.4127892E-3,-2.8573358E-3,1.5823686E-2,6.158012E-3,-1.1886349E-3,6.741372E-3,-3.002276E-3,-4.8809787E-3,1.404018E-4,4.2579565E-2,-2.6376757E-3,9.774042E-4,1.1418718E-2,1.2512783E-3,3.5095636E-3,-9.2336134E-4,1.2319943E-2,-8.6502807E-4],"split_indices":[0,0,0,0,0,0,0,0,0,0,0,0,0,0,0,0,0,0,0,0,0,0,0,0,0,0,0,0,0,0,0,0,0,0,0,0,0,0,0,0,0,0,0,0,0,0,0],"split_type":[0,0,0,0,0,0,0,0,0,0,0,0,0,0,0,0,0,0,0,0,0,0,0,0,0,0,0,0,0,0,0,0,0,0,0,0,0,0,0,0,0,0,0,0,0,0,0],"sum_hessian":[9.61E2,9.8E1,8.63E2,8E0,9E1,7.45E2,1.18E2,4E0,4E0,2.2E1,6.8E1,3.86E2,3.59E2,1.9E1,9.9E1,7E0,1.5E1,5.3E1,1.5E1,1.87E2,1.99E2,1.8E1,3.41E2,1.5E1,4E0,7.5E1,2.4E1,4E0,1.1E1,4.2E1,1.1E1,7E0,8E0,1.76E2,1.1E1,1.16E2,8.3E1,9E0,9E0,2.81E2,6E1,8E0,7E0,2.6E1,4.9E1,1.9E1,5E0],"tree_param":{"num_deleted":"0","num_feature":"1","num_nodes":"47","size_leaf_vector":"1"}},{"base_weights":[-8.9689303E-4,6.281843E-2,-8.196569E-3,-2.4130326E-3,7.0727445E-2,-1.6987959E-2,4.698472E-2,1.23605244E-1,4.2695653E-2,-1.9326512E-2,9.589657E-3,3.131798E-2,1.04638964E-1,3.8071347E-3,1.4696632E-1,-5.0228763E-2,7.408902E-2,-3.5013447E-3,-2.5249967E-2,4.1836165E-2,-1.724834E-2,1.10973194E-1,9.944E-3,1.3293253E-1,-7.1127713E-3,2.1044396E-2,1.0207477E-2,-3.020666E-3,-8.823606E-3,4.6599763E-3,1.227189E-2,-9.1854215E-4,8.063057E-3,-4.333377E-3,-1.3109935E-3,1.8700727E-3,1.4451905E-2,-2.427713E-3,8.6298725E-4,7.2029433E-3,2.1339858E-2,4.1998154E-3,-7.564122E-4,9.002992E-3,1.7536575E-2,1.3999423E-3,-5.633687E-3],"categories":[],"categories_nodes":[],"categories_segments":[],"categories_sizes":[],"default_left":[0,0,0,0,0,0,0,0,0,0,0,0,0,0,0,0,0,0,0,0,0,0,0,0,0,0,0,0,0,0,0,0,0,0,0,0,0,0,0,0,0,0,0,0,0,0,0],"id":19,"left_children":[1,3,5,-1,7,9,11,13,15,17,19,21,23,-1,25,27,29,31,33,35,37,39,41,43,45,-1,-1,-1,-1,-1,-1,-1,-1,-1,-1,-1,-1,-1,-1,-1,-1,-1,-1,-1,-1,-1,-1],"loss_changes":[4.4794226E-1,6.978688E-2,4.1994208E-1,0E0,1.2960824E-1,4.655157E-2,1.0421017E-1,5.6347907E-2,1.8167126E-1,6.421703E-2,5.3512935E-2,1.606386E-1,7.999191E-2,0E0,4.690963E-2,9.510454E-3,5.5774093E-2,9.064453E-2,1.0898131E-1,6.3814566E-2,6.3938545E-3,6.4405635E-2,4.2969488E-2,2.0621777E-2,7.0240567E-3,0E0,0E0,0E0,0E0,0E0,0E0,0E0,0E0,0E0,0E0,0E0,0E0,0E0,0E0,0E0,0E0,0E0,0E0,0E0,0E0,0E0,0E0],"parents":[2147483647,0,0,1,1,2,2,4,4,5,5,6,6,7,7,8,8,9,9,10,10,11,11,12,12,14,14,15,15,16,16,17,17,18,18,19,19,20,20,21,21,22,22,23,23,24,24],"right_children":[2,4,6,-1,8,10,12,14,16,18,20,22,24,-1,26,28,30,32,34,36,38,40,42,44,46,-1,-1,-1,-1,-1,-1,-1,-1,-1,-1,-1,-1,-1,-1,-1,-1,-1,-1,-1,-1,-1,-1],"split_conditions":[3.5349452E-1,2.0140074E-1,5.4638493E-1,-2.4130326E-3,2.8397003E-1,5.1850104E-1,6.5439254E-1,2.2284019E-1,3.069125E-1,4.1473898E-1,5.3274417E-1,5.537352E-1,8.189679E-1,3.8071347E-3,2.5818753E-1,3.0370265E-1,3.4172833E-1,4.1205993E-1,4.5285463E-1,5.282491E-1,5.4344636E-1,5.5172586E-1,5.6924295E-1,6.9467825E-1,1E0,2.1044396E-2,1.0207477E-2,-3.020666E-3,-8.823606E-3,4.6599763E-3,1.227189E-2,-9.1854215E-4,8.063057E-3,-4.333377E-3,-1.3109935E-3,1.8700727E-3,1.4451905E-2,-2.427713E-3,8.6298725E-4,7.2029433E-3,2.1339858E-2,4.1998154E-3,-7.564122E-4,9.002992E-3,1.7536575E-2,1.3999423E-3,-5.633687E-3],"split_indices":[0,0,0,0,0,0,0,0,0,0,0,0,0,0,0,0,0,0,0,0,0,0,0,0,0,0,0,0,0,0,0,0,0,0,0,0,0,0,0,0,0,0,0,0,0,0,0],"split_type":[0,0,0,0,0,0,0,0,0,0,0,0,0,0,0,0,0,0,0,0,0,0,0,0,0,0,0,0,0,0,0,0,0,0,0,0,0,0,0,0,0,0,0,0,0,0,0],"sum_hessian":[9.61E2,9.8E1,8.63E2,8E0,9E1,7.45E2,1.18E2,3E1,6E1,6.85E2,6E1,9.4E1,2.4E1,7E0,2.3E1,1.5E1,4.5E1,1.87E2,4.98E2,2.7E1,3.3E1,1.9E1,7.5E1,1.9E1,5E0,8E0,1.5E1,1.1E1,4E0,3E1,1.5E1,1.76E2,1.1E1,1.99E2,2.99E2,2.3E1,4E0,2.6E1,7E0,1.5E1,4E0,2.6E1,4.9E1,1.1E1,8E0,4E0,1E0],"tree_param":{"num_deleted":"0","num_feature":"1","num_nodes":"47","size_leaf_vector":"1"}},{"base_weights":[-4.932699E-4,5.6307983E-2,-7.0011755E-3,8.6803004E-2,3.5888083E-2,-1.5165873E-2,4.4241387E-2,2.9318342E-3,1.3910033E-1,-3.2554805E-2,6.7625456E-2,-2.2036586E-2,-7.7377288E-3,1.1343692E-1,2.9959869E-2,-2.227049E-3,3.091797E-3,1.7321268E-2,6.300056E-2,-4.405902E-2,1.0769638E-3,4.049393E-2,1.0918331E-1,-5.2083945E-3,-4.1160338E-2,2.2983137E-1,-2.0913387E-2,7.2761185E-2,2.2091191E-2,6.0086036E-3,1.0157332E-1,-2.7530775E-3,1.4093178E-2,-3.0275255E-3,-6.8328246E-3,7.978796E-3,-1.5272606E-3,1.4669547E-2,6.3707693E-3,-8.9500425E-4,1.6323222E-3,-3.900018E-3,-1.0939788E-2,8.004992E-4,4.2867463E-2,-9.304809E-3,-1.7319905E-3,1.1923658E-2,1.138123E-3,-4.1857855E-3,1.2255509E-3,1.2751596E-2,-1.8310237E-4],"categories":[],"categories_nodes":[],"categories_segments":[],"categories_sizes":[],"default_left":[0,0,0,0,0,0,0,0,0,0,0,0,0,0,0,0,0,0,0,0,0,0,0,0,0,0,0,0,0,0,0,0,0,0,0,0,0,0,0,0,0,0,0,0,0,0,0,0,0,0,0,0,0],"id":20,"left_children":[1,3,5,7,9,11,13,15,17,19,21,23,25,27,29,-1,-1,-1,31,33,-1,35,37,39,41,43,45,47,-1,49,51,-1,-1,-1,-1,-1,-1,-1,-1,-1,-1,-1,-1,-1,-1,-1,-1,-1,-1,-1,-1,-1,-1],"loss_changes":[3.5600448E-1,5.8532625E-2,3.621513E-1,1.7065543E-1,1.3470557E-1,3.7902832E-2,1.1419934E-1,1.197361E-2,5.139014E-2,1.0442773E-2,4.2934924E-2,1.2432924E-1,1.1316532E0,7.135865E-2,1.7091292E-1,0E0,0E0,0E0,6.737691E-2,3.283687E-3,0E0,6.038345E-2,1.7948583E-2,1.6822785E-2,2.2413582E-2,8.346331E-1,8.703987E-2,4.4285446E-2,0E0,2.3238294E-2,6.7297995E-2,0E0,0E0,0E0,0E0,0E0,0E0,0E0,0E0,0E0,0E0,0E0,0E0,0E0,0E0,0E0,0E0,0E0,0E0,0E0,0E0,0E0,0E0],"parents":[2147483647,0,0,1,1,2,2,3,3,4,4,5,5,6,6,7,7,8,8,9,9,10,10,11,11,12,12,13,13,14,14,18,18,19,19,21,21,22,22,23,23,24,24,25,25,26,26,27,27,29,29,30,30],"right_children":[2,4,6,8,10,12,14,16,18,20,22,24,26,28,30,-1,-1,-1,32,34,-1,36,38,40,42,44,46,48,-1,50,52,-1,-1,-1,-1,-1,-1,-1,-1,-1,-1,-1,-1,-1,-1,-1,-1,-1,-1,-1,-1,-1,-1],"split_conditions":[3.5349452E-1,2.8397003E-1,5.4638493E-1,2.2284019E-1,3.087049E-1,4.5285463E-1,5.537352E-1,2.0140074E-1,2.72953E-1,3.069125E-1,3.4172833E-1,4.184344E-1,4.5525965E-1,5.5172586E-1,6.5439254E-1,-2.227049E-3,3.091797E-3,1.7321268E-2,2.813411E-1,3.0370265E-1,1.0769638E-3,3.2993495E-1,3.4660763E-1,4.1205993E-1,4.522369E-1,4.5511007E-1,4.588401E-1,5.4857653E-1,2.2091191E-2,5.598951E-1,8.189679E-1,-2.7530775E-3,1.4093178E-2,-3.0275255E-3,-6.8328246E-3,7.978796E-3,-1.5272606E-3,1.4669547E-2,6.3707693E-3,-8.9500425E-4,1.6323222E-3,-3.900018E-3,-1.0939788E-2,8.004992E-4,4.2867463E-2,-9.304809E-3,-1.7319905E-3,1.1923658E-2,1.138123E-3,-4.1857855E-3,1.2255509E-3,1.2751596E-2,-1.8310237E-4],"split_indices":[0,0,0,0,0,0,0,0,0,0,0,0,0,0,0,0,0,0,0,0,0,0,0,0,0,0,0,0,0,0,0,0,0,0,0,0,0,0,0,0,0,0,0,0,0,0,0,0,0,0,0,0,0],"split_type":[0,0,0,0,0,0,0,0,0,0,0,0,0,0,0,0,0,0,0,0,0,0,0,0,0,0,0,0,0,0,0,0,0,0,0,0,0,0,0,0,0,0,0,0,0,0,0,0,0,0,0,0,0],"sum_hessian":[9.61E2,9.8E1,8.63E2,3.8E1,6E1,7.45E2,1.18E2,1.5E1,2.3E1,1.9E1,4.1E1,3.86E2,3.59E2,1.9E1,9.9E1,8E0,7E0,1.5E1,8E0,1.5E1,4E0,2.6E1,1.5E1,2.06E2,1.8E2,1.8E1,3.41E2,1.5E1,4E0,7.5E1,2.4E1,4E0,4E0,1.1E1,4E0,1.5E1,1.1E1,7E0,8E0,1.76E2,3E1,1.76E2,4E0,9E0,9E0,1.5E1,3.26E2,8E0,7E0,8E0,6.7E1,1.9E1,5E0],"tree_param":{"num_deleted":"0","num_feature":"1","num_nodes":"53","size_leaf_vector":"1"}},{"base_weights":[4.5703026E-3,6.6886365E-2,-2.5753698E-3,9.810998E-2,4.582723E-2,-1.1440748E-2,5.302251E-2,1.2901812E-2,1.5082753E-1,-2.4209313E-2,7.808684E-2,-1.3731541E-2,1.4508833E-2,3.5956047E-2,1.1575417E-1,-1.3206328E-2,4.0660743E-3,1.867114E-2,7.027534E-2,-3.4783933E-2,1.4471331E-3,5.1201843E-2,1.18574835E-1,-6.0937107E-3,-2.7196363E-2,4.818703E-2,-1.36528835E-2,1.1365195E-1,1.5036652E-2,1.4076912E-1,1.3078615E-2,-6.52307E-4,-1.7248321E-3,-2.2558419E-3,1.4905402E-2,-1.7835739E-3,-6.8502813E-3,9.278581E-3,-8.510261E-4,1.5602305E-2,7.2112563E-3,-1.7652934E-3,9.304604E-3,-3.4755932E-3,-9.2955463E-4,2.4623086E-3,1.5165657E-2,-2.0733292E-3,1.1950104E-3,7.375193E-3,2.1860166E-2,4.4246307E-3,-1.0372936E-4,9.677824E-3,1.8378263E-2,3.25185E-3,-4.20604E-3],"categories":[],"categories_nodes":[],"categories_segments":[],"categories_sizes":[],"default_left":[0,0,0,0,0,0,0,0,0,0,0,0,0,0,0,0,0,0,0,0,0,0,0,0,0,0,0,0,0,0,0,0,0,0,0,0,0,0,0,0,0,0,0,0,0,0,0,0,0,0,0,0,0,0,0,0,0],"id":21,"left_children":[1,3,5,7,9,11,13,15,17,19,21,23,25,27,29,31,-1,-1,33,35,-1,37,39,41,43,45,47,49,51,53,55,-1,-1,-1,-1,-1,-1,-1,-1,-1,-1,-1,-1,-1,-1,-1,-1,-1,-1,-1,-1,-1,-1,-1,-1,-1,-1],"loss_changes":[4.2854136E-1,6.060061E-2,4.2646897E-1,1.7324066E-1,1.3971086E-1,4.4545278E-2,1.2324026E-1,1.2132724E-2,5.6251407E-2,8.684032E-3,3.9646596E-2,7.038391E-2,5.851248E-2,1.5269943E-1,6.2369555E-2,1.3061112E-4,0E0,0E0,6.918232E-2,7.921789E-3,0E0,6.783242E-2,1.6587645E-2,5.047271E-1,3.323689E-2,6.4533964E-2,6.4112707E-3,6.762764E-2,3.572899E-2,2.0057917E-2,7.7991164E-3,0E0,0E0,0E0,0E0,0E0,0E0,0E0,0E0,0E0,0E0,0E0,0E0,0E0,0E0,0E0,0E0,0E0,0E0,0E0,0E0,0E0,0E0,0E0,0E0,0E0,0E0],"parents":[2147483647,0,0,1,1,2,2,3,3,4,4,5,5,6,6,7,7,8,8,9,9,10,10,11,11,12,12,13,13,14,14,15,15,18,18,19,19,21,21,22,22,23,23,24,24,25,25,26,26,27,27,28,28,29,29,30,30],"right_children":[2,4,6,8,10,12,14,16,18,20,22,24,26,28,30,32,-1,-1,34,36,-1,38,40,42,44,46,48,50,52,54,56,-1,-1,-1,-1,-1,-1,-1,-1,-1,-1,-1,-1,-1,-1,-1,-1,-1,-1,-1,-1,-1,-1,-1,-1,-1,-1],"split_conditions":[3.5349452E-1,2.8397003E-1,5.4638493E-1,2.2284019E-1,3.087049E-1,5.1850104E-1,6.5439254E-1,2.0140074E-1,2.72953E-1,3.069125E-1,3.4172833E-1,4.614903E-1,5.3274417E-1,5.537352E-1,8.189679E-1,1.7417204E-1,4.0660743E-3,1.867114E-2,2.813411E-1,3.0370265E-1,1.4471331E-3,3.2993495E-1,3.4660763E-1,4.550188E-1,4.9764174E-1,5.282491E-1,5.4344636E-1,5.5172586E-1,5.6924295E-1,6.9467825E-1,1E0,-6.52307E-4,-1.7248321E-3,-2.2558419E-3,1.4905402E-2,-1.7835739E-3,-6.8502813E-3,9.278581E-3,-8.510261E-4,1.5602305E-2,7.2112563E-3,-1.7652934E-3,9.304604E-3,-3.4755932E-3,-9.2955463E-4,2.4623086E-3,1.5165657E-2,-2.0733292E-3,1.1950104E-3,7.375193E-3,2.1860166E-2,4.4246307E-3,-1.0372936E-4,9.677824E-3,1.8378263E-2,3.25185E-3,-4.20604E-3],"split_indices":[0,0,0,0,0,0,0,0,0,0,0,0,0,0,0,0,0,0,0,0,0,0,0,0,0,0,0,0,0,0,0,0,0,0,0,0,0,0,0,0,0,0,0,0,0,0,0,0,0,0,0,0,0,0,0,0,0],"split_type":[0,0,0,0,0,0,0,0,0,0,0,0,0,0,0,0,0,0,0,0,0,0,0,0,0,0,0,0,0,0,0,0,0,0,0,0,0,0,0,0,0,0,0,0,0,0,0,0,0,0,0,0,0,0,0,0,0],"sum_hessian":[9.61E2,9.8E1,8.63E2,3.8E1,6E1,7.45E2,1.18E2,1.5E1,2.3E1,1.9E1,4.1E1,6.85E2,6E1,9.4E1,2.4E1,8E0,7E0,1.5E1,8E0,1.5E1,4E0,2.6E1,1.5E1,4.38E2,2.47E2,2.7E1,3.3E1,1.9E1,7.5E1,1.9E1,5E0,4E0,4E0,4E0,4E0,1.1E1,4E0,1.5E1,1.1E1,7E0,8E0,3.93E2,4.5E1,1.73E2,7.4E1,2.3E1,4E0,2.6E1,7E0,1.5E1,4E0,2.6E1,4.9E1,1.1E1,8E0,4E0,1E0],"tree_param":{"num_deleted":"0","num_feature":"1","num_nodes":"57","size_leaf_vector":"1"}},{"base_weights":[-7.564364E-4,4.9941726E-2,-6.564725E-3,-2.9555703E-2,5.7255298E-2,-1.3795101E-2,3.8816996E-2,-3.5913296E-3,-1.7286971E-3,1.00817814E-1,3.4178358E-2,-2.072138E-2,-6.3110306E-3,9.984962E-2,2.6222304E-2,2.9272498E-3,1.2046551E-1,-3.4669463E-2,6.6149265E-2,-6.169544E-3,-3.42965E-2,2.0460615E-1,-1.80102E-2,6.4229876E-2,1.9386286E-2,5.7881265E-3,8.729331E-2,1.724274E-2,8.370786E-3,-4.5849504E-3,8.040547E-4,4.1414187E-3,1.0375538E-2,-1.070443E-3,6.123414E-3,-3.2702272E-3,-8.9931E-3,1.2776592E-4,3.8747404E-2,-7.993678E-3,-1.4925075E-3,8.626546E-3,-2.3443224E-3,3.1716053E-3,-8.3287153E-4,1.1149547E-2,-7.929425E-4],"categories":[],"categories_nodes":[],"categories_segments":[],"categories_sizes":[],"default_left":[0,0,0,0,0,0,0,0,0,0,0,0,0,0,0,0,0,0,0,0,0,0,0,0,0,0,0,0,0,0,0,0,0,0,0,0,0,0,0,0,0,0,0,0,0,0,0],"id":22,"left_children":[1,3,5,7,9,11,13,-1,-1,15,17,19,21,23,25,-1,27,29,31,33,35,37,39,41,-1,43,45,-1,-1,-1,-1,-1,-1,-1,-1,-1,-1,-1,-1,-1,-1,-1,-1,-1,-1,-1,-1],"loss_changes":[2.8360757E-1,5.925183E-2,2.8403714E-1,8.116476E-5,8.803558E-2,3.853947E-2,8.8855475E-2,0E0,0E0,4.0050387E-2,1.3656214E-1,7.62375E-2,8.920049E-1,5.4522783E-2,1.2428831E-1,0E0,3.1406432E-2,9.918643E-3,3.4771025E-2,5.8121048E-2,1.4797881E-2,7.0596766E-1,6.414644E-2,3.2933176E-2,0E0,2.8081708E-2,5.8498964E-2,0E0,0E0,0E0,0E0,0E0,0E0,0E0,0E0,0E0,0E0,0E0,0E0,0E0,0E0,0E0,0E0,0E0,0E0,0E0,0E0],"parents":[2147483647,0,0,1,1,2,2,3,3,4,4,5,5,6,6,9,9,10,10,11,11,12,12,13,13,14,14,16,16,17,17,18,18,19,19,20,20,21,21,22,22,23,23,25,25,26,26],"right_children":[2,4,6,8,10,12,14,-1,-1,16,18,20,22,24,26,-1,28,30,32,34,36,38,40,42,-1,44,46,-1,-1,-1,-1,-1,-1,-1,-1,-1,-1,-1,-1,-1,-1,-1,-1,-1,-1,-1,-1],"split_conditions":[3.5349452E-1,2.0140074E-1,5.4638493E-1,1.7417204E-1,2.8397003E-1,4.5285463E-1,5.537352E-1,-3.5913296E-3,-1.7286971E-3,2.2284019E-1,3.087049E-1,4.1473898E-1,4.5525965E-1,5.5172586E-1,6.5439254E-1,2.9272498E-3,2.5818753E-1,3.069125E-1,3.4172833E-1,4.1205993E-1,4.522369E-1,4.5511007E-1,4.588401E-1,5.4966646E-1,1.9386286E-2,5.6924295E-1,8.189679E-1,1.724274E-2,8.370786E-3,-4.5849504E-3,8.040547E-4,4.1414187E-3,1.0375538E-2,-1.070443E-3,6.123414E-3,-3.2702272E-3,-8.9931E-3,1.2776592E-4,3.8747404E-2,-7.993678E-3,-1.4925075E-3,8.626546E-3,-2.3443224E-3,3.1716053E-3,-8.3287153E-4,1.1149547E-2,-7.929425E-4],"split_indices":[0,0,0,0,0,0,0,0,0,0,0,0,0,0,0,0,0,0,0,0,0,0,0,0,0,0,0,0,0,0,0,0,0,0,0,0,0,0,0,0,0,0,0,0,0,0,0],"split_type":[0,0,0,0,0,0,0,0,0,0,0,0,0,0,0,0,0,0,0,0,0,0,0,0,0,0,0,0,0,0,0,0,0,0,0,0,0,0,0,0,0,0,0,0,0,0,0],"sum_hessian":[9.61E2,9.8E1,8.63E2,8E0,9E1,7.45E2,1.18E2,4E0,4E0,3E1,6E1,3.86E2,3.59E2,1.9E1,9.9E1,7E0,2.3E1,1.9E1,4.1E1,1.87E2,1.99E2,1.8E1,3.41E2,1.5E1,4E0,7.5E1,2.4E1,8E0,1.5E1,1.5E1,4E0,2.6E1,1.5E1,1.76E2,1.1E1,1.95E2,4E0,9E0,9E0,1.5E1,3.26E2,1.2E1,3E0,2.6E1,4.9E1,1.9E1,5E0],"tree_param":{"num_deleted":"0","num_feature":"1","num_nodes":"47","size_leaf_vector":"1"}},{"base_weights":[-6.9464504E-4,5.691773E-2,-7.2952593E-3,-2.1985406E-3,6.409587E-2,-1.5267372E-2,4.2742487E-2,1.1237566E-1,3.8509488E-2,-1.7391676E-2,8.872616E-3,2.8522879E-2,9.506729E-2,3.4740109E-3,1.3357186E-1,-4.594616E-2,6.70482E-2,-9.908042E-3,-3.0568786E-2,7.712442E-2,-2.8847202E-3,1.0130302E-1,8.99491E-3,1.20966256E-1,-7.1071237E-3,1.9173782E-2,9.250526E-3,-2.7437722E-3,-8.117718E-3,4.2090104E-3,1.1121401E-2,-2.1413462E-3,8.885379E-3,-3.7818116E-3,-1.334276E-3,3.9933664E-3,9.889029E-3,-4.5569125E-3,9.3795074E-4,6.5276683E-3,1.963267E-2,3.7953889E-3,-6.822836E-4,1.861844E-2,9.302519E-3,1.2879464E-3,-5.352003E-3],"categories":[],"categories_nodes":[],"categories_segments":[],"categories_sizes":[],"default_left":[0,0,0,0,0,0,0,0,0,0,0,0,0,0,0,0,0,0,0,0,0,0,0,0,0,0,0,0,0,0,0,0,0,0,0,0,0,0,0,0,0,0,0,0,0,0,0],"id":23,"left_children":[1,3,5,-1,7,9,11,13,15,17,19,21,23,-1,25,27,29,31,33,35,37,39,41,43,45,-1,-1,-1,-1,-1,-1,-1,-1,-1,-1,-1,-1,-1,-1,-1,-1,-1,-1,-1,-1,-1,-1],"loss_changes":[3.6624178E-1,5.7480544E-2,3.4530783E-1,0E0,1.08085215E-1,3.8409695E-2,8.5828945E-2,4.6372622E-2,1.5010618E-1,6.7345396E-2,4.917251E-2,1.3410737E-1,6.701501E-2,0E0,3.959152E-2,8.20582E-3,4.6024546E-2,5.0073683E-1,3.0464932E-2,3.3363514E-3,2.8172454E-2,5.565156E-2,3.507195E-2,1.9125432E-2,6.255123E-3,0E0,0E0,0E0,0E0,0E0,0E0,0E0,0E0,0E0,0E0,0E0,0E0,0E0,0E0,0E0,0E0,0E0,0E0,0E0,0E0,0E0,0E0],"parents":[2147483647,0,0,1,1,2,2,4,4,5,5,6,6,7,7,8,8,9,9,10,10,11,11,12,12,14,14,15,15,16,16,17,17,18,18,19,19,20,20,21,21,22,22,23,23,24,24],"right_children":[2,4,6,-1,8,10,12,14,16,18,20,22,24,-1,26,28,30,32,34,36,38,40,42,44,46,-1,-1,-1,-1,-1,-1,-1,-1,-1,-1,-1,-1,-1,-1,-1,-1,-1,-1,-1,-1,-1,-1],"split_conditions":[3.5349452E-1,2.0140074E-1,5.4638493E-1,-2.1985406E-3,2.8397003E-1,5.1850104E-1,6.5439254E-1,2.2284019E-1,3.069125E-1,4.614903E-1,5.2286255E-1,5.537352E-1,8.189679E-1,3.4740109E-3,2.5818753E-1,3.0370265E-1,3.4172833E-1,4.550188E-1,4.9764174E-1,5.210467E-1,5.263938E-1,5.5172586E-1,5.6924295E-1,6.6841215E-1,1E0,1.9173782E-2,9.250526E-3,-2.7437722E-3,-8.117718E-3,4.2090104E-3,1.1121401E-2,-2.1413462E-3,8.885379E-3,-3.7818116E-3,-1.334276E-3,3.9933664E-3,9.889029E-3,-4.5569125E-3,9.3795074E-4,6.5276683E-3,1.963267E-2,3.7953889E-3,-6.822836E-4,1.861844E-2,9.302519E-3,1.2879464E-3,-5.352003E-3],"split_indices":[0,0,0,0,0,0,0,0,0,0,0,0,0,0,0,0,0,0,0,0,0,0,0,0,0,0,0,0,0,0,0,0,0,0,0,0,0,0,0,0,0,0,0,0,0,0,0],"split_type":[0,0,0,0,0,0,0,0,0,0,0,0,0,0,0,0,0,0,0,0,0,0,0,0,0,0,0,0,0,0,0,0,0,0,0,0,0,0,0,0,0,0,0,0,0,0,0],"sum_hessian":[9.61E2,9.8E1,8.63E2,8E0,9E1,7.45E2,1.18E2,3E1,6E1,6.85E2,6E1,9.4E1,2.4E1,7E0,2.3E1,1.5E1,4.5E1,4.38E2,2.47E2,8E0,5.2E1,1.9E1,7.5E1,1.9E1,5E0,8E0,1.5E1,1.1E1,4E0,3E1,1.5E1,3.93E2,4.5E1,1.73E2,7.4E1,4E0,4E0,1.1E1,4.1E1,1.5E1,4E0,2.6E1,4.9E1,4E0,1.5E1,4E0,1E0],"tree_param":{"num_deleted":"0","num_feature":"1","num_nodes":"47","size_leaf_vector":"1"}},{"base_weights":[-3.2801065E-4,5.1164407E-2,-6.227804E-3,7.8879796E-2,3.2605972E-2,-1.5743982E-2,3.0276809E-2,2.6927004E-3,1.2638453E-1,-4.0269386E-2,5.7245098E-2,-9.387028E-3,-2.693333E-2,2.1998342E-2,1.07871704E-1,-2.029089E-3,2.821265E-3,1.8535053E-2,8.531712E-2,-2.750002E-2,-6.2861987E-3,3.3548206E-2,9.9580005E-2,-1.9504609E-2,7.74763E-2,-3.387418E-2,-1.0471446E-2,8.763746E-2,1.8045114E-2,1.5365747E-1,-1.6784357E-3,8.916599E-4,1.1004092E-2,-4.471034E-3,5.536492E-4,5.514281E-3,-2.5365574E-3,1.3385962E-2,5.8044787E-3,-2.8462135E-4,-3.4539744E-3,3.30763E-2,-1.157846E-3,-2.7457024E-3,-8.191342E-3,7.434035E-3,-3.1155143E-3,4.9188654E-3,1.0855878E-2,-4.642974E-3,2.3292706E-3,7.092982E-3,1.7335227E-2,1.854975E-3,-5.140968E-3],"categories":[],"categories_nodes":[],"categories_segments":[],"categories_sizes":[],"default_left":[0,0,0,0,0,0,0,0,0,0,0,0,0,0,0,0,0,0,0,0,0,0,0,0,0,0,0,0,0,0,0,0,0,0,0,0,0,0,0,0,0,0,0,0,0,0,0,0,0,0,0,0,0,0,0],"id":24,"left_children":[1,3,5,7,9,11,13,15,17,19,21,23,25,27,29,-1,-1,-1,31,33,-1,35,37,39,41,43,45,47,49,51,53,-1,-1,-1,-1,-1,-1,-1,-1,-1,-1,-1,-1,-1,-1,-1,-1,-1,-1,-1,-1,-1,-1,-1,-1],"loss_changes":[2.9256904E-1,4.8349142E-2,3.0061677E-1,1.4081037E-1,1.1183592E-1,4.8542455E-2,1.1261067E-1,9.9571E-3,4.2304367E-2,2.8871838E-3,4.280673E-2,3.873248E-1,2.7981654E-2,4.0714867E-2,8.552711E-2,0E0,0E0,0E0,2.9241383E-2,7.0703663E-3,0E0,4.0837537E-2,1.5011117E-2,9.8583445E-2,1.0414236E0,5.139081E-2,1.338827E-1,1.8997341E-3,5.352381E-2,7.2558224E-3,6.989473E-3,0E0,0E0,0E0,0E0,0E0,0E0,0E0,0E0,0E0,0E0,0E0,0E0,0E0,0E0,0E0,0E0,0E0,0E0,0E0,0E0,0E0,0E0,0E0,0E0],"parents":[2147483647,0,0,1,1,2,2,3,3,4,4,5,5,6,6,7,7,8,8,9,9,10,10,11,11,12,12,13,13,14,14,18,18,19,19,21,21,22,22,23,23,24,24,25,25,26,26,27,27,28,28,29,29,30,30],"right_children":[2,4,6,8,10,12,14,16,18,20,22,24,26,28,30,-1,-1,-1,32,34,-1,36,38,40,42,44,46,48,50,52,54,-1,-1,-1,-1,-1,-1,-1,-1,-1,-1,-1,-1,-1,-1,-1,-1,-1,-1,-1,-1,-1,-1,-1,-1],"split_conditions":[3.5349452E-1,2.8397003E-1,5.1850104E-1,2.2284019E-1,3.069125E-1,4.614903E-1,6.85209E-1,2.0140074E-1,2.5818753E-1,3.0370265E-1,3.4172833E-1,4.550188E-1,4.9764174E-1,5.2286255E-1,8.189679E-1,-2.029089E-3,2.821265E-3,1.8535053E-2,2.662511E-1,2.9985717E-1,-6.2861987E-3,3.3183363E-1,3.4660763E-1,4.1473898E-1,4.5525965E-1,4.9437287E-1,5.0104266E-1,5.210467E-1,5.263938E-1,6.9467825E-1,1E0,8.916599E-4,1.1004092E-2,-4.471034E-3,5.536492E-4,5.514281E-3,-2.5365574E-3,1.3385962E-2,5.8044787E-3,-2.8462135E-4,-3.4539744E-3,3.30763E-2,-1.157846E-3,-2.7457024E-3,-8.191342E-3,7.434035E-3,-3.1155143E-3,4.9188654E-3,1.0855878E-2,-4.642974E-3,2.3292706E-3,7.092982E-3,1.7335227E-2,1.854975E-3,-5.140968E-3],"split_indices":[0,0,0,0,0,0,0,0,0,0,0,0,0,0,0,0,0,0,0,0,0,0,0,0,0,0,0,0,0,0,0,0,0,0,0,0,0,0,0,0,0,0,0,0,0,0,0,0,0,0,0,0,0,0,0],"split_type":[0,0,0,0,0,0,0,0,0,0,0,0,0,0,0,0,0,0,0,0,0,0,0,0,0,0,0,0,0,0,0,0,0,0,0,0,0,0,0,0,0,0,0,0,0,0,0,0,0,0,0,0,0,0,0],"sum_hessian":[9.61E2,9.8E1,8.63E2,3.8E1,6E1,6.85E2,1.78E2,1.5E1,2.3E1,1.5E1,4.5E1,4.38E2,2.47E2,1.62E2,1.6E1,8E0,7E0,8E0,1.5E1,1.1E1,4E0,3E1,1.5E1,3.93E2,4.5E1,1.73E2,7.4E1,8E0,1.54E2,1.1E1,5E0,4E0,1.1E1,7E0,4E0,2.2E1,8E0,7E0,8E0,1.87E2,2.06E2,1.1E1,3.4E1,1.54E2,1.9E1,1.4E1,6E1,4E0,4E0,1.1E1,1.43E2,3E0,8E0,4E0,1E0],"tree_param":{"num_deleted":"0","num_feature":"1","num_nodes":"55","size_leaf_vector":"1"}},{"base_weights":[4.256313E-3,6.0774136E-2,-2.224614E-3,8.914539E-2,4.163884E-2,-1.0270021E-2,4.822999E-2,1.1717192E-2,1.3704981E-1,-2.2147711E-2,7.102199E-2,3.2051639E-3,-1.4783553E-2,3.2713663E-2,1.0526283E-1,-1.2149815E-2,3.7102927E-3,2.0022674E-2,9.294716E-2,-3.1845152E-2,1.3313633E-3,4.6393786E-2,1.0814321E-1,-1.9718702E-3,7.9299316E-2,-3.4371026E-2,-3.8605575E-3,1.0374852E-1,1.3589838E-2,1.2809502E-1,1.1611722E-2,-6.001219E-4,-1.586845E-3,2.142308E-3,1.1500328E-2,-1.620079E-3,-6.3022585E-3,8.408713E-3,-7.730156E-4,1.4237105E-2,6.570256E-3,1.6882566E-4,-7.048182E-3,1.0800925E-2,1.7503571E-3,-3.240599E-3,-1.0452626E-2,2.4877269E-2,-1.788445E-3,6.683768E-3,2.0111354E-2,-4.0296894E-3,2.0522054E-3,7.6402756E-3,1.5618964E-2,2.9917017E-3,-3.9957375E-3],"categories":[],"categories_nodes":[],"categories_segments":[],"categories_sizes":[],"default_left":[0,0,0,0,0,0,0,0,0,0,0,0,0,0,0,0,0,0,0,0,0,0,0,0,0,0,0,0,0,0,0,0,0,0,0,0,0,0,0,0,0,0,0,0,0,0,0,0,0,0,0,0,0,0,0,0,0],"id":25,"left_children":[1,3,5,7,9,11,13,15,17,19,21,23,25,27,29,31,-1,-1,33,35,-1,37,39,41,43,45,47,49,51,53,55,-1,-1,-1,-1,-1,-1,-1,-1,-1,-1,-1,-1,-1,-1,-1,-1,-1,-1,-1,-1,-1,-1,-1,-1,-1,-1],"loss_changes":[3.5250416E-1,5.0034463E-2,3.512169E-1,1.4305109E-1,1.159022E-1,4.5419626E-2,1.0186434E-1,1.0144898E-2,4.8259974E-2,7.3016584E-3,3.338045E-2,7.421747E-2,1.1946752E-1,1.2764362E-1,5.196908E-2,1.105495E-4,0E0,0E0,2.2776961E-2,6.7829993E-3,0E0,5.5733044E-2,1.3888285E-2,4.4502642E-2,1.939927E-2,2.4184257E-2,1.2798936E0,5.843453E-2,2.9217118E-2,1.7112166E-2,6.8593305E-3,0E0,0E0,0E0,0E0,0E0,0E0,0E0,0E0,0E0,0E0,0E0,0E0,0E0,0E0,0E0,0E0,0E0,0E0,0E0,0E0,0E0,0E0,0E0,0E0,0E0,0E0],"parents":[2147483647,0,0,1,1,2,2,3,3,4,4,5,5,6,6,7,7,8,8,9,9,10,10,11,11,12,12,13,13,14,14,15,15,18,18,19,19,21,21,22,22,23,23,24,24,25,25,26,26,27,27,28,28,29,29,30,30],"right_children":[2,4,6,8,10,12,14,16,18,20,22,24,26,28,30,32,-1,-1,34,36,-1,38,40,42,44,46,48,50,52,54,56,-1,-1,-1,-1,-1,-1,-1,-1,-1,-1,-1,-1,-1,-1,-1,-1,-1,-1,-1,-1,-1,-1,-1,-1,-1,-1],"split_conditions":[3.5349452E-1,2.8397003E-1,5.4638493E-1,2.2284019E-1,3.087049E-1,4.1473898E-1,6.5439254E-1,2.0140074E-1,2.5818753E-1,3.069125E-1,3.4172833E-1,4.1205993E-1,4.5285463E-1,5.537352E-1,8.189679E-1,1.7417204E-1,3.7102927E-3,2.0022674E-2,2.662511E-1,3.0370265E-1,1.3313633E-3,3.2993495E-1,3.4660763E-1,4.1029868E-1,4.1365042E-1,4.522369E-1,4.5525965E-1,5.5172586E-1,5.598951E-1,6.85209E-1,1E0,-6.001219E-4,-1.586845E-3,2.142308E-3,1.1500328E-2,-1.620079E-3,-6.3022585E-3,8.408713E-3,-7.730156E-4,1.4237105E-2,6.570256E-3,1.6882566E-4,-7.048182E-3,1.0800925E-2,1.7503571E-3,-3.240599E-3,-1.0452626E-2,2.4877269E-2,-1.788445E-3,6.683768E-3,2.0111354E-2,-4.0296894E-3,2.0522054E-3,7.6402756E-3,1.5618964E-2,2.9917017E-3,-3.9957375E-3],"split_indices":[0,0,0,0,0,0,0,0,0,0,0,0,0,0,0,0,0,0,0,0,0,0,0,0,0,0,0,0,0,0,0,0,0,0,0,0,0,0,0,0,0,0,0,0,0,0,0,0,0,0,0,0,0,0,0,0,0],"split_type":[0,0,0,0,0,0,0,0,0,0,0,0,0,0,0,0,0,0,0,0,0,0,0,0,0,0,0,0,0,0,0,0,0,0,0,0,0,0,0,0,0,0,0,0,0,0,0,0,0,0,0,0,0,0,0,0,0],"sum_hessian":[9.61E2,9.8E1,8.63E2,3.8E1,6E1,7.45E2,1.18E2,1.5E1,2.3E1,1.9E1,4.1E1,1.87E2,5.58E2,9.4E1,2.4E1,8E0,7E0,8E0,1.5E1,1.5E1,4E0,2.6E1,1.5E1,1.76E2,1.1E1,1.99E2,3.59E2,1.9E1,7.5E1,1.9E1,5E0,4E0,4E0,4E0,1.1E1,1.1E1,4E0,1.5E1,1.1E1,7E0,8E0,1.68E2,8E0,7E0,4E0,1.95E2,4E0,1.8E1,3.41E2,1.5E1,4E0,8E0,6.7E1,8E0,1.1E1,4E0,1E0],"tree_param":{"num_deleted":"0","num_feature":"1","num_nodes":"57","size_leaf_vector":"1"}},{"base_weights":[-5.8256387E-4,4.5290552E-2,-5.838184E-3,-2.7191246E-2,5.1961385E-2,-1.438335E-2,2.6942942E-2,-3.3040233E-3,-1.5904013E-3,9.165671E-2,3.0936526E-2,-8.381278E-3,-2.4949986E-2,1.9868562E-2,9.318889E-2,2.6711158E-3,1.094862E-1,-3.139156E-2,5.987998E-2,-1.854471E-2,7.885292E-2,-5.348458E-2,-2.0777864E-2,9.1435194E-2,1.5584896E-2,1.3565192E-1,-7.268645E-3,1.5710054E-2,7.5860247E-3,-4.1551106E-3,7.397303E-4,3.7426155E-3,9.402832E-3,-5.5257155E-4,-3.0279139E-3,3.0164897E-2,2.1275686E-5,-2.6428693E-3,-6.7043887E-3,2.3817425E-3,-2.6159964E-3,5.0042565E-3,1.1454078E-2,-5.016462E-3,2.0955794E-3,5.8609615E-3,1.548205E-2,1.4359513E-3,-5.770472E-3],"categories":[],"categories_nodes":[],"categories_segments":[],"categories_sizes":[],"default_left":[0,0,0,0,0,0,0,0,0,0,0,0,0,0,0,0,0,0,0,0,0,0,0,0,0,0,0,0,0,0,0,0,0,0,0,0,0,0,0,0,0,0,0,0,0,0,0,0,0],"id":26,"left_children":[1,3,5,7,9,11,13,-1,-1,15,17,19,21,23,25,-1,27,29,31,33,35,37,39,41,43,45,47,-1,-1,-1,-1,-1,-1,-1,-1,-1,-1,-1,-1,-1,-1,-1,-1,-1,-1,-1,-1,-1,-1],"loss_changes":[2.3219462E-1,4.9280763E-2,2.4241133E-1,6.869761E-5,7.3112026E-2,4.329817E-2,8.203663E-2,0E0,0E0,3.297183E-2,1.1192313E-1,3.9067915E-1,2.8413072E-2,4.854551E-2,7.350342E-2,0E0,2.6508182E-2,8.188913E-3,2.868484E-2,6.002423E-2,8.058889E-1,9.600751E-3,5.294659E-2,2.8756931E-3,5.5786997E-2,8.647546E-3,7.3736473E-3,0E0,0E0,0E0,0E0,0E0,0E0,0E0,0E0,0E0,0E0,0E0,0E0,0E0,0E0,0E0,0E0,0E0,0E0,0E0,0E0,0E0,0E0],"parents":[2147483647,0,0,1,1,2,2,3,3,4,4,5,5,6,6,9,9,10,10,11,11,12,12,13,13,14,14,16,16,17,17,18,18,19,19,20,20,21,21,22,22,23,23,24,24,25,25,26,26],"right_children":[2,4,6,8,10,12,14,-1,-1,16,18,20,22,24,26,-1,28,30,32,34,36,38,40,42,44,46,48,-1,-1,-1,-1,-1,-1,-1,-1,-1,-1,-1,-1,-1,-1,-1,-1,-1,-1,-1,-1,-1,-1],"split_conditions":[3.5349452E-1,2.0140074E-1,5.1850104E-1,1.7417204E-1,2.8397003E-1,4.614903E-1,6.85209E-1,-3.3040233E-3,-1.5904013E-3,2.2284019E-1,3.087049E-1,4.550188E-1,4.6720985E-1,5.2286255E-1,8.189679E-1,2.6711158E-3,2.5818753E-1,3.069125E-1,3.4172833E-1,4.1473898E-1,4.5525965E-1,4.63477E-1,4.7308183E-1,5.210467E-1,5.263938E-1,6.9467825E-1,1E0,1.5710054E-2,7.5860247E-3,-4.1551106E-3,7.397303E-4,3.7426155E-3,9.402832E-3,-5.5257155E-4,-3.0279139E-3,3.0164897E-2,2.1275686E-5,-2.6428693E-3,-6.7043887E-3,2.3817425E-3,-2.6159964E-3,5.0042565E-3,1.1454078E-2,-5.016462E-3,2.0955794E-3,5.8609615E-3,1.548205E-2,1.4359513E-3,-5.770472E-3],"split_indices":[0,0,0,0,0,0,0,0,0,0,0,0,0,0,0,0,0,0,0,0,0,0,0,0,0,0,0,0,0,0,0,0,0,0,0,0,0,0,0,0,0,0,0,0,0,0,0,0,0],"split_type":[0,0,0,0,0,0,0,0,0,0,0,0,0,0,0,0,0,0,0,0,0,0,0,0,0,0,0,0,0,0,0,0,0,0,0,0,0,0,0,0,0,0,0,0,0,0,0,0,0],"sum_hessian":[9.61E2,9.8E1,8.63E2,8E0,9E1,6.85E2,1.78E2,4E0,4E0,3E1,6E1,4.38E2,2.47E2,1.62E2,1.6E1,7E0,2.3E1,1.9E1,4.1E1,3.93E2,4.5E1,3E1,2.17E2,8E0,1.54E2,1.1E1,5E0,8E0,1.5E1,1.5E1,4E0,2.6E1,1.5E1,1.87E2,2.06E2,1.1E1,3.4E1,1.1E1,1.9E1,2.3E1,1.94E2,4E0,4E0,1.1E1,1.43E2,3E0,8E0,4E0,1E0],"tree_param":{"num_deleted":"0","num_feature":"1","num_nodes":"49","size_leaf_vector":"1"}},{"base_weights":[-5.2207435E-4,5.1571097E-2,-6.490479E-3,-2.0031144E-3,5.8085922E-2,-1.3724698E-2,3.891471E-2,1.0216708E-1,3.4731798E-2,-9.832598E-4,-1.798528E-2,2.5978733E-2,8.651484E-2,3.1700346E-3,1.2139902E-1,-4.203039E-2,6.067665E-2,-6.1428286E-3,7.520232E-2,-3.6891423E-2,-7.43191E-3,9.2480734E-2,8.1363795E-3,1.1026567E-1,-7.0737577E-3,1.7469447E-2,8.38329E-3,-2.4922604E-3,-7.4683004E-3,3.8016867E-3,1.0078769E-2,-2.6393073E-4,-7.1248645E-3,1.0354113E-2,1.4819767E-3,-3.5001487E-3,-1.0359868E-2,2.4292944E-2,-2.1319143E-3,5.9157E-3,1.8062055E-2,3.4299071E-3,-6.154202E-4,7.0144567E-3,1.5150875E-2,1.1849103E-3,-5.084403E-3],"categories":[],"categories_nodes":[],"categories_segments":[],"categories_sizes":[],"default_left":[0,0,0,0,0,0,0,0,0,0,0,0,0,0,0,0,0,0,0,0,0,0,0,0,0,0,0,0,0,0,0,0,0,0,0,0,0,0,0,0,0,0,0,0,0,0,0],"id":27,"left_children":[1,3,5,-1,7,9,11,13,15,17,19,21,23,-1,25,27,29,31,33,35,37,39,41,43,45,-1,-1,-1,-1,-1,-1,-1,-1,-1,-1,-1,-1,-1,-1,-1,-1,-1,-1,-1,-1,-1,-1],"loss_changes":[2.9943317E-1,4.7344655E-2,2.843331E-1,0E0,9.0133965E-2,4.0479645E-2,7.102722E-2,3.8163155E-2,1.2403686E-1,7.436189E-2,1.11259475E-1,1.11970015E-1,5.635017E-2,0E0,3.3405334E-2,7.076524E-3,3.7978128E-2,4.0185582E-2,1.8999577E-2,2.1588385E-2,1.2568365E0,4.8058003E-2,2.8625973E-2,2.2466868E-2,5.5720084E-3,0E0,0E0,0E0,0E0,0E0,0E0,0E0,0E0,0E0,0E0,0E0,0E0,0E0,0E0,0E0,0E0,0E0,0E0,0E0,0E0,0E0,0E0],"parents":[2147483647,0,0,1,1,2,2,4,4,5,5,6,6,7,7,8,8,9,9,10,10,11,11,12,12,14,14,15,15,16,16,17,17,18,18,19,19,20,20,21,21,22,22,23,23,24,24],"right_children":[2,4,6,-1,8,10,12,14,16,18,20,22,24,-1,26,28,30,32,34,36,38,40,42,44,46,-1,-1,-1,-1,-1,-1,-1,-1,-1,-1,-1,-1,-1,-1,-1,-1,-1,-1,-1,-1,-1,-1],"split_conditions":[3.5349452E-1,2.0140074E-1,5.4638493E-1,-2.0031144E-3,2.8397003E-1,4.1473898E-1,6.5439254E-1,2.2284019E-1,3.069125E-1,4.1205993E-1,4.5285463E-1,5.537352E-1,8.189679E-1,3.1700346E-3,2.5818753E-1,3.0370265E-1,3.4172833E-1,4.1029868E-1,4.1365042E-1,4.522369E-1,4.5525965E-1,5.5172586E-1,5.6924295E-1,6.9467825E-1,1E0,1.7469447E-2,8.38329E-3,-2.4922604E-3,-7.4683004E-3,3.8016867E-3,1.0078769E-2,-2.6393073E-4,-7.1248645E-3,1.0354113E-2,1.4819767E-3,-3.5001487E-3,-1.0359868E-2,2.4292944E-2,-2.1319143E-3,5.9157E-3,1.8062055E-2,3.4299071E-3,-6.154202E-4,7.0144567E-3,1.5150875E-2,1.1849103E-3,-5.084403E-3],"split_indices":[0,0,0,0,0,0,0,0,0,0,0,0,0,0,0,0,0,0,0,0,0,0,0,0,0,0,0,0,0,0,0,0,0,0,0,0,0,0,0,0,0,0,0,0,0,0,0],"split_type":[0,0,0,0,0,0,0,0,0,0,0,0,0,0,0,0,0,0,0,0,0,0,0,0,0,0,0,0,0,0,0,0,0,0,0,0,0,0,0,0,0,0,0,0,0,0,0],"sum_hessian":[9.61E2,9.8E1,8.63E2,8E0,9E1,7.45E2,1.18E2,3E1,6E1,1.87E2,5.58E2,9.4E1,2.4E1,7E0,2.3E1,1.5E1,4.5E1,1.76E2,1.1E1,1.99E2,3.59E2,1.9E1,7.5E1,1.9E1,5E0,8E0,1.5E1,1.1E1,4E0,3E1,1.5E1,1.68E2,8E0,7E0,4E0,1.95E2,4E0,1.8E1,3.41E2,1.5E1,4E0,2.6E1,4.9E1,1.1E1,8E0,4E0,1E0],"tree_param":{"num_deleted":"0","num_feature":"1","num_nodes":"47","size_leaf_vector":"1"}},{"base_weights":[-1.9193275E-4,4.6484202E-2,-5.540018E-3,7.17924E-2,2.9541515E-2,-1.2291908E-2,3.6833514E-2,2.4729418E-3,1.1501403E-1,-2.8129976E-2,5.630076E-2,-1.4138152E-2,8.672267E-3,1.0163807E-1,2.3504268E-2,-1.8487253E-3,2.5744042E-3,1.454203E-2,4.8179105E-2,-3.6880173E-2,5.496645E-4,3.3758864E-2,9.082141E-2,-9.286172E-3,-2.6307566E-2,4.2393018E-2,-1.9352827E-2,6.411773E-2,2.0137554E-2,3.07017E-3,8.468376E-2,-3.4131582E-3,1.2085398E-2,-2.507647E-3,-5.7833022E-3,6.7138197E-3,-1.3560153E-3,1.2214691E-2,5.288525E-3,-1.127794E-3,1.8696768E-2,-4.2902026E-3,-1.2821093E-3,1.91373E-3,1.4554185E-2,4.6917945E-4,-2.576039E-3,8.828113E-3,-3.0442742E-3,2.7495585E-3,-1.0180958E-3,1.0647218E-2,-2.0582539E-4],"categories":[],"categories_nodes":[],"categories_segments":[],"categories_sizes":[],"default_left":[0,0,0,0,0,0,0,0,0,0,0,0,0,0,0,0,0,0,0,0,0,0,0,0,0,0,0,0,0,0,0,0,0,0,0,0,0,0,0,0,0,0,0,0,0,0,0,0,0,0,0,0,0],"id":28,"left_children":[1,3,5,7,9,11,13,15,17,19,21,23,25,27,29,-1,-1,-1,31,33,-1,35,37,39,41,43,45,47,-1,49,51,-1,-1,-1,-1,-1,-1,-1,-1,-1,-1,-1,-1,-1,-1,-1,-1,-1,-1,-1,-1,-1,-1],"loss_changes":[2.4039961E-1,4.0329263E-2,2.476444E-1,1.16563454E-1,9.572173E-2,2.8996505E-2,1.0040279E-1,8.280205E-3,4.1766614E-2,6.087508E-3,2.9616714E-2,4.026109E-2,5.8467083E-2,6.1931923E-2,1.2475478E-1,0E0,0E0,0E0,5.7962205E-2,2.5068931E-3,0E0,4.3556295E-2,1.2554139E-2,1.9442761E-1,4.3091103E-2,6.438111E-2,5.3591533E-3,3.9245956E-2,0E0,2.4878416E-2,4.746844E-2,0E0,0E0,0E0,0E0,0E0,0E0,0E0,0E0,0E0,0E0,0E0,0E0,0E0,0E0,0E0,0E0,0E0,0E0,0E0,0E0,0E0,0E0],"parents":[2147483647,0,0,1,1,2,2,3,3,4,4,5,5,6,6,7,7,8,8,9,9,10,10,11,11,12,12,13,13,14,14,18,18,19,19,21,21,22,22,23,23,24,24,25,25,26,26,27,27,29,29,30,30],"right_children":[2,4,6,8,10,12,14,16,18,20,22,24,26,28,30,-1,-1,-1,32,34,-1,36,38,40,42,44,46,48,-1,50,52,-1,-1,-1,-1,-1,-1,-1,-1,-1,-1,-1,-1,-1,-1,-1,-1,-1,-1,-1,-1,-1,-1],"split_conditions":[3.5349452E-1,2.8397003E-1,5.4638493E-1,2.2284019E-1,3.087049E-1,5.1850104E-1,5.537352E-1,2.0140074E-1,2.72953E-1,3.069125E-1,3.4172833E-1,4.7308183E-1,5.3274417E-1,5.5172586E-1,6.5439254E-1,-1.8487253E-3,2.5744042E-3,1.454203E-2,2.813411E-1,3.0370265E-1,5.496645E-4,3.2993495E-1,3.4660763E-1,4.7264904E-1,4.924177E-1,5.282491E-1,5.3724945E-1,5.4966646E-1,2.0137554E-2,5.6924295E-1,8.189679E-1,-3.4131582E-3,1.2085398E-2,-2.507647E-3,-5.7833022E-3,6.7138197E-3,-1.3560153E-3,1.2214691E-2,5.288525E-3,-1.127794E-3,1.8696768E-2,-4.2902026E-3,-1.2821093E-3,1.91373E-3,1.4554185E-2,4.6917945E-4,-2.576039E-3,8.828113E-3,-3.0442742E-3,2.7495585E-3,-1.0180958E-3,1.0647218E-2,-2.0582539E-4],"split_indices":[0,0,0,0,0,0,0,0,0,0,0,0,0,0,0,0,0,0,0,0,0,0,0,0,0,0,0,0,0,0,0,0,0,0,0,0,0,0,0,0,0,0,0,0,0,0,0,0,0,0,0,0,0],"split_type":[0,0,0,0,0,0,0,0,0,0,0,0,0,0,0,0,0,0,0,0,0,0,0,0,0,0,0,0,0,0,0,0,0,0,0,0,0,0,0,0,0,0,0,0,0,0,0,0,0,0,0,0,0],"sum_hessian":[9.61E2,9.8E1,8.63E2,3.8E1,6E1,7.45E2,1.18E2,1.5E1,2.3E1,1.9E1,4.1E1,6.85E2,6E1,1.9E1,9.9E1,8E0,7E0,1.5E1,8E0,1.5E1,4E0,2.6E1,1.5E1,4.91E2,1.94E2,2.7E1,3.3E1,1.5E1,4E0,7.5E1,2.4E1,4E0,4E0,1.1E1,4E0,1.5E1,1.1E1,7E0,8E0,4.87E2,4E0,8.6E1,1.08E2,2.3E1,4E0,7E0,2.6E1,1.2E1,3E0,2.6E1,4.9E1,1.9E1,5E0],"tree_param":{"num_deleted":"0","num_feature":"1","num_nodes":"53","size_leaf_vector":"1"}},{"base_weights":[3.954573E-3,5.5272892E-2,-1.930228E-3,8.6268224E-2,4.05464E-2,-1.1371449E-2,3.426311E-2,1.0640676E-2,1.56504E-1,2.2585776E-2,9.862935E-2,-3.3916119E-3,-2.279153E-2,2.4144696E-2,9.562676E-2,-1.11778295E-2,3.3856411E-3,1.8242882E-1,1.0777558E-1,3.0224088E-3,4.2037204E-2,1.2991357E-2,5.9862334E-2,-1.46137215E-2,4.413431E-2,-9.9888384E-2,-1.8086132E-2,3.6695924E-2,-2.9467996E-3,1.16448484E-1,1.0283207E-2,-5.521116E-4,-1.4598978E-3,1.0621277E-2,2.2215912E-2,1.9709233E-3,1.9091463E-2,5.44308E-3,-2.0262487E-3,7.620395E-3,-7.0215616E-4,-1.2304691E-3,1.200569E-2,1.5121473E-4,-3.2105518E-3,-1.2105596E-2,-6.3588815E-3,1.0265457E-2,-2.0312814E-3,2.8763881E-3,2.3177205E-2,3.824632E-4,-3.8974893E-3,7.890865E-3,1.5356289E-2,2.7523653E-3,-3.795951E-3],"categories":[],"categories_nodes":[],"categories_segments":[],"categories_sizes":[],"default_left":[0,0,0,0,0,0,0,0,0,0,0,0,0,0,0,0,0,0,0,0,0,0,0,0,0,0,0,0,0,0,0,0,0,0,0,0,0,0,0,0,0,0,0,0,0,0,0,0,0,0,0,0,0,0,0,0,0],"id":29,"left_children":[1,3,5,7,9,11,13,15,17,19,21,23,25,27,29,31,-1,33,35,37,39,-1,41,43,-1,45,47,49,51,53,55,-1,-1,-1,-1,-1,-1,-1,-1,-1,-1,-1,-1,-1,-1,-1,-1,-1,-1,-1,-1,-1,-1,-1,-1,-1,-1],"loss_changes":[2.9062885E-1,4.1690946E-2,2.9562646E-1,1.6299924E-1,6.9753595E-2,6.2438145E-2,1.0883273E-1,8.482964E-3,5.5104494E-4,2.0421857E-2,1.1627808E-2,2.0277486E0,1.00494936E-1,5.2813016E-2,4.322754E-2,9.35694E-5,0E0,3.6566257E-3,5.4811217E-2,3.462E-2,4.579189E-2,0E0,4.057382E-2,1.11748435E-1,0E0,4.5961738E-3,7.386846E-2,1.5735267E-1,1.2347152E-2,1.5747935E-2,6.03514E-3,0E0,0E0,0E0,0E0,0E0,0E0,0E0,0E0,0E0,0E0,0E0,0E0,0E0,0E0,0E0,0E0,0E0,0E0,0E0,0E0,0E0,0E0,0E0,0E0,0E0,0E0],"parents":[2147483647,0,0,1,1,2,2,3,3,4,4,5,5,6,6,7,7,8,8,9,9,10,10,11,11,12,12,13,13,14,14,15,15,17,17,18,18,19,19,20,20,22,22,23,23,25,25,26,26,27,27,28,28,29,29,30,30],"right_children":[2,4,6,8,10,12,14,16,18,20,22,24,26,28,30,32,-1,34,36,38,40,-1,42,44,-1,46,48,50,52,54,56,-1,-1,-1,-1,-1,-1,-1,-1,-1,-1,-1,-1,-1,-1,-1,-1,-1,-1,-1,-1,-1,-1,-1,-1,-1,-1],"split_conditions":[3.5349452E-1,2.72953E-1,5.1850104E-1,2.2284019E-1,3.4172833E-1,4.5525965E-1,6.5439254E-1,2.0140074E-1,2.5818753E-1,3.087049E-1,3.4660763E-1,4.5511007E-1,4.588401E-1,5.6924295E-1,8.189679E-1,1.7417204E-1,3.3856411E-3,2.4845433E-1,2.662511E-1,2.8397003E-1,3.2993495E-1,1.2991357E-2,3.5251576E-1,4.184344E-1,4.413431E-2,4.5745414E-1,4.5927405E-1,5.65899E-1,6.3414603E-1,6.9467825E-1,1E0,-5.521116E-4,-1.4598978E-3,1.0621277E-2,2.2215912E-2,1.9709233E-3,1.9091463E-2,5.44308E-3,-2.0262487E-3,7.620395E-3,-7.0215616E-4,-1.2304691E-3,1.200569E-2,1.5121473E-4,-3.2105518E-3,-1.2105596E-2,-6.3588815E-3,1.0265457E-2,-2.0312814E-3,2.8763881E-3,2.3177205E-2,3.824632E-4,-3.8974893E-3,7.890865E-3,1.5356289E-2,2.7523653E-3,-3.795951E-3],"split_indices":[0,0,0,0,0,0,0,0,0,0,0,0,0,0,0,0,0,0,0,0,0,0,0,0,0,0,0,0,0,0,0,0,0,0,0,0,0,0,0,0,0,0,0,0,0,0,0,0,0,0,0,0,0,0,0,0,0],"split_type":[0,0,0,0,0,0,0,0,0,0,0,0,0,0,0,0,0,0,0,0,0,0,0,0,0,0,0,0,0,0,0,0,0,0,0,0,0,0,0,0,0,0,0,0,0,0,0,0,0,0,0,0,0,0,0,0,0],"sum_hessian":[9.61E2,9.8E1,8.63E2,3E1,6.8E1,6.85E2,1.78E2,1.5E1,1.5E1,5.3E1,1.5E1,4.04E2,2.81E2,1.54E2,2.4E1,8E0,7E0,8E0,7E0,2.7E1,2.6E1,7E0,8E0,3.95E2,9E0,1.5E1,2.66E2,1.05E2,4.9E1,1.9E1,5E0,4E0,4E0,4E0,4E0,4E0,3E0,8E0,1.9E1,1.5E1,1.1E1,4E0,4E0,2.06E2,1.89E2,8E0,7E0,4E0,2.62E2,1.02E2,3E0,4.2E1,7E0,1.1E1,8E0,4E0,1E0],"tree_param":{"num_deleted":"0","num_feature":"1","num_nodes":"57","size_leaf_vector":"1"}},{"base_weights":[-4.428387E-4,4.1072637E-2,-5.1993076E-3,-2.5015948E-2,4.7157522E-2,-1.2920198E-2,2.4419297E-2,-3.0397016E-3,-1.4631691E-3,9.230107E-2,3.1426232E-2,-7.4825487E-3,-2.2493618E-2,1.7964758E-2,8.48705E-2,3.923976E-2,1.3767062E-1,1.4907398E-2,8.5213155E-2,-1.6530532E-2,7.411937E-2,-2.9033054E-2,-7.022209E-3,8.412039E-2,1.4007562E-2,1.23865314E-1,-7.264199E-3,2.4373927E-3,5.5177147E-3,2.0246772E-2,7.996361E-3,2.7980779E-3,-3.3181165E-3,1.2708505E-2,3.852556E-3,-6.011556E-4,-2.790368E-3,3.2545295E-2,1.9208599E-5,-2.226622E-3,-8.002437E-3,8.451339E-3,-2.9415844E-3,4.603917E-3,1.0537754E-2,-4.5566196E-3,1.8874767E-3,5.42139E-3,1.41058685E-2,1.3210754E-3,-5.481948E-3],"categories":[],"categories_nodes":[],"categories_segments":[],"categories_sizes":[],"default_left":[0,0,0,0,0,0,0,0,0,0,0,0,0,0,0,0,0,0,0,0,0,0,0,0,0,0,0,0,0,0,0,0,0,0,0,0,0,0,0,0,0,0,0,0,0,0,0,0,0,0,0],"id":30,"left_children":[1,3,5,7,9,11,13,-1,-1,15,17,19,21,23,25,27,29,31,33,35,37,39,41,43,45,47,49,-1,-1,-1,-1,-1,-1,-1,-1,-1,-1,-1,-1,-1,-1,-1,-1,-1,-1,-1,-1,-1,-1,-1,-1],"loss_changes":[1.9017686E-1,4.099171E-2,1.9789675E-1,5.8145728E-5,6.1724454E-2,3.554271E-2,6.831838E-2,0E0,0E0,4.996729E-2,6.0036004E-2,3.2535335E-1,2.4887338E-2,4.1493583E-2,6.197697E-2,1.498187E-3,2.868092E-2,3.4877155E-2,2.638235E-2,4.720728E-2,8.1747544E-1,5.825682E-2,1.5622215E-1,2.4339855E-3,4.5803495E-2,6.7231655E-3,6.566359E-3,0E0,0E0,0E0,0E0,0E0,0E0,0E0,0E0,0E0,0E0,0E0,0E0,0E0,0E0,0E0,0E0,0E0,0E0,0E0,0E0,0E0,0E0,0E0,0E0],"parents":[2147483647,0,0,1,1,2,2,3,3,4,4,5,5,6,6,9,9,10,10,11,11,12,12,13,13,14,14,15,15,16,16,17,17,18,18,19,19,20,20,21,21,22,22,23,23,24,24,25,25,26,26],"right_children":[2,4,6,8,10,12,14,-1,-1,16,18,20,22,24,26,28,30,32,34,36,38,40,42,44,46,48,50,-1,-1,-1,-1,-1,-1,-1,-1,-1,-1,-1,-1,-1,-1,-1,-1,-1,-1,-1,-1,-1,-1,-1,-1],"split_conditions":[3.5349452E-1,2.0140074E-1,5.1850104E-1,1.7417204E-1,2.72953E-1,4.614903E-1,6.85209E-1,-3.0397016E-3,-1.4631691E-3,2.4845433E-1,3.4172833E-1,4.5511007E-1,4.9764174E-1,5.2286255E-1,8.189679E-1,2.2284019E-1,2.5818753E-1,3.2993495E-1,3.4660763E-1,4.184344E-1,4.5525965E-1,4.9437287E-1,5.0104266E-1,5.210467E-1,5.263938E-1,6.9467825E-1,1E0,2.4373927E-3,5.5177147E-3,2.0246772E-2,7.996361E-3,2.7980779E-3,-3.3181165E-3,1.2708505E-2,3.852556E-3,-6.011556E-4,-2.790368E-3,3.2545295E-2,1.9208599E-5,-2.226622E-3,-8.002437E-3,8.451339E-3,-2.9415844E-3,4.603917E-3,1.0537754E-2,-4.5566196E-3,1.8874767E-3,5.42139E-3,1.41058685E-2,1.3210754E-3,-5.481948E-3],"split_indices":[0,0,0,0,0,0,0,0,0,0,0,0,0,0,0,0,0,0,0,0,0,0,0,0,0,0,0,0,0,0,0,0,0,0,0,0,0,0,0,0,0,0,0,0,0,0,0,0,0,0,0],"split_type":[0,0,0,0,0,0,0,0,0,0,0,0,0,0,0,0,0,0,0,0,0,0,0,0,0,0,0,0,0,0,0,0,0,0,0,0,0,0,0,0,0,0,0,0,0,0,0,0,0,0,0],"sum_hessian":[9.61E2,9.8E1,8.63E2,8E0,9E1,6.85E2,1.78E2,4E0,4E0,2.2E1,6.8E1,4.38E2,2.47E2,1.62E2,1.6E1,1.1E1,1.1E1,5.3E1,1.5E1,3.95E2,4.3E1,1.73E2,7.4E1,8E0,1.54E2,1.1E1,5E0,7E0,4E0,4E0,7E0,4.2E1,1.1E1,7E0,8E0,2.06E2,1.89E2,9E0,3.4E1,1.54E2,1.9E1,1.4E1,6E1,4E0,4E0,1.1E1,1.43E2,3E0,8E0,4E0,1E0],"tree_param":{"num_deleted":"0","num_feature":"1","num_nodes":"51","size_leaf_vector":"1"}},{"base_weights":[-3.7761737E-4,4.672651E-2,-5.7745283E-3,-1.8250594E-3,5.263934E-2,-1.4325511E-2,2.7028536E-2,1.02712765E-1,3.518531E-2,-6.513211E-3,-2.5494505E-2,1.853715E-2,7.859399E-2,2.892657E-3,1.3318633E-1,1.7895643E-2,9.133886E-2,-1.7627506E-2,4.342642E-2,-1.00699276E-1,-2.0892367E-2,2.972465E-2,-5.551093E-3,1.0034738E-1,-7.016296E-3,1.5916606E-2,8.731081E-3,3.2586125E-3,-3.6236558E-3,1.31911235E-2,4.5125755E-3,-2.0411948E-4,-3.4515604E-3,-1.1911518E-2,-6.7393975E-3,1.03925755E-2,-2.3185897E-3,2.1701322E-3,2.2889419E-2,1.6210349E-4,-4.3407395E-3,1.6567808E-2,7.3659825E-3,1.0901174E-3,-4.8301825E-3],"categories":[],"categories_nodes":[],"categories_segments":[],"categories_sizes":[],"default_left":[0,0,0,0,0,0,0,0,0,0,0,0,0,0,0,0,0,0,0,0,0,0,0,0,0,0,0,0,0,0,0,0,0,0,0,0,0,0,0,0,0,0,0,0,0],"id":31,"left_children":[1,3,5,-1,7,9,11,13,15,17,19,21,23,-1,25,27,29,31,-1,33,35,37,39,41,43,-1,-1,-1,-1,-1,-1,-1,-1,-1,-1,-1,-1,-1,-1,-1,-1,-1,-1,-1,-1],"loss_changes":[2.4482638E-1,3.899634E-2,2.4273786E-1,0E0,7.5918496E-2,5.9691235E-2,7.6920405E-2,4.7863483E-2,6.53559E-2,1.9917219E0,9.549713E-2,4.1935522E-2,4.726191E-2,0E0,5.1724315E-3,4.4123128E-2,2.4047017E-2,1.0416594E-1,0E0,1.7859042E-3,7.884476E-2,1.6442093E-1,1.3645876E-2,2.2666514E-2,4.96494E-3,0E0,0E0,0E0,0E0,0E0,0E0,0E0,0E0,0E0,0E0,0E0,0E0,0E0,0E0,0E0,0E0,0E0,0E0,0E0,0E0],"parents":[2147483647,0,0,1,1,2,2,4,4,5,5,6,6,7,7,8,8,9,9,10,10,11,11,12,12,14,14,15,15,16,16,17,17,19,19,20,20,21,21,22,22,23,23,24,24],"right_children":[2,4,6,-1,8,10,12,14,16,18,20,22,24,-1,26,28,30,32,-1,34,36,38,40,42,44,-1,-1,-1,-1,-1,-1,-1,-1,-1,-1,-1,-1,-1,-1,-1,-1,-1,-1,-1,-1],"split_conditions":[3.5349452E-1,2.0140074E-1,5.1850104E-1,-1.8250594E-3,2.72953E-1,4.5525965E-1,6.5439254E-1,2.2284019E-1,3.4172833E-1,4.5511007E-1,4.588401E-1,5.6924295E-1,8.189679E-1,2.892657E-3,2.5818753E-1,3.2993495E-1,3.4660763E-1,4.184344E-1,4.342642E-2,4.5745414E-1,4.5927405E-1,5.65899E-1,6.3414603E-1,6.6841215E-1,1E0,1.5916606E-2,8.731081E-3,3.2586125E-3,-3.6236558E-3,1.31911235E-2,4.5125755E-3,-2.0411948E-4,-3.4515604E-3,-1.1911518E-2,-6.7393975E-3,1.03925755E-2,-2.3185897E-3,2.1701322E-3,2.2889419E-2,1.6210349E-4,-4.3407395E-3,1.6567808E-2,7.3659825E-3,1.0901174E-3,-4.8301825E-3],"split_indices":[0,0,0,0,0,0,0,0,0,0,0,0,0,0,0,0,0,0,0,0,0,0,0,0,0,0,0,0,0,0,0,0,0,0,0,0,0,0,0,0,0,0,0,0,0],"split_type":[0,0,0,0,0,0,0,0,0,0,0,0,0,0,0,0,0,0,0,0,0,0,0,0,0,0,0,0,0,0,0,0,0,0,0,0,0,0,0,0,0,0,0,0,0],"sum_hessian":[9.61E2,9.8E1,8.63E2,8E0,9E1,6.85E2,1.78E2,2.2E1,6.8E1,4.04E2,2.81E2,1.54E2,2.4E1,7E0,1.5E1,5.3E1,1.5E1,3.95E2,9E0,1.5E1,2.66E2,1.05E2,4.9E1,1.9E1,5E0,8E0,7E0,4.2E1,1.1E1,7E0,8E0,2.06E2,1.89E2,8E0,7E0,4E0,2.62E2,1.02E2,3E0,4.2E1,7E0,4E0,1.5E1,4E0,1E0],"tree_param":{"num_deleted":"0","num_feature":"1","num_nodes":"45","size_leaf_vector":"1"}},