{"learner":{"attributes":{"scikit_learn":"{\"_estimator_type\": \"regressor\"}"},"feature_names":[],"feature_types":[],"gradient_booster":{"model":{"gbtree_model_param":{"num_parallel_tree":"1","num_trees":"400"},"iteration_indptr":[0,4,8,12,16,20,24,28,32,36,40,44,48,52,56,60,64,68,72,76,80,84,88,92,96,100,104,108,112,116,120,124,128,132,136,140,144,148,152,156,160,164,168,172,176,180,184,188,192,196,200,204,208,212,216,220,224,228,232,236,240,244,248,252,256,260,264,268,272,276,280,284,288,292,296,300,304,308,312,316,320,324,328,332,336,340,344,348,352,356,360,364,368,372,376,380,384,388,392,396,400],"tree_info":[0,1,2,3,0,1,2,3,0,1,2,3,0,1,2,3,0,1,2,3,0,1,2,3,0,1,2,3,0,1,2,3,0,1,2,3,0,1,2,3,0,1,2,3,0,1,2,3,0,1,2,3,0,1,2,3,0,1,2,3,0,1,2,3,0,1,2,3,0,1,2,3,0,1,2,3,0,1,2,3,0,1,2,3,0,1,2,3,0,1,2,3,0,1,2,3,0,1,2,3,0,1,2,3,0,1,2,3,0,1,2,3,0,1,2,3,0,1,2,3,0,1,2,3,0,1,2,3,0,1,2,3,0,1,2,3,0,1,2,3,0,1,2,3,0,1,2,3,0,1,2,3,0,1,2,3,0,1,2,3,0,1,2,3,0,1,2,3,0,1,2,3,0,1,2,3,0,1,2,3,0,1,2,3,0,1,2,3,0,1,2,3,0,1,2,3,0,1,2,3,0,1,2,3,0,1,2,3,0,1,2,3,0,1,2,3,0,1,2,3,0,1,2,3,0,1,2,3,0,1,2,3,0,1,2,3,0,1,2,3,0,1,2,3,0,1,2,3,0,1,2,3,0,1,2,3,0,1,2,3,0,1,2,3,0,1,2,3,0,1,2,3,0,1,2,3,0,1,2,3,0,1,2,3,0,1,2,3,0,1,2,3,0,1,2,3,0,1,2,3,0,1,2,3,0,1,2,3,0,1,2,3,0,1,2,3,0,1,2,3,0,1,2,3,0,1,2,3,0,1,2,3,0,1,2,3,0,1,2,3,0,1,2,3,0,1,2,3,0,1,2,3,0,1,2,3,0,1,2,3,0,1,2,3,0,1,2,3,0,1,2,3,0,1,2,3,0,1,2,3,0,1,2,3,0,1,2,3,0,1,2,3,0,1,2,3,0,1,2,3],"trees":[{"base_weights":[-1.9420107E-3,-8.106777E-2,3.807507E-1,-1.3486157E-1,-9.315453E-3,2.7542531E-1,5.4266375E-1,-1.6633378E-1,-1.04818285E-1,-4.0278345E-2,5.7524875E-2,2.0346929E-1,3.3811167E-2,4.6551738E-2,6.599458E-2,-1.8013552E-2,-1.4937055E-2,-1.1256454E-2,-8.702927E-3,-5.5453684E-2,-1.6925408E-2,3.6845654E-2,1.1896378E-2,1.5645389E-2,2.1914864E-2,-6.007736E-3,-4.3014525E-3,-2.6290724E-3,-4.7042826E-4,2.372547E-3,5.175836E-3],"categories":[],"categories_nodes":[],"categories_segments":[],"categories_sizes":[],"default_left":[0,0,0,0,0,0,0,0,0,0,0,0,0,0,0,0,0,0,0,0,0,0,0,0,0,0,0,0,0,0,0],"id":0,"left_children":[1,3,5,7,9,11,13,15,17,19,21,23,-1,-1,-1,-1,-1,-1,-1,25,27,29,-1,-1,-1,-1,-1,-1,-1,-1,-1],"loss_changes":[2.9161045E1,3.0788894E0,2.6643734E0,4.1372585E-1,7.121795E-1,3.9129257E-1,2.7184868E-1,2.4834156E-2,2.2723913E-2,8.234277E-2,1.3410214E-1,2.5718212E-3,0E0,0E0,0E0,0E0,0E0,0E0,0E0,5.582869E-3,1.0635061E-2,1.5011579E-2,0E0,0E0,0E0,0E0,0E0,0E0,0E0,0E0,0E0],"parents":[2147483647,0,0,1,1,2,2,3,3,4,4,5,5,6,6,7,7,8,8,9,9,10,10,11,11,19,19,20,20,21,21],"right_children":[2,4,6,8,10,12,14,16,18,20,22,24,-1,-1,-1,-1,-1,-1,-1,26,28,30,-1,-1,-1,-1,-1,-1,-1,-1,-1],"split_conditions":[3.4474623E-1,1.22245096E-1,6.017496E-1,5.7332195E-2,2.0316657E-1,4.617137E-1,7.632662E-1,2.9055173E-2,9.456424E-2,1.582597E-1,2.6718208E-1,3.82154E-1,3.3811167E-2,4.6551738E-2,6.599458E-2,-1.8013552E-2,-1.4937055E-2,-1.1256454E-2,-8.702927E-3,1.420754E-1,1.772993E-1,2.313934E-1,1.1896378E-2,1.5645389E-2,2.1914864E-2,-6.007736E-3,-4.3014525E-3,-2.6290724E-3,-4.7042826E-4,2.372547E-3,5.175836E-3],"split_indices":[1,1,1,1,1,1,1,1,1,1,1,1,0,0,0,0,0,0,0,1,1,1,0,0,0,0,0,0,0,0,0],"split_type":[0,0,0,0,0,0,0,0,0,0,0,0,0,0,0,0,0,0,0,0,0,0,0,0,0,0,0,0,0,0,0],"sum_hessian":[9.61E2,7.97E2,1.64E2,4.55E2,3.42E2,1.01E2,6.3E1,2.2E2,2.35E2,2.34E2,1.08E2,4.9E1,5.2E1,4.1E1,2.2E1,1.16E2,1.04E2,1.6E2,7.5E1,1.41E2,9.3E1,8.2E1,2.6E1,1.5E1,3.4E1,1E2,4.1E1,5.2E1,4.1E1,4.5E1,3.7E1],"tree_param":{"num_deleted":"0","num_feature":"2","num_nodes":"31","size_leaf_vector":"1"}},{"base_weights":[6.457452E-3,-7.5473085E-2,4.0266418E-1,-1.2999007E-1,3.0420674E-3,2.8218657E-1,5.543619E-1,-1.645717E-1,-9.902381E-2,-3.2920953E-2,6.565231E-2,2.1762009E-1,3.476563E-2,4.759014E-2,6.675034E-2,-1.793109E-2,-1.4658066E-2,-1.0718046E-1,-7.7256844E-3,-5.0771753E-3,-1.730636E-2,4.5534614E-2,1.3326012E-2,1.6769303E-2,2.342262E-2,-1.1446455E-2,-9.807835E-3,-2.4102477E-3,-8.064855E-5,3.1389263E-3,5.788465E-3],"categories":[],"categories_nodes":[],"categories_segments":[],"categories_sizes":[],"default_left":[0,0,0,0,0,0,0,0,0,0,0,0,0,0,0,0,0,0,0,0,0,0,0,0,0,0,0,0,0,0,0],"id":1,"left_children":[1,3,5,7,9,11,13,15,17,19,21,23,-1,-1,-1,-1,-1,25,-1,-1,27,29,-1,-1,-1,-1,-1,-1,-1,-1,-1],"loss_changes":[3.1258287E1,3.4161625E0,2.8591366E0,4.8808002E-1,7.407036E-1,3.2169485E-1,3.2148743E-1,3.2319546E-2,3.628373E-2,5.737652E-2,1.5714562E-1,2.1767616E-3,0E0,0E0,0E0,0E0,0E0,7.073879E-4,0E0,0E0,1.2651823E-2,1.4604434E-2,0E0,0E0,0E0,0E0,0E0,0E0,0E0,0E0,0E0],"parents":[2147483647,0,0,1,1,2,2,3,3,4,4,5,5,6,6,7,7,8,8,9,9,10,10,11,11,17,17,20,20,21,21],"right_children":[2,4,6,8,10,12,14,16,18,20,22,24,-1,-1,-1,-1,-1,26,-1,-1,28,30,-1,-1,-1,-1,-1,-1,-1,-1,-1],"split_conditions":[3.4474623E-1,1.2602916E-1,5.8735377E-1,5.7332195E-2,1.944814E-1,4.617137E-1,7.345813E-1,2.9055173E-2,9.900095E-2,1.4703298E-1,2.6718208E-1,3.82154E-1,3.476563E-2,4.759014E-2,6.675034E-2,-1.793109E-2,-1.4658066E-2,8.402781E-2,-7.7256844E-3,-5.0771753E-3,1.7365958E-1,2.2445905E-1,1.3326012E-2,1.6769303E-2,2.342262E-2,-1.1446455E-2,-9.807835E-3,-2.4102477E-3,-8.064855E-5,3.1389263E-3,5.788465E-3],"split_indices":[1,1,1,1,1,1,1,1,1,1,1,1,0,0,0,0,0,1,0,0,1,1,0,0,0,0,0,0,0,0,0],"split_type":[0,0,0,0,0,0,0,0,0,0,0,0,0,0,0,0,0,0,0,0,0,0,0,0,0,0,0,0,0,0,0],"sum_hessian":[9.61E2,7.97E2,1.64E2,4.7E2,3.27E2,9.3E1,7.1E1,2.2E2,2.5E2,2.08E2,1.19E2,4.9E1,4.4E1,4.5E1,2.6E1,1.16E2,1.04E2,1.79E2,7.1E1,9.6E1,1.12E2,9.3E1,2.6E1,1.5E1,3.4E1,9.3E1,8.6E1,7.9E1,3.3E1,4.5E1,4.8E1],"tree_param":{"num_deleted":"0","num_feature":"2","num_nodes":"31","size_leaf_vector":"1"}},{"base_weights":[-2.2498285E-3,-7.79351E-2,3.5334992E-1,-1.283373E-1,-1.3956452E-2,2.4518055E-1,4.956728E-1,-1.5693225E-1,-1.00559026E-1,-4.1399505E-2,4.199628E-2,1.8184705E-2,3.048029E-2,4.2347897E-2,6.0031146E-2,-1.692653E-2,-1.4109167E-2,-1.0970331E-2,-8.797461E-3,-5.2763846E-2,-2.1329952E-2,2.3805762E-2,8.516736E-2,-5.8297305E-3,-4.5233835E-3,-2.8146363E-3,-9.87654E-4,1.5881964E-3,3.658497E-3,6.173615E-3,1.0041642E-2],"categories":[],"categories_nodes":[],"categories_segments":[],"categories_sizes":[],"default_left":[0,0,0,0,0,0,0,0,0,0,0,0,0,0,0,0,0,0,0,0,0,0,0,0,0,0,0,0,0,0,0],"id":2,"left_children":[1,3,5,7,9,11,13,15,17,19,21,-1,-1,-1,-1,-1,-1,-1,-1,23,25,27,29,-1,-1,-1,-1,-1,-1,-1,-1],"loss_changes":[2.5918482E1,2.5585923E0,2.4802227E0,3.368969E-1,5.4070395E-1,3.1462955E-1,2.896862E-1,1.8511295E-2,1.6585827E-2,5.2700788E-2,8.906782E-2,0E0,0E0,0E0,0E0,0E0,0E0,0E0,0E0,3.613025E-3,6.514203E-3,7.823527E-3,5.9490204E-3,0E0,0E0,0E0,0E0,0E0,0E0,0E0,0E0],"parents":[2147483647,0,0,1,1,2,2,3,3,4,4,5,5,6,6,7,7,8,8,9,9,10,10,19,19,20,20,21,21,22,22],"right_children":[2,4,6,8,10,12,14,16,18,20,22,-1,-1,-1,-1,-1,-1,-1,-1,24,26,28,30,-1,-1,-1,-1,-1,-1,-1,-1],"split_conditions":[3.4231135E-1,1.155806E-1,5.8735377E-1,5.5374265E-2,1.944814E-1,4.4793287E-1,7.345813E-1,2.9055173E-2,8.900422E-2,1.5588759E-1,2.5315654E-1,1.8184705E-2,3.048029E-2,4.2347897E-2,6.0031146E-2,-1.692653E-2,-1.4109167E-2,-1.0970331E-2,-8.797461E-3,1.367162E-1,1.7365958E-1,2.3014459E-1,2.9958832E-1,-5.8297305E-3,-4.5233835E-3,-2.8146363E-3,-9.87654E-4,1.5881964E-3,3.658497E-3,6.173615E-3,1.0041642E-2],"split_indices":[1,1,1,1,1,1,1,1,1,1,1,0,0,0,0,0,0,0,0,1,1,1,1,0,0,0,0,0,0,0,0],"split_type":[0,0,0,0,0,0,0,0,0,0,0,0,0,0,0,0,0,0,0,0,0,0,0,0,0,0,0,0,0,0,0],"sum_hessian":[9.61E2,7.93E2,1.68E2,4.43E2,3.5E2,9.7E1,7.1E1,2.16E2,2.27E2,2.35E2,1.15E2,4.9E1,4.8E1,4.5E1,2.6E1,1.16E2,1E2,1.27E2,1E2,1.49E2,8.6E1,8.2E1,3.3E1,8.2E1,6.7E1,5.3E1,3.3E1,5.2E1,3E1,1.5E1,1.8E1],"tree_param":{"num_deleted":"0","num_feature":"2","num_nodes":"31","size_leaf_vector":"1"}},{"base_weights":[-2.2655604E-3,-8.077742E-2,3.7746006E-1,-1.3601628E-1,-1.1462401E-2,2.636485E-1,5.208049E-1,-1.6534117E-1,-1.06476925E-1,-4.320913E-2,5.1068358E-2,2.0077178E-2,3.276527E-2,4.457214E-2,6.294358E-2,-1.7917123E-2,-1.4835584E-2,-1.1513534E-2,-9.479257E-3,-5.489586E-2,-2.2562947E-2,3.1812176E-2,1.1621697E-1,-6.4010904E-3,-4.810793E-3,-2.7040727E-3,-6.210349E-4,2.5193705E-3,5.5040843E-3,1.1842645E-2,2.9385358E-3],"categories":[],"categories_nodes":[],"categories_segments":[],"categories_sizes":[],"default_left":[0,0,0,0,0,0,0,0,0,0,0,0,0,0,0,0,0,0,0,0,0,0,0,0,0,0,0,0,0,0,0],"id":3,"left_children":[1,3,5,7,9,11,13,15,17,19,21,-1,-1,-1,-1,-1,-1,-1,-1,23,25,27,29,-1,-1,-1,-1,-1,-1,-1,-1],"loss_changes":[2.8710562E1,3.0538898E0,2.5545502E0,3.6700535E-1,7.069339E-1,3.1250715E-1,3.0670738E-1,2.5332928E-2,1.174736E-2,5.570495E-2,1.468445E-1,0E0,0E0,0E0,0E0,0E0,0E0,0E0,0E0,6.2014163E-3,6.2025003E-3,1.306472E-2,1.6999543E-3,0E0,0E0,0E0,0E0,0E0,0E0,0E0,0E0],"parents":[2147483647,0,0,1,1,2,2,3,3,4,4,5,5,6,6,7,7,8,8,9,9,10,10,19,19,20,20,21,21,22,22],"right_children":[2,4,6,8,10,12,14,16,18,20,22,-1,-1,-1,-1,-1,-1,-1,-1,24,26,28,30,-1,-1,-1,-1,-1,-1,-1,-1],"split_conditions":[3.4474623E-1,1.155806E-1,5.8735377E-1,5.7332195E-2,1.944814E-1,4.617137E-1,7.345813E-1,2.9055173E-2,8.900422E-2,1.5588759E-1,2.6718208E-1,2.0077178E-2,3.276527E-2,4.457214E-2,6.294358E-2,-1.7917123E-2,-1.4835584E-2,-1.1513534E-2,-9.479257E-3,1.336287E-1,1.8288442E-1,2.4418269E-1,6.85209E-1,-6.4010904E-3,-4.810793E-3,-2.7040727E-3,-6.210349E-4,2.5193705E-3,5.5040843E-3,1.1842645E-2,2.9385358E-3],"split_indices":[1,1,1,1,1,1,1,1,1,1,1,0,0,0,0,0,0,0,0,1,1,1,0,0,0,0,0,0,0,0,0],"split_type":[0,0,0,0,0,0,0,0,0,0,0,0,0,0,0,0,0,0,0,0,0,0,0,0,0,0,0,0,0,0,0],"sum_hessian":[9.61E2,7.97E2,1.64E2,4.43E2,3.54E2,9.3E1,7.1E1,2.2E2,2.23E2,2.35E2,1.19E2,4.9E1,4.4E1,4.5E1,2.6E1,1.16E2,1.04E2,1.23E2,1E2,1.49E2,8.6E1,9.3E1,2.6E1,6E1,8.9E1,6.7E1,1.9E1,7.4E1,1.9E1,2.5E1,1E0],"tree_param":{"num_deleted":"0","num_feature":"2","num_nodes":"31","size_leaf_vector":"1"}},{"base_weights":[-1.6053519E-3,-7.4850775E-2,3.3524776E-1,-1.22502334E-1,-1.2575342E-2,2.2646336E-1,4.6967986E-1,-1.5074511E-1,-9.626209E-2,-4.0010244E-2,4.0995024E-2,1.686818E-1,2.7962325E-2,3.9882403E-2,5.8349878E-2,-1.627788E-2,-1.3593579E-2,-1.0887139E-2,-8.677027E-2,-5.2057076E-2,-2.0960024E-2,2.6219096E-2,8.927705E-2,1.3400616E-2,1.8449327E-2,-8.947074E-3,-6.926041E-3,-5.7228794E-3,-4.450589E-3,-2.796522E-3,-1.2288245E-3,1.1867698E-3,3.7749887E-3,6.2511265E-3,1.03771575E-2],"categories":[],"categories_nodes":[],"categories_segments":[],"categories_sizes":[],"default_left":[0,0,0,0,0,0,0,0,0,0,0,0,0,0,0,0,0,0,0,0,0,0,0,0,0,0,0,0,0,0,0,0,0,0,0],"id":4,"left_children":[1,3,5,7,9,11,13,15,17,19,21,23,-1,-1,-1,-1,-1,-1,25,27,29,31,33,-1,-1,-1,-1,-1,-1,-1,-1,-1,-1,-1,-1],"loss_changes":[2.3760471E1,2.345769E0,2.4089832E0,3.175006E-1,5.072163E-1,2.5078392E-1,3.8020515E-1,1.6009808E-2,1.867938E-2,5.123368E-2,8.112842E-2,2.1420717E-3,0E0,0E0,0E0,0E0,0E0,0E0,3.758669E-4,2.8812885E-3,5.123634E-3,1.4610946E-2,3.987938E-3,0E0,0E0,0E0,0E0,0E0,0E0,0E0,0E0,0E0,0E0,0E0,0E0],"parents":[2147483647,0,0,1,1,2,2,3,3,4,4,5,5,6,6,7,7,8,8,9,9,10,10,11,11,18,18,19,19,20,20,21,21,22,22],"right_children":[2,4,6,8,10,12,14,16,18,20,22,24,-1,-1,-1,-1,-1,-1,26,28,30,32,34,-1,-1,-1,-1,-1,-1,-1,-1,-1,-1,-1,-1],"split_conditions":[3.3248407E-1,1.1781465E-1,5.765789E-1,5.5029117E-2,1.909609E-1,4.402455E-1,7.345813E-1,2.7404739E-2,8.2873136E-2,1.5202822E-1,2.5709748E-1,3.7485567E-1,2.7962325E-2,3.9882403E-2,5.8349878E-2,-1.627788E-2,-1.3593579E-2,-1.0887139E-2,1.0398363E-1,1.367162E-1,1.710992E-1,2.1947637E-1,2.9958832E-1,1.3400616E-2,1.8449327E-2,-8.947074E-3,-6.926041E-3,-5.7228794E-3,-4.450589E-3,-2.796522E-3,-1.2288245E-3,1.1867698E-3,3.7749887E-3,6.2511265E-3,1.03771575E-2],"split_indices":[1,1,1,1,1,1,1,1,1,1,1,1,0,0,0,0,0,0,1,1,1,1,1,0,0,0,0,0,0,0,0,0,0,0,0],"split_type":[0,0,0,0,0,0,0,0,0,0,0,0,0,0,0,0,0,0,0,0,0,0,0,0,0,0,0,0,0,0,0,0,0,0,0],"sum_hessian":[9.61E2,7.9E2,1.71E2,4.47E2,3.43E2,9.6E1,7.5E1,2.13E2,2.34E2,2.27E2,1.16E2,4.8E1,4.8E1,4.9E1,2.6E1,1.12E2,1.01E2,9.6E1,1.38E2,1.38E2,8.9E1,9E1,2.6E1,1.8E1,3E1,1.16E2,2.2E1,7.8E1,6E1,4.8E1,4.1E1,4.1E1,4.9E1,1.1E1,1.5E1],"tree_param":{"num_deleted":"0","num_feature":"2","num_nodes":"35","size_leaf_vector":"1"}},{"base_weights":[5.959746E-3,-7.0950136E-2,3.498354E-1,-1.2060382E-1,-6.655985E-3,2.4318136E-1,5.0051373E-1,-1.5027393E-1,-9.45258E-2,-3.3959925E-2,4.9460564E-2,1.8286309E-1,3.0838465E-2,4.293458E-2,6.0322523E-2,-1.6368333E-2,-1.358165E-2,-1.0425518E-2,-8.331056E-3,-4.8820257E-2,-1.6743032E-2,3.735477E-2,9.520694E-3,1.4880188E-2,2.066305E-2,-5.5648964E-3,-4.237825E-3,-2.455289E-3,-6.678861E-4,1.6848115E-3,4.253225E-3],"categories":[],"categories_nodes":[],"categories_segments":[],"categories_sizes":[],"default_left":[0,0,0,0,0,0,0,0,0,0,0,0,0,0,0,0,0,0,0,0,0,0,0,0,0,0,0,0,0,0,0],"id":5,"left_children":[1,3,5,7,9,11,13,15,17,19,21,23,-1,-1,-1,-1,-1,-1,-1,25,27,29,-1,-1,-1,-1,-1,-1,-1,-1,-1],"loss_changes":[2.5467255E1,2.5116484E0,2.706686E0,3.293352E-1,5.287574E-1,3.5656786E-1,2.673092E-1,1.770544E-2,1.7393589E-2,5.853951E-2,5.9022516E-2,1.5397072E-2,0E0,0E0,0E0,0E0,0E0,0E0,0E0,3.0965507E-3,8.403383E-3,8.945122E-3,0E0,0E0,0E0,0E0,0E0,0E0,0E0,0E0,0E0],"parents":[2147483647,0,0,1,1,2,2,3,3,4,4,5,5,6,6,7,7,8,8,9,9,10,10,11,11,19,19,20,20,21,21],"right_children":[2,4,6,8,10,12,14,16,18,20,22,24,-1,-1,-1,-1,-1,-1,-1,26,28,30,-1,-1,-1,-1,-1,-1,-1,-1,-1],"split_conditions":[3.2238063E-1,1.155806E-1,5.8735377E-1,5.2657012E-2,1.909609E-1,4.4793287E-1,7.345813E-1,2.1706661E-2,8.685175E-2,1.4703298E-1,2.5709748E-1,3.82154E-1,3.0838465E-2,4.293458E-2,6.0322523E-2,-1.6368333E-2,-1.358165E-2,-1.0425518E-2,-8.331056E-3,1.3303253E-1,1.6937347E-1,2.0703223E-1,9.520694E-3,1.4880188E-2,2.066305E-2,-5.5648964E-3,-4.237825E-3,-2.455289E-3,-6.678861E-4,1.6848115E-3,4.253225E-3],"split_indices":[1,1,1,1,1,1,1,1,1,1,1,1,0,0,0,0,0,0,0,1,1,1,0,0,0,0,0,0,0,0,0],"split_type":[0,0,0,0,0,0,0,0,0,0,0,0,0,0,0,0,0,0,0,0,0,0,0,0,0,0,0,0,0,0,0],"sum_hessian":[9.61E2,7.86E2,1.75E2,4.43E2,3.43E2,1.04E2,7.1E1,2.05E2,2.38E2,2.31E2,1.12E2,5.6E1,4.8E1,4.5E1,2.6E1,1.01E2,1.04E2,1.23E2,1.15E2,1.23E2,1.08E2,9E1,2.2E1,2.6E1,3E1,5.6E1,6.7E1,6E1,4.8E1,1.9E1,7.1E1],"tree_param":{"num_deleted":"0","num_feature":"2","num_nodes":"31","size_leaf_vector":"1"}},{"base_weights":[-1.9130507E-3,-7.0196375E-2,3.189087E-1,-1.1597518E-1,-1.2968552E-2,2.0752344E-1,4.3181962E-1,-1.409451E-1,-9.048048E-2,-3.764327E-2,3.798167E-2,1.495105E-2,2.4946181E-2,3.652508E-2,5.3170115E-2,-1.4970319E-2,-1.2189999E-2,-1.0102783E-2,-8.202789E-3,-4.786146E-2,-1.9240664E-2,2.1488396E-2,7.7127546E-2,-5.474347E-3,-4.2435788E-3,-2.7478624E-3,-1.1300774E-3,1.4323734E-3,3.3044484E-3,5.594839E-3,9.0903295E-3],"categories":[],"categories_nodes":[],"categories_segments":[],"categories_sizes":[],"default_left":[0,0,0,0,0,0,0,0,0,0,0,0,0,0,0,0,0,0,0,0,0,0,0,0,0,0,0,0,0,0,0],"id":6,"left_children":[1,3,5,7,9,11,13,15,17,19,21,-1,-1,-1,-1,-1,-1,-1,-1,23,25,27,29,-1,-1,-1,-1,-1,-1,-1,-1],"loss_changes":[2.1096704E1,2.0786345E0,2.0358353E0,2.6798773E-1,4.4647226E-1,1.74371E-1,3.5766125E-1,1.8613338E-2,1.1415482E-2,4.402098E-2,7.3237315E-2,0E0,0E0,0E0,0E0,0E0,0E0,0E0,0E0,3.3898652E-3,5.3800084E-3,6.3987E-3,4.833892E-3,0E0,0E0,0E0,0E0,0E0,0E0,0E0,0E0],"parents":[2147483647,0,0,1,1,2,2,3,3,4,4,5,5,6,6,7,7,8,8,9,9,10,10,19,19,20,20,21,21,22,22],"right_children":[2,4,6,8,10,12,14,16,18,20,22,-1,-1,-1,-1,-1,-1,-1,-1,24,26,28,30,-1,-1,-1,-1,-1,-1,-1,-1],"split_conditions":[3.4231135E-1,1.1359757E-1,5.597169E-1,5.7332195E-2,1.944814E-1,4.208419E-1,7.175561E-1,3.636603E-2,8.402781E-2,1.5588759E-1,2.5315654E-1,1.495105E-2,2.4946181E-2,3.652508E-2,5.3170115E-2,-1.4970319E-2,-1.2189999E-2,-1.0102783E-2,-8.202789E-3,1.336287E-1,1.710992E-1,2.3014459E-1,2.9958832E-1,-5.474347E-3,-4.2435788E-3,-2.7478624E-3,-1.1300774E-3,1.4323734E-3,3.3044484E-3,5.594839E-3,9.0903295E-3],"split_indices":[1,1,1,1,1,1,1,1,1,1,1,0,0,0,0,0,0,0,0,1,1,1,1,0,0,0,0,0,0,0,0],"split_type":[0,0,0,0,0,0,0,0,0,0,0,0,0,0,0,0,0,0,0,0,0,0,0,0,0,0,0,0,0,0,0],"sum_hessian":[9.61E2,7.93E2,1.68E2,4.4E2,3.53E2,8.6E1,8.2E1,2.2E2,2.2E2,2.38E2,1.15E2,3.8E1,4.8E1,5.2E1,3E1,1.46E2,7.4E1,9.3E1,1.27E2,1.52E2,8.6E1,8.2E1,3.3E1,6.3E1,8.9E1,4.1E1,4.5E1,5.2E1,3E1,1.5E1,1.8E1],"tree_param":{"num_deleted":"0","num_feature":"2","num_nodes":"31","size_leaf_vector":"1"}},{"base_weights":[-1.9195868E-3,-7.5601116E-2,3.2756495E-1,-1.225357E-1,-1.4802978E-2,2.1298788E-1,4.533804E-1,-1.5087447E-1,-9.7597115E-2,-3.8949817E-2,3.7614055E-2,1.5518531E-2,2.6290482E-2,3.9074283E-2,5.6882348E-2,-1.6328987E-2,-1.37376925E-2,-1.0861631E-2,-8.768346E-3,-5.1392417E-2,-2.2936737E-2,2.4528986E-2,7.6445416E-2,-5.82215E-3,-4.559439E-3,-2.871247E-3,-1.0031164E-3,8.3819183E-4,2.919168E-3,5.5285664E-3,8.753738E-3],"categories":[],"categories_nodes":[],"categories_segments":[],"categories_sizes":[],"default_left":[0,0,0,0,0,0,0,0,0,0,0,0,0,0,0,0,0,0,0,0,0,0,0,0,0,0,0,0,0,0,0],"id":7,"left_children":[1,3,5,7,9,11,13,15,17,19,21,-1,-1,-1,-1,-1,-1,-1,-1,23,25,27,29,-1,-1,-1,-1,-1,-1,-1,-1],"loss_changes":[2.3379168E1,2.2439184E0,2.4405746E0,2.990632E-1,4.3686777E-1,2.3042154E-1,3.7791634E-1,1.2088776E-2,1.6584635E-2,4.5842886E-2,5.3508982E-2,0E0,0E0,0E0,0E0,0E0,0E0,0E0,0E0,2.572E-3,7.5385906E-3,6.004289E-3,1.4974326E-3,0E0,0E0,0E0,0E0,0E0,0E0,0E0,0E0],"parents":[2147483647,0,0,1,1,2,2,3,3,4,4,5,5,6,6,7,7,8,8,9,9,10,10,19,19,20,20,21,21,22,22],"right_children":[2,4,6,8,10,12,14,16,18,20,22,-1,-1,-1,-1,-1,-1,-1,-1,24,26,28,30,-1,-1,-1,-1,-1,-1,-1,-1],"split_conditions":[3.2238063E-1,1.155806E-1,5.597169E-1,5.2657012E-2,1.944814E-1,4.208419E-1,7.345813E-1,2.1706661E-2,8.402781E-2,1.4934862E-1,2.5315654E-1,1.5518531E-2,2.6290482E-2,3.9074283E-2,5.6882348E-2,-1.6328987E-2,-1.37376925E-2,-1.0861631E-2,-8.768346E-3,1.3303253E-1,1.7365958E-1,2.0918469E-1,2.6718208E-1,-5.82215E-3,-4.559439E-3,-2.871247E-3,-1.0031164E-3,8.3819183E-4,2.919168E-3,5.5285664E-3,8.753738E-3],"split_indices":[1,1,1,1,1,1,1,1,1,1,1,0,0,0,0,0,0,0,0,1,1,1,1,0,0,0,0,0,0,0,0],"split_type":[0,0,0,0,0,0,0,0,0,0,0,0,0,0,0,0,0,0,0,0,0,0,0,0,0,0,0,0,0,0,0],"sum_hessian":[9.61E2,7.86E2,1.75E2,4.43E2,3.43E2,9.3E1,8.2E1,2.05E2,2.38E2,2.35E2,1.08E2,4.5E1,4.8E1,5.6E1,2.6E1,1.01E2,1.04E2,1.08E2,1.3E2,1.31E2,1.04E2,8.2E1,2.6E1,5.6E1,7.5E1,7.1E1,3.3E1,1.9E1,6.3E1,1.1E1,1.5E1],"tree_param":{"num_deleted":"0","num_feature":"2","num_nodes":"31","size_leaf_vector":"1"}},{"base_weights":[-1.3317119E-3,-6.742795E-2,3.0264187E-1,-1.1082357E-1,-1.1867359E-2,2.2415982E-1,4.5705017E-1,-1.3713804E-1,-8.829191E-2,-3.5882253E-2,3.8392656E-2,1.6256118E-1,2.8506786E-2,3.9386626E-2,5.542471E-2,-1.4747547E-2,-1.2455738E-2,-9.944182E-3,-7.871798E-3,-4.6937037E-2,-1.742741E-2,2.3418102E-2,7.7247344E-2,1.3215119E-2,1.867463E-2,-5.3253113E-3,-4.0826327E-3,-2.3052776E-3,-7.4840785E-4,1.376006E-3,3.4493152E-3,5.562374E-3,9.4043E-3],"categories":[],"categories_nodes":[],"categories_segments":[],"categories_sizes":[],"default_left":[0,0,0,0,0,0,0,0,0,0,0,0,0,0,0,0,0,0,0,0,0,0,0,0,0,0,0,0,0,0,0,0,0],"id":8,"left_children":[1,3,5,7,9,11,13,15,17,19,21,23,-1,-1,-1,-1,-1,-1,-1,25,27,29,31,-1,-1,-1,-1,-1,-1,-1,-1,-1,-1],"loss_changes":[1.934844E1,1.905854E0,1.9818916E0,2.5114346E-1,4.2140976E-1,3.8887405E-1,1.3175297E-1,8.030891E-3,1.8005371E-2,4.7329366E-2,6.393799E-2,1.9449472E-2,0E0,0E0,0E0,0E0,0E0,0E0,0E0,3.4994483E-3,4.86161E-3,8.403324E-3,6.027639E-3,0E0,0E0,0E0,0E0,0E0,0E0,0E0,0E0,0E0,0E0],"parents":[2147483647,0,0,1,1,2,2,3,3,4,4,5,5,6,6,7,7,8,8,9,9,10,10,11,11,19,19,20,20,21,21,22,22],"right_children":[2,4,6,8,10,12,14,16,18,20,22,24,-1,-1,-1,-1,-1,-1,-1,26,28,30,32,-1,-1,-1,-1,-1,-1,-1,-1,-1,-1],"split_conditions":[3.3248407E-1,1.155806E-1,6.2450427E-1,5.1527437E-2,1.944814E-1,4.8891133E-1,8.004167E-1,2.4292134E-2,8.2873136E-2,1.5367866E-1,2.5315654E-1,3.9821905E-1,2.8506786E-2,3.9386626E-2,5.542471E-2,-1.4747547E-2,-1.2455738E-2,-9.944182E-3,-7.871798E-3,1.353105E-1,1.7365958E-1,2.2445905E-1,2.9958832E-1,1.3215119E-2,1.867463E-2,-5.3253113E-3,-4.0826327E-3,-2.3052776E-3,-7.4840785E-4,1.376006E-3,3.4493152E-3,5.562374E-3,9.4043E-3],"split_indices":[1,1,1,1,1,1,1,1,1,1,1,1,0,0,0,0,0,0,0,1,1,1,1,0,0,0,0,0,0,0,0,0,0],"split_type":[0,0,0,0,0,0,0,0,0,0,0,0,0,0,0,0,0,0,0,0,0,0,0,0,0,0,0,0,0,0,0,0,0],"sum_hessian":[9.61E2,7.9E2,1.71E2,4.43E2,3.47E2,1.15E2,5.6E1,2.02E2,2.41E2,2.35E2,1.12E2,5.9E1,5.6E1,3.7E1,1.9E1,1.05E2,9.7E1,1.07E2,1.34E2,1.46E2,8.9E1,8.2E1,3E1,2.9E1,3E1,6.8E1,7.8E1,5.6E1,3.3E1,4.5E1,3.7E1,1.5E1,1.5E1],"tree_param":{"num_deleted":"0","num_feature":"2","num_nodes":"33","size_leaf_vector":"1"}},{"base_weights":[5.492116E-3,-6.125029E-2,3.282494E-1,-1.0600142E-1,1.8823203E-3,2.3858774E-1,4.6601874E-1,-1.3368246E-1,-8.080502E-2,-2.5148746E-2,5.741513E-2,1.7733296E-2,2.918736E-2,4.0998977E-2,5.68783E-2,-1.4613849E-2,-1.195429E-2,-8.586389E-2,-5.9155766E-3,-3.8569532E-2,-7.499881E-3,3.9918013E-2,1.0907609E-1,-9.282525E-3,-7.881408E-3,-4.3273377E-3,-2.9036447E-3,-1.3732313E-3,9.397712E-4,3.2441542E-3,5.3445315E-3,1.1107471E-2,2.8555968E-3],"categories":[],"categories_nodes":[],"categories_segments":[],"categories_sizes":[],"default_left":[0,0,0,0,0,0,0,0,0,0,0,0,0,0,0,0,0,0,0,0,0,0,0,0,0,0,0,0,0,0,0,0,0],"id":9,"left_children":[1,3,5,7,9,11,13,15,17,19,21,-1,-1,-1,-1,-1,-1,23,-1,25,27,29,31,-1,-1,-1,-1,-1,-1,-1,-1,-1,-1],"loss_changes":[2.074312E1,2.2547536E0,1.9269981E0,3.149128E-1,4.9981275E-1,2.8117132E-1,1.3530254E-1,2.1453142E-2,2.1972299E-2,5.276774E-2,9.4172925E-2,0E0,0E0,0E0,0E0,0E0,0E0,2.4012327E-3,0E0,4.43846E-3,1.0449737E-2,6.660491E-3,1.1732578E-3,0E0,0E0,0E0,0E0,0E0,0E0,0E0,0E0,0E0,0E0],"parents":[2147483647,0,0,1,1,2,2,3,3,4,4,5,5,6,6,7,7,8,8,9,9,10,10,17,17,19,19,20,20,21,21,22,22],"right_children":[2,4,6,8,10,12,14,16,18,20,22,-1,-1,-1,-1,-1,-1,24,-1,26,28,30,32,-1,-1,-1,-1,-1,-1,-1,-1,-1,-1],"split_conditions":[3.4474623E-1,1.2483057E-1,6.017496E-1,5.7332195E-2,2.0316657E-1,4.617137E-1,8.004167E-1,2.7404739E-2,1.027411E-1,1.5588759E-1,2.6718208E-1,1.7733296E-2,2.918736E-2,4.0998977E-2,5.68783E-2,-1.4613849E-2,-1.195429E-2,8.402781E-2,-5.9155766E-3,1.4070109E-1,1.8432778E-1,2.3958908E-1,6.85209E-1,-9.282525E-3,-7.881408E-3,-4.3273377E-3,-2.9036447E-3,-1.3732313E-3,9.397712E-4,3.2441542E-3,5.3445315E-3,1.1107471E-2,2.8555968E-3],"split_indices":[1,1,1,1,1,1,1,1,1,1,1,0,0,0,0,0,0,1,0,1,1,1,0,0,0,0,0,0,0,0,0,0,0],"split_type":[0,0,0,0,0,0,0,0,0,0,0,0,0,0,0,0,0,0,0,0,0,0,0,0,0,0,0,0,0,0,0,0,0],"sum_hessian":[9.61E2,7.97E2,1.64E2,4.66E2,3.31E2,1.01E2,6.3E1,2.2E2,2.46E2,2.23E2,1.08E2,4.9E1,5.2E1,4.4E1,1.9E1,1.12E2,1.08E2,1.97E2,4.9E1,1.26E2,9.7E1,8.2E1,2.6E1,9.3E1,1.04E2,8.2E1,4.4E1,7.1E1,2.6E1,5.5E1,2.7E1,2.5E1,1E0],"tree_param":{"num_deleted":"0","num_feature":"2","num_nodes":"33","size_leaf_vector":"1"}},{"base_weights":[-1.6282412E-3,-6.234558E-2,2.9203275E-1,-1.0416424E-1,-9.867178E-3,2.0272402E-1,4.0457425E-1,-1.2860669E-1,-8.266086E-2,-3.3634555E-2,3.6957555E-2,1.5373716E-1,2.5264893E-2,3.534429E-2,5.198435E-1,-1.3934438E-2,-1.1695096E-2,-9.330039E-3,-7.377337E-3,-4.2848885E-2,-1.7361173E-2,1.9396625E-2,7.434175E-2,1.2894327E-2,1.7522456E-2,1.5046634E-2,5.3136516E-2,-4.6029314E-3,-3.3574698E-3,-2.3046383E-3,-7.821102E-4,9.4167155E-4,2.6129284E-3,5.070323E-3,8.755369E-3],"categories":[],"categories_nodes":[],"categories_segments":[],"categories_sizes":[],"default_left":[0,0,0,0,0,0,0,0,0,0,0,0,0,0,0,0,0,0,0,0,0,0,0,0,0,0,0,0,0,0,0,0,0,0,0],"id":10,"left_children":[1,3,5,7,9,11,13,15,17,19,21,23,-1,-1,25,-1,-1,-1,-1,27,29,31,33,-1,-1,-1,-1,-1,-1,-1,-1,-1,-1,-1,-1],"loss_changes":[1.7170969E1,1.7502439E0,1.5763884E0,2.227335E-1,3.9632285E-1,1.9105077E-1,2.4062347E-1,9.485722E-3,1.5716314E-2,3.464392E-2,7.7338174E-2,4.0438175E-3,0E0,0E0,5.1641464E-3,0E0,0E0,0E0,0E0,2.878964E-3,4.5383945E-3,5.330831E-3,7.428542E-3,0E0,0E0,0E0,0E0,0E0,0E0,0E0,0E0,0E0,0E0,0E0,0E0],"parents":[2147483647,0,0,1,1,2,2,3,3,4,4,5,5,6,6,7,7,8,8,9,9,10,10,11,11,14,14,19,19,20,20,21,21,22,22],"right_children":[2,4,6,8,10,12,14,16,18,20,22,24,-1,-1,26,-1,-1,-1,-1,28,30,32,34,-1,-1,-1,-1,-1,-1,-1,-1,-1,-1,-1,-1],"split_conditions":[3.4474623E-1,1.155806E-1,5.8735377E-1,5.2657012E-2,1.944814E-1,4.617137E-1,8.004167E-1,2.1706661E-2,8.2873136E-2,1.5588759E-1,2.5315654E-1,4.0959635E-1,2.5264893E-2,3.534429E-2,2.4845433E-1,-1.3934438E-2,-1.1695096E-2,-9.330039E-3,-7.377337E-3,1.4142904E-1,1.7365958E-1,2.1727371E-1,2.9958832E-1,1.2894327E-2,1.7522456E-2,1.5046634E-2,5.3136516E-2,-4.6029314E-3,-3.3574698E-3,-2.3046383E-3,-7.821102E-4,9.4167155E-4,2.6129284E-3,5.070323E-3,8.755369E-3],"split_indices":[1,1,1,1,1,1,1,1,1,1,1,1,0,0,0,0,0,0,0,1,1,1,1,0,0,0,0,0,0,0,0,0,0,0,0],"split_type":[0,0,0,0,0,0,0,0,0,0,0,0,0,0,0,0,0,0,0,0,0,0,0,0,0,0,0,0,0,0,0,0,0,0,0],"sum_hessian":[9.61E2,7.97E2,1.64E2,4.43E2,3.54E2,9.3E1,7.1E1,2.05E2,2.38E2,2.35E2,1.19E2,4.9E1,4.4E1,5.2E1,1.9E1,1.01E2,1.04E2,1.04E2,1.34E2,1.49E2,8.6E1,8.2E1,3.7E1,2.6E1,2.3E1,1E0,1.8E1,1.08E2,4.1E1,5.3E1,3.3E1,3.4E1,4.8E1,1.5E1,2.2E1],"tree_param":{"num_deleted":"0","num_feature":"2","num_nodes":"35","size_leaf_vector":"1"}},{"base_weights":[-1.6321446E-3,-6.370095E-2,3.170245E-1,-1.0738234E-1,-2.2794248E-3,2.3112492E-1,4.38236E-1,-1.3429067E-1,-8.326233E-2,-2.9632656E-2,5.1963083E-2,1.7021816E-2,2.7502982E-2,3.8312253E-2,5.403295E-2,-1.4244102E-2,-1.1544563E-2,-8.976555E-3,-6.584787E-3,-3.8794164E-2,-9.752886E-3,2.9763628E-2,1.00585766E-1,-4.4200597E-3,-2.891315E-3,-1.7481484E-3,1.03272454E-4,2.3987582E-3,4.5603584E-3,1.0215951E-2,2.3539222E-3],"categories":[],"categories_nodes":[],"categories_segments":[],"categories_sizes":[],"default_left":[0,0,0,0,0,0,0,0,0,0,0,0,0,0,0,0,0,0,0,0,0,0,0,0,0,0,0,0,0,0,0],"id":11,"left_children":[1,3,5,7,9,11,13,15,17,19,21,-1,-1,-1,-1,-1,-1,-1,-1,23,25,27,29,-1,-1,-1,-1,-1,-1,-1,-1],"loss_changes":[1.9047243E1,2.162235E0,1.5333996E0,2.9451132E-1,5.000657E-1,2.0455074E-1,1.530981E-1,1.7499924E-2,2.251482E-2,4.0418476E-2,1.1897811E-1,0E0,0E0,0E0,0E0,0E0,0E0,0E0,0E0,6.895438E-3,6.0198028E-3,6.1339736E-3,1.8390417E-3,0E0,0E0,0E0,0E0,0E0,0E0,0E0,0E0],"parents":[2147483647,0,0,1,1,2,2,3,3,4,4,5,5,6,6,7,7,8,8,9,9,10,10,19,19,20,20,21,21,22,22],"right_children":[2,4,6,8,10,12,14,16,18,20,22,-1,-1,-1,-1,-1,-1,-1,-1,24,26,28,30,-1,-1,-1,-1,-1,-1,-1,-1],"split_conditions":[3.6630854E-1,1.2602916E-1,6.017496E-1,5.7332195E-2,2.0703223E-1,4.617137E-1,8.004167E-1,3.8631458E-2,9.900095E-2,1.6696998E-1,2.6718208E-1,1.7021816E-2,2.7502982E-2,3.8312253E-2,5.403295E-2,-1.4244102E-2,-1.1544563E-2,-8.976555E-3,-6.584787E-3,1.4703298E-1,1.8432778E-1,2.4418269E-1,6.85209E-1,-4.4200597E-3,-2.891315E-3,-1.7481484E-3,1.03272454E-4,2.3987582E-3,4.5603584E-3,1.0215951E-2,2.3539222E-3],"split_indices":[1,1,1,1,1,1,1,1,1,1,1,0,0,0,0,0,0,0,0,1,1,1,0,0,0,0,0,0,0,0,0],"split_type":[0,0,0,0,0,0,0,0,0,0,0,0,0,0,0,0,0,0,0,0,0,0,0,0,0,0,0,0,0,0,0],"sum_hessian":[9.61E2,8.05E2,1.56E2,4.7E2,3.35E2,9.3E1,6.3E1,2.2E2,2.5E2,2.23E2,1.12E2,4.1E1,5.2E1,4.4E1,1.9E1,1.49E2,7.1E1,1.79E2,7.1E1,1.52E2,7.1E1,7.8E1,3.4E1,9.6E1,5.6E1,4.1E1,3E1,5.9E1,1.9E1,3.3E1,1E0],"tree_param":{"num_deleted":"0","num_feature":"2","num_nodes":"31","size_leaf_vector":"1"}},{"base_weights":[-1.0763805E-3,-5.925907E-2,2.8032276E-1,-9.758009E-2,-5.17721E-3,2.1546172E-1,4.2947423E-1,-1.2073471E-1,-7.440445E-2,-2.8374998E-2,4.2542804E-2,1.5595447E-1,2.6753468E-2,3.756464E-2,5.170163E-2,-1.2983604E-2,-1.0493221E-2,-8.034697E-3,-5.9752804E-3,-3.9167844E-2,-1.1870452E-2,2.7285969E-2,8.786779E-2,1.2306034E-2,1.7311478E-2,-4.2482163E-3,-2.958966E-3,-1.6741606E-3,1.1563191E-5,1.8114155E-3,3.9971406E-3,8.929266E-3,2.541066E-3],"categories":[],"categories_nodes":[],"categories_segments":[],"categories_sizes":[],"default_left":[0,0,0,0,0,0,0,0,0,0,0,0,0,0,0,0,0,0,0,0,0,0,0,0,0,0,0,0,0,0,0,0,0],"id":12,"left_children":[1,3,5,7,9,11,13,15,17,19,21,23,-1,-1,-1,-1,-1,-1,-1,25,27,29,31,-1,-1,-1,-1,-1,-1,-1,-1,-1,-1],"loss_changes":[1.5767013E1,1.6533277E0,1.5036945E0,2.4161959E-1,3.6873075E-1,3.20827E-1,3.6683083E-2,1.9743204E-2,1.5746951E-2,3.94364E-2,7.297768E-2,1.0871291E-2,0E0,0E0,0E0,0E0,0E0,0E0,0E0,3.0285716E-3,5.256679E-3,8.932874E-3,1.3382733E-4,0E0,0E0,0E0,0E0,0E0,0E0,0E0,0E0,0E0,0E0],"parents":[2147483647,0,0,1,1,2,2,3,3,4,4,5,5,6,6,7,7,8,8,9,9,10,10,11,11,19,19,20,20,21,21,22,22],"right_children":[2,4,6,8,10,12,14,16,18,20,22,24,-1,-1,-1,-1,-1,-1,-1,26,28,30,32,-1,-1,-1,-1,-1,-1,-1,-1,-1,-1],"split_conditions":[3.4474623E-1,1.2483057E-1,6.518839E-1,6.479366E-2,2.0316657E-1,4.9842486E-1,8.2408756E-1,3.4282595E-2,9.717481E-2,1.5926377E-1,2.6718208E-1,3.9821905E-1,2.6753468E-2,3.756464E-2,5.170163E-2,-1.2983604E-2,-1.0493221E-2,-8.034697E-3,-5.9752804E-3,1.4467342E-1,1.8432778E-1,2.3484488E-1,6.85209E-1,1.2306034E-2,1.7311478E-2,-4.2482163E-3,-2.958966E-3,-1.6741606E-3,1.1563191E-5,1.8114155E-3,3.9971406E-3,8.929266E-3,2.541066E-3],"split_indices":[1,1,1,1,1,1,1,1,1,1,1,1,0,0,0,0,0,0,0,1,1,1,0,0,0,0,0,0,0,0,0,0,0],"split_type":[0,0,0,0,0,0,0,0,0,0,0,0,0,0,0,0,0,0,0,0,0,0,0,0,0,0,0,0,0,0,0,0,0],"sum_hessian":[9.61E2,7.97E2,1.64E2,4.66E2,3.31E2,1.16E2,4.8E1,2.31E2,2.35E2,2.23E2,1.08E2,5.6E1,6E1,3.3E1,1.5E1,1.42E2,8.9E1,1.64E2,7.1E1,1.34E2,8.9E1,8.2E1,2.6E1,2.2E1,3.4E1,9.7E1,3.7E1,6.3E1,2.6E1,4.9E1,3.3E1,2.5E1,1E0],"tree_param":{"num_deleted":"0","num_feature":"2","num_nodes":"33","size_leaf_vector":"1"}},{"base_weights":[5.057291E-3,-5.343754E-2,3.0532336E-1,-9.2844605E-2,8.604252E-3,2.3774126E-1,4.49428E-2,-1.2043443E-1,-7.016989E-2,-1.9733867E-2,5.6487527E-2,1.7425431E-2,2.848416E-2,-1.33555485E-2,-1.0909333E-2,-7.736419E-2,-5.050356E-3,-2.8964764E-2,-1.6606104E-3,3.602969E-2,1.0338789E-1,-8.168185E-3,-6.8490603E-3,-3.4933598E-3,-2.0602886E-3,-8.148231E-4,8.492746E-4,3.0498032E-3,5.1929518E-3,1.0483294E-2,2.7128167E-3],"categories":[],"categories_nodes":[],"categories_segments":[],"categories_sizes":[],"default_left":[0,0,0,0,0,0,0,0,0,0,0,0,0,0,0,0,0,0,0,0,0,0,0,0,0,0,0,0,0,0,0],"id":13,"left_children":[1,3,5,7,9,11,-1,13,15,17,19,-1,-1,-1,-1,21,-1,23,25,27,29,-1,-1,-1,-1,-1,-1,-1,-1,-1,-1],"loss_changes":[1.6912895E1,1.9713757E0,1.4221573E0,2.9996634E-1,4.2718822E-1,2.763033E-1,0E0,1.8316269E-2,3.4718394E-2,3.298471E-2,1.0853413E-1,0E0,0E0,0E0,0E0,1.9915104E-3,0E0,5.8185607E-3,4.5484374E-3,5.7163015E-3,1.0130405E-3,0E0,0E0,0E0,0E0,0E0,0E0,0E0,0E0,0E0,0E0],"parents":[2147483647,0,0,1,1,2,2,3,3,4,4,5,5,7,7,8,8,9,9,10,10,15,15,17,17,18,18,19,19,20,20],"right_children":[2,4,6,8,10,12,-1,14,16,18,20,-1,-1,-1,-1,22,-1,24,26,28,30,-1,-1,-1,-1,-1,-1,-1,-1,-1,-1],"split_conditions":[3.6630854E-1,1.3155153E-1,6.518839E-1,5.7332195E-2,2.0316657E-1,4.9842486E-1,4.49428E-2,1.9761283E-2,1.027411E-1,1.6696998E-1,2.6718208E-1,1.7425431E-2,2.848416E-2,-1.33555485E-2,-1.0909333E-2,8.953763E-2,-5.050356E-3,1.4703298E-1,1.8432778E-1,2.4418269E-1,6.85209E-1,-8.168185E-3,-6.8490603E-3,-3.4933598E-3,-2.0602886E-3,-8.148231E-4,8.492746E-4,3.0498032E-3,5.1929518E-3,1.0483294E-2,2.7128167E-3],"split_indices":[1,1,1,1,1,1,0,1,1,1,1,0,0,0,0,1,0,1,1,1,0,0,0,0,0,0,0,0,0,0,0],"split_type":[0,0,0,0,0,0,0,0,0,0,0,0,0,0,0,0,0,0,0,0,0,0,0,0,0,0,0,0,0,0,0],"sum_hessian":[9.61E2,8.05E2,1.56E2,4.92E2,3.13E2,1.08E2,4.8E1,2.2E2,2.72E2,1.97E2,1.16E2,4.8E1,6E1,9.7E1,1.23E2,1.97E2,7.5E1,1.3E2,6.7E1,8.2E1,3.4E1,1.27E2,7E1,7.4E1,5.6E1,4.1E1,2.6E1,6.3E1,1.9E1,3.3E1,1E0],"tree_param":{"num_deleted":"0","num_feature":"2","num_nodes":"31","size_leaf_vector":"1"}},{"base_weights":[-1.3373459E-3,-5.696193E-2,2.6000738E-1,-9.453537E-2,-1.0938036E-2,1.8950723E-1,3.8172063E-1,-1.1410489E-1,-7.341952E-2,-3.0903026E-2,3.097947E-2,1.3866872E-1,2.4060702E-2,3.417928E-2,5.1627647E-2,-1.2168058E-2,-9.856399E-3,-7.947422E-3,-6.490906E-3,-3.915267E-2,-1.566053E-2,1.5120107E-2,5.8562156E-2,1.1488363E-2,1.6084163E-2,-4.8049046E-3,-3.5594048E-3,-2.2546414E-3,-9.0329716E-4,8.5019425E-4,2.0400977E-3,4.092431E-3,7.1353237E-3],"categories":[],"categories_nodes":[],"categories_segments":[],"categories_sizes":[],"default_left":[0,0,0,0,0,0,0,0,0,0,0,0,0,0,0,0,0,0,0,0,0,0,0,0,0,0,0,0,0,0,0,0,0],"id":14,"left_children":[1,3,5,7,9,11,13,15,17,19,21,23,-1,-1,-1,-1,-1,-1,-1,25,27,29,31,-1,-1,-1,-1,-1,-1,-1,-1,-1,-1],"loss_changes":[1.399959E1,1.3720112E0,1.3778172E0,1.7220259E-1,3.005613E-1,2.4979973E-1,1.5126419E-1,1.4496803E-2,5.8169365E-3,2.994293E-2,4.985802E-2,1.1582851E-2,0E0,0E0,0E0,0E0,0E0,0E0,0E0,3.2601804E-3,3.7667248E-3,2.4477784E-3,6.555423E-3,0E0,0E0,0E0,0E0,0E0,0E0,0E0,0E0,0E0,0E0],"parents":[2147483647,0,0,1,1,2,2,3,3,4,4,5,5,6,6,7,7,8,8,9,9,10,10,11,11,19,19,20,20,21,21,22,22],"right_children":[2,4,6,8,10,12,14,16,18,20,22,24,-1,-1,-1,-1,-1,-1,-1,26,28,30,32,-1,-1,-1,-1,-1,-1,-1,-1,-1,-1],"split_conditions":[3.4231135E-1,1.1313319E-1,6.1016494E-1,6.0011797E-2,1.944814E-1,4.8891133E-1,8.545798E-1,3.636603E-2,8.900422E-2,1.5588759E-1,2.4418269E-1,4.0959635E-1,2.4060702E-2,3.417928E-2,5.1627647E-2,-1.2168058E-2,-9.856399E-3,-7.947422E-3,-6.490906E-3,1.2794945E-1,1.710992E-1,2.1727371E-1,2.6718208E-1,1.1488363E-2,1.6084163E-2,-4.8049046E-3,-3.5594048E-3,-2.2546414E-3,-9.0329716E-4,8.5019425E-4,2.0400977E-3,4.092431E-3,7.1353237E-3],"split_indices":[1,1,1,1,1,1,1,1,1,1,1,1,0,0,0,0,0,0,0,1,1,1,1,0,0,0,0,0,0,0,0,0,0],"split_type":[0,0,0,0,0,0,0,0,0,0,0,0,0,0,0,0,0,0,0,0,0,0,0,0,0,0,0,0,0,0,0,0,0],"sum_hessian":[9.61E2,7.93E2,1.68E2,4.36E2,3.57E2,1.08E2,6E1,2.24E2,2.12E2,2.42E2,1.15E2,5.6E1,5.2E1,4.9E1,1.1E1,1.46E2,7.8E1,1.19E2,9.3E1,1.56E2,8.6E1,7.4E1,4.1E1,3E1,2.6E1,4.1E1,1.15E2,4.1E1,4.5E1,3.4E1,4E1,1.9E1,2.2E1],"tree_param":{"num_deleted":"0","num_feature":"2","num_nodes":"33","size_leaf_vector":"1"}},{"base_weights":[-1.3586469E-3,-5.9917454E-2,2.7377185E-1,-9.949638E-2,-9.681102E-3,1.8960656E-1,3.8452774E-1,-1.2097829E-1,-7.785799E-2,-3.158069E-2,3.4956694E-2,1.4419031E-1,2.3989258E-2,3.3784967E-2,4.8899826E-2,-1.3142766E-2,-1.0818252E-2,-8.614371E-3,-7.035393E-3,-4.0167883E-2,-1.6412193E-2,2.1101816E-2,7.3970616E-2,1.1077049E-2,1.5916763E-2,-4.3566874E-3,-3.0390301E-3,-2.0072E-3,-5.3556886E-4,1.1533322E-3,2.7022485E-3,4.6638246E-3,8.026141E-3],"categories":[],"categories_nodes":[],"categories_segments":[],"categories_sizes":[],"default_left":[0,0,0,0,0,0,0,0,0,0,0,0,0,0,0,0,0,0,0,0,0,0,0,0,0,0,0,0,0,0,0,0,0],"id":15,"left_children":[1,3,5,7,9,11,13,15,17,19,21,23,-1,-1,-1,-1,-1,-1,-1,25,27,29,31,-1,-1,-1,-1,-1,-1,-1,-1,-1,-1],"loss_changes":[1.5515487E1,1.5777476E0,1.5024767E0,1.9696712E-1,3.4422377E-1,1.892221E-1,1.8589878E-1,1.5331268E-2,7.866979E-3,3.008093E-2,6.1140925E-2,9.398103E-3,0E0,0E0,0E0,0E0,0E0,0E0,0E0,3.6610663E-3,3.4129284E-3,4.6170577E-3,1.4150292E-3,0E0,0E0,0E0,0E0,0E0,0E0,0E0,0E0,0E0,0E0],"parents":[2147483647,0,0,1,1,2,2,3,3,4,4,5,5,6,6,7,7,8,8,9,9,10,10,11,11,19,19,20,20,21,21,22,22],"right_children":[2,4,6,8,10,12,14,16,18,20,22,24,-1,-1,-1,-1,-1,-1,-1,26,28,30,32,-1,-1,-1,-1,-1,-1,-1,-1,-1,-1],"split_conditions":[3.4231135E-1,1.155806E-1,5.8735377E-1,5.7332195E-2,1.944814E-1,4.617137E-1,8.004167E-1,2.9055173E-2,8.557784E-2,1.5588759E-1,2.5709748E-1,3.82154E-1,2.3989258E-2,3.3784967E-2,4.8899826E-2,-1.3142766E-2,-1.0818252E-2,-8.614371E-3,-7.035393E-3,1.4142904E-1,1.8122773E-1,2.1727371E-1,2.6718208E-1,1.1077049E-2,1.5916763E-2,-4.3566874E-3,-3.0390301E-3,-2.0072E-3,-5.3556886E-4,1.1533322E-3,2.7022485E-3,4.6638246E-3,8.026141E-3],"split_indices":[1,1,1,1,1,1,1,1,1,1,1,1,0,0,0,0,0,0,0,1,1,1,1,0,0,0,0,0,0,0,0,0,0],"split_type":[0,0,0,0,0,0,0,0,0,0,0,0,0,0,0,0,0,0,0,0,0,0,0,0,0,0,0,0,0,0,0,0,0],"sum_hessian":[9.61E2,7.93E2,1.68E2,4.43E2,3.5E2,9.7E1,7.1E1,2.2E2,2.23E2,2.35E2,1.15E2,5.3E1,4.4E1,5.2E1,1.9E1,1.16E2,1.04E2,1.01E2,1.22E2,1.49E2,8.6E1,8.6E1,2.9E1,1.9E1,3.4E1,1.08E2,4.1E1,6.4E1,2.2E1,3.4E1,5.2E1,7E0,2.2E1],"tree_param":{"num_deleted":"0","num_feature":"2","num_nodes":"33","size_leaf_vector":"1"}},{"base_weights":[-8.47579E-4,-5.5475596E-2,2.4343137E-1,-9.0623885E-2,-1.15574235E-2,1.5941973E-1,3.4456694E-1,-1.11784704E-1,-7.262544E-2,-3.0200485E-2,2.7975755E-2,1.1561923E-2,1.9442735E-2,2.8634472E-2,4.254806E-2,-1.2086989E-2,-1.0195987E-2,-8.407136E-3,-6.611184E-3,-3.8886588E-2,-1.5388086E-2,1.707239E-2,5.6266185E-2,-4.5005903E-3,-3.4306978E-3,-2.2382857E-3,-1.0082627E-3,6.84106E-4,2.403207E-3,4.1746665E-3,6.726907E-3],"categories":[],"categories_nodes":[],"categories_segments":[],"categories_sizes":[],"default_left":[0,0,0,0,0,0,0,0,0,0,0,0,0,0,0,0,0,0,0,0,0,0,0,0,0,0,0,0,0,0,0],"id":16,"left_children":[1,3,5,7,9,11,13,15,17,19,21,-1,-1,-1,-1,-1,-1,-1,-1,23,25,27,29,-1,-1,-1,-1,-1,-1,-1,-1],"loss_changes":[1.2850888E1,1.2138042E0,1.440465E0,1.5831828E-1,2.595387E-1,1.2778902E-1,2.5033283E-1,5.439043E-3,1.2260437E-2,3.015183E-2,3.389547E-2,0E0,0E0,0E0,0E0,0E0,0E0,0E0,0E0,2.659589E-3,3.1142645E-3,5.7457555E-3,2.1441951E-3,0E0,0E0,0E0,0E0,0E0,0E0,0E0,0E0],"parents":[2147483647,0,0,1,1,2,2,3,3,4,4,5,5,6,6,7,7,8,8,9,9,10,10,19,19,20,20,21,21,22,22],"right_children":[2,4,6,8,10,12,14,16,18,20,22,-1,-1,-1,-1,-1,-1,-1,-1,24,26,28,30,-1,-1,-1,-1,-1,-1,-1,-1],"split_conditions":[3.2238063E-1,1.1313319E-1,5.716778E-1,5.090617E-2,1.909609E-1,4.208419E-1,7.175561E-1,1.9761283E-2,7.7608064E-2,1.5202822E-1,2.4731413E-1,1.1561923E-2,1.9442735E-2,2.8634472E-2,4.254806E-2,-1.2086989E-2,-1.0195987E-2,-8.407136E-3,-6.611184E-3,1.3246775E-1,1.6696998E-1,2.1562955E-1,2.6718208E-1,-4.5005903E-3,-3.4306978E-3,-2.2382857E-3,-1.0082627E-3,6.84106E-4,2.403207E-3,4.1746665E-3,6.726907E-3],"split_indices":[1,1,1,1,1,1,1,1,1,1,1,0,0,0,0,0,0,0,0,1,1,1,1,0,0,0,0,0,0,0,0],"split_type":[0,0,0,0,0,0,0,0,0,0,0,0,0,0,0,0,0,0,0,0,0,0,0,0,0,0,0,0,0,0,0],"sum_hessian":[9.61E2,7.86E2,1.75E2,4.36E2,3.5E2,9.7E1,7.8E1,1.98E2,2.38E2,2.38E2,1.12E2,4.5E1,5.2E1,4.8E1,3E1,9.7E1,1.01E2,8.2E1,1.56E2,1.49E2,8.9E1,8.2E1,3E1,6E1,8.9E1,3.7E1,5.2E1,3.4E1,4.8E1,1.5E1,1.5E1],"tree_param":{"num_deleted":"0","num_feature":"2","num_nodes":"31","size_leaf_vector":"1"}},{"base_weights":[4.6164705E-3,-5.1902313E-2,2.5731912E-1,-8.8270254E-2,-4.8114187E-3,1.6663481E-1,3.5692158E-1,-1.10762455E-1,-6.971652E-2,-2.4795331E-2,3.6260076E-2,1.2339082E-2,2.038305E-2,3.0599982E-2,4.512038E-2,-1.2107974E-2,-1.0113277E-1,-7.874372E-3,-6.2550516E-3,-3.555646E-2,-1.232583E-2,2.4590746E-2,6.1563417E-2,-3.815742E-3,-1.0195327E-2,-4.0518856E-3,-3.0873918E-3,-1.7824462E-3,-4.109454E-4,1.2646961E-3,2.816216E-3,4.6996213E-3,7.592471E-3],"categories":[],"categories_nodes":[],"categories_segments":[],"categories_sizes":[],"default_left":[0,0,0,0,0,0,0,0,0,0,0,0,0,0,0,0,0,0,0,0,0,0,0,0,0,0,0,0,0,0,0,0,0],"id":17,"left_children":[1,3,5,7,9,11,13,15,17,19,21,-1,-1,-1,-1,-1,23,-1,-1,25,27,29,31,-1,-1,-1,-1,-1,-1,-1,-1,-1,-1],"loss_changes":[1.3753068E1,1.3473904E0,1.5302238E0,1.7756557E-1,2.832437E-1,1.2604737E-1,2.6041603E-1,7.525921E-3,1.0988116E-2,3.069286E-2,3.1851947E-2,0E0,0E0,0E0,0E0,0E0,1.7418861E-3,0E0,0E0,1.6303658E-3,4.8512444E-3,3.013678E-3,3.753975E-3,0E0,0E0,0E0,0E0,0E0,0E0,0E0,0E0,0E0,0E0],"parents":[2147483647,0,0,1,1,2,2,3,3,4,4,5,5,6,6,7,7,8,8,9,9,10,10,16,16,19,19,20,20,21,21,22,22],"right_children":[2,4,6,8,10,12,14,16,18,20,22,-1,-1,-1,-1,-1,24,-1,-1,26,28,30,32,-1,-1,-1,-1,-1,-1,-1,-1,-1,-1],"split_conditions":[3.2238063E-1,1.155806E-1,5.597169E-1,5.090617E-2,1.909609E-1,4.208419E-1,7.345813E-1,1.70001E-2,8.117878E-2,1.4703298E-1,2.4418269E-1,1.2339082E-2,2.038305E-2,3.0599982E-2,4.512038E-2,-1.2107974E-2,2.662511E-1,-7.874372E-3,-6.2550516E-3,1.3303253E-1,1.7030223E-1,2.0703223E-1,2.6718208E-1,-3.815742E-3,-1.0195327E-2,-4.0518856E-3,-3.0873918E-3,-1.7824462E-3,-4.109454E-4,1.2646961E-3,2.816216E-3,4.6996213E-3,7.592471E-3],"split_indices":[1,1,1,1,1,1,1,1,1,1,1,0,0,0,0,0,0,0,0,1,1,1,1,0,0,0,0,0,0,0,0,0,0],"split_type":[0,0,0,0,0,0,0,0,0,0,0,0,0,0,0,0,0,0,0,0,0,0,0,0,0,0,0,0,0,0,0,0,0],"sum_hessian":[9.61E2,7.86E2,1.75E2,4.43E2,3.43E2,9.3E1,8.2E1,1.98E2,2.45E2,2.31E2,1.12E2,4.5E1,4.8E1,5.6E1,2.6E1,9E1,1.08E2,1.04E2,1.41E2,1.23E2,1.08E2,7.8E1,3.4E1,2E0,1.06E2,5.6E1,6.7E1,6.4E1,4.4E1,1.9E1,5.9E1,1.9E1,1.5E1],"tree_param":{"num_deleted":"0","num_feature":"2","num_nodes":"33","size_leaf_vector":"1"}},{"base_weights":[-1.0959454E-3,-5.0588522E-2,2.382748E-1,-8.516527E-2,-8.708331E-3,1.8293686E-1,3.6554545E-1,-1.04423515E-1,-6.7698196E-2,-2.7860139E-2,3.014665E-2,1.312584E-1,2.2822762E-2,3.232714E-2,4.6895113E-2,-1.1349779E-2,-9.4614E-3,-7.914857E-3,-6.215704E-3,-3.5290673E-2,-1.413078E-2,1.5773876E-2,6.0746484E-2,1.0546363E-2,1.4949067E-1,-4.143703E-3,-3.1061622E-3,-4.9482957E-3,-1.2716812E-3,1.0188601E-3,2.4814059E-3,4.135243E-3,7.159685E-3,1.5161434E-2,4.289037E-3],"categories":[],"categories_nodes":[],"categories_segments":[],"categories_sizes":[],"default_left":[0,0,0,0,0,0,0,0,0,0,0,0,0,0,0,0,0,0,0,0,0,0,0,0,0,0,0,0,0,0,0,0,0,0,0],"id":18,"left_children":[1,3,5,7,9,11,13,15,17,19,21,23,-1,-1,-1,-1,-1,-1,-1,25,27,29,31,-1,33,-1,-1,-1,-1,-1,-1,-1,-1,-1,-1],"loss_changes":[1.1408939E1,1.1548271E0,1.0952053E0,1.3993096E-1,2.7021968E-1,2.4388814E-1,6.259918E-2,7.5984E-3,9.800434E-3,2.4291322E-2,5.181832E-2,1.1041105E-2,0E0,0E0,0E0,0E0,0E0,0E0,0E0,2.7938485E-3,3.7195906E-3,3.9380044E-3,5.035743E-3,0E0,5.1510334E-4,0E0,0E0,0E0,0E0,0E0,0E0,0E0,0E0,0E0,0E0],"parents":[2147483647,0,0,1,1,2,2,3,3,4,4,5,5,6,6,7,7,8,8,9,9,10,10,11,11,19,19,20,20,21,21,22,22,24,24],"right_children":[2,4,6,8,10,12,14,16,18,20,22,24,-1,-1,-1,-1,-1,-1,-1,26,28,30,32,-1,34,-1,-1,-1,-1,-1,-1,-1,-1,-1,-1],"split_conditions":[3.4474623E-1,1.1313319E-1,6.518839E-1,5.2657012E-2,1.944814E-1,4.9842486E-1,8.545798E-1,2.1706661E-2,7.712486E-2,1.5588759E-1,2.5315654E-1,4.0959635E-1,2.2822762E-2,3.232714E-2,4.6895113E-2,-1.1349779E-2,-9.4614E-3,-7.914857E-3,-6.215704E-3,1.3246775E-1,1.7417204E-1,2.3014459E-1,2.9958832E-1,1.0546363E-2,7.2398347E-1,-4.143703E-3,-3.1061622E-3,-4.9482957E-3,-1.2716812E-3,1.0188601E-3,2.4814059E-3,4.135243E-3,7.159685E-3,1.5161434E-2,4.289037E-3],"split_indices":[1,1,1,1,1,1,1,1,1,1,1,1,0,0,0,0,0,0,0,1,0,1,1,0,0,0,0,0,0,0,0,0,0,0,0],"split_type":[0,0,0,0,0,0,0,0,0,0,0,0,0,0,0,0,0,0,0,0,0,0,0,0,0,0,0,0,0,0,0,0,0,0,0],"sum_hessian":[9.61E2,7.97E2,1.64E2,4.36E2,3.61E2,1.16E2,4.8E1,2.05E2,2.31E2,2.42E2,1.19E2,5.6E1,6E1,3.7E1,1.1E1,1.01E2,1.04E2,7.1E1,1.6E2,1.56E2,8.6E1,8.2E1,3.7E1,2.6E1,3E1,6E1,9.6E1,2E0,8.4E1,5.2E1,3E1,1.5E1,2.2E1,2.9E1,1E0],"tree_param":{"num_deleted":"0","num_feature":"2","num_nodes":"35","size_leaf_vector":"1"}},{"base_weights":[-1.1181416E-3,-5.5293433E-2,2.4113795E-1,-9.0268E-2,-1.1592068E-2,1.488978E-1,3.276241E-1,-1.1041719E-1,-7.198782E-2,-2.9090228E-2,2.752394E-2,1.137925E-2,1.8380126E-2,2.6867632E-2,4.0121913E-2,-1.2000258E-2,-1.0005407E-2,-7.976809E-3,-6.456818E-3,-3.879851E-2,-1.7578054E-2,1.7922802E-2,5.6019146E-3,-4.3654493E-3,-3.3657614E-3,-2.1776785E-3,-7.1816915E-4,5.9327687E-4,2.1389646E-3],"categories":[],"categories_nodes":[],"categories_segments":[],"categories_sizes":[],"default_left":[0,0,0,0,0,0,0,0,0,0,0,0,0,0,0,0,0,0,0,0,0,0,0,0,0,0,0,0,0],"id":19,"left_children":[1,3,5,7,9,11,13,15,17,19,21,-1,-1,-1,-1,-1,-1,-1,-1,23,25,27,-1,-1,-1,-1,-1,-1,-1],"loss_changes":[1.2638905E1,1.201833E0,1.3552561E0,1.530118E-1,2.410455E-1,8.568549E-2,2.8264618E-1,8.45623E-3,8.24213E-3,2.6476502E-2,2.8816901E-2,0E0,0E0,0E0,0E0,0E0,0E0,0E0,0E0,1.800999E-3,4.776228E-3,3.3232085E-3,0E0,0E0,0E0,0E0,0E0,0E0,0E0],"parents":[2147483647,0,0,1,1,2,2,3,3,4,4,5,5,6,6,7,7,8,8,9,9,10,10,19,19,20,20,21,21],"right_children":[2,4,6,8,10,12,14,16,18,20,22,-1,-1,-1,-1,-1,-1,-1,-1,24,26,28,-1,-1,-1,-1,-1,-1,-1],"split_conditions":[3.2238063E-1,1.1313319E-1,5.392841E-1,5.2657012E-2,1.944814E-1,4.208419E-1,6.911366E-1,2.1706661E-2,8.402781E-2,1.4703298E-1,2.5315654E-1,1.137925E-2,1.8380126E-2,2.6867632E-2,4.0121913E-2,-1.2000258E-2,-1.0005407E-2,-7.976809E-3,-6.456818E-3,1.3303253E-1,1.7365958E-1,2.0918469E-1,5.6019146E-3,-4.3654493E-3,-3.3657614E-3,-2.1776785E-3,-7.1816915E-4,5.9327687E-4,2.1389646E-3],"split_indices":[1,1,1,1,1,1,1,1,1,1,1,0,0,0,0,0,0,0,0,1,1,1,0,0,0,0,0,0,0],"split_type":[0,0,0,0,0,0,0,0,0,0,0,0,0,0,0,0,0,0,0,0,0,0,0,0,0,0,0,0,0],"sum_hessian":[9.61E2,7.86E2,1.75E2,4.36E2,3.5E2,8.6E1,8.9E1,2.05E2,2.31E2,2.42E2,1.08E2,4.5E1,4.1E1,5.2E1,3.7E1,1.01E2,1.04E2,1.08E2,1.23E2,1.3E2,1.12E2,8.2E1,2.6E1,6.3E1,6.7E1,7.9E1,3.3E1,1.9E1,6.3E1],"tree_param":{"num_deleted":"0","num_feature":"2","num_nodes":"29","size_leaf_vector":"1"}},{"base_weights":[-6.924512E-4,-4.671356E-2,2.355732E-1,-7.833702E-2,-6.262497E-4,1.8117225E-1,3.5177997E-1,-9.776357E-2,-5.9147708E-2,-2.0657837E-2,4.1710563E-2,1.4023525E-1,2.2667322E-2,3.0525595E-2,4.286572E-2,-1.0508335E-2,-8.4019555E-3,-6.468618E-3,-4.683131E-3,-2.9177628E-2,-4.650912E-3,2.5932305E-2,7.904724E-3,1.0833021E-2,1.5132955E-2,-3.3525247E-3,-2.1801079E-3,-1.0245141E-3,3.054543E-4,1.7847399E-3,3.649132E-3],"categories":[],"categories_nodes":[],"categories_segments":[],"categories_sizes":[],"default_left":[0,0,0,0,0,0,0,0,0,0,0,0,0,0,0,0,0,0,0,0,0,0,0,0,0,0,0,0,0,0,0],"id":20,"left_children":[1,3,5,7,9,11,13,15,17,19,21,23,-1,-1,-1,-1,-1,-1,-1,25,27,29,-1,-1,-1,-1,-1,-1,-1,-1,-1],"loss_changes":[1.0471031E1,1.1746478E0,9.2878246E-1,1.7240739E-1,2.7987784E-1,1.712439E-1,4.4404507E-2,1.4913082E-2,1.3546705E-2,3.0412436E-2,6.039557E-2,4.8441887E-3,0E0,0E0,0E0,0E0,0E0,0E0,0E0,3.951393E-3,3.4366746E-3,5.83674E-3,0E0,0E0,0E0,0E0,0E0,0E0,0E0,0E0,0E0],"parents":[2147483647,0,0,1,1,2,2,3,3,4,4,5,5,6,6,7,7,8,8,9,9,10,10,11,11,19,19,20,20,21,21],"right_children":[2,4,6,8,10,12,14,16,18,20,22,24,-1,-1,-1,-1,-1,-1,-1,26,28,30,-1,-1,-1,-1,-1,-1,-1,-1,-1],"split_conditions":[3.6630854E-1,1.2794945E-1,6.518839E-1,6.5640844E-2,2.1113636E-1,5.128834E-1,8.2408756E-1,3.8631458E-2,9.900095E-2,1.6696998E-1,2.9958832E-1,4.0959635E-1,2.2667322E-2,3.0525595E-2,4.286572E-2,-1.0508335E-2,-8.4019555E-3,-6.468618E-3,-4.683131E-3,1.4703298E-1,1.876914E-1,2.3958908E-1,7.904724E-3,1.0833021E-2,1.5132955E-2,-3.3525247E-3,-2.1801079E-3,-1.0245141E-3,3.054543E-4,1.7847399E-3,3.649132E-3],"split_indices":[1,1,1,1,1,1,1,1,1,1,1,1,0,0,0,0,0,0,0,1,1,1,0,0,0,0,0,0,0,0,0],"split_type":[0,0,0,0,0,0,0,0,0,0,0,0,0,0,0,0,0,0,0,0,0,0,0,0,0,0,0,0,0,0,0],"sum_hessian":[9.61E2,8.05E2,1.56E2,4.77E2,3.28E2,1.08E2,4.8E1,2.35E2,2.42E2,2.23E2,1.05E2,5.9E1,4.9E1,3.3E1,1.5E1,1.49E2,8.6E1,1.64E2,7.8E1,1.45E2,7.8E1,7.5E1,3E1,1.8E1,4.1E1,8.9E1,5.6E1,4.5E1,3.3E1,4.4E1,3.1E1],"tree_param":{"num_deleted":"0","num_feature":"2","num_nodes":"31","size_leaf_vector":"1"}},{"base_weights":[4.233028E-3,-4.3393224E-2,2.4870773E-1,-7.537929E-2,6.9651245E-3,1.9292408E-1,3.6772218E-1,-9.718666E-2,-5.6249976E-2,-1.602873E-2,4.581827E-2,1.4148566E-2,2.3108078E-2,3.144872E-2,4.2918865E-2,-1.0536808E-2,-8.36218E-3,-6.1514143E-2,-3.8756046E-3,-2.3553163E-2,-1.2974134E-3,2.9387377E-2,8.347386E-2,-6.5250257E-3,-5.4461504E-3,-2.835058E-3,-1.6827561E-3,-6.690407E-4,7.13974E-4,2.1831447E-3,3.7760679E-3,8.46363E-3,2.1975525E-3],"categories":[],"categories_nodes":[],"categories_segments":[],"categories_sizes":[],"default_left":[0,0,0,0,0,0,0,0,0,0,0,0,0,0,0,0,0,0,0,0,0,0,0,0,0,0,0,0,0,0,0,0,0],"id":21,"left_children":[1,3,5,7,9,11,13,15,17,19,21,-1,-1,-1,-1,-1,-1,23,-1,25,27,29,31,-1,-1,-1,-1,-1,-1,-1,-1,-1,-1],"loss_changes":[1.1211756E1,1.2988018E0,9.713907E-1,2.0019317E-1,2.8125685E-1,1.8124199E-1,2.5362015E-2,1.6603231E-2,2.2020042E-2,2.1916714E-2,6.99366E-2,0E0,0E0,0E0,0E0,0E0,0E0,1.7690063E-3,0E0,3.7497133E-3,3.141871E-3,4.426889E-3,6.4215064E-4,0E0,0E0,0E0,0E0,0E0,0E0,0E0,0E0,0E0,0E0],"parents":[2147483647,0,0,1,1,2,2,3,3,4,4,5,5,6,6,7,7,8,8,9,9,10,10,17,17,19,19,20,20,21,21,22,22],"right_children":[2,4,6,8,10,12,14,16,18,20,22,-1,-1,-1,-1,-1,-1,24,-1,26,28,30,32,-1,-1,-1,-1,-1,-1,-1,-1,-1,-1],"split_conditions":[3.6630854E-1,1.3155153E-1,6.518839E-1,6.1737537E-2,2.0316657E-1,4.9842486E-1,8.004167E-1,3.327225E-2,1.0928636E-1,1.6696998E-1,2.6718208E-1,1.4148566E-2,2.3108078E-2,3.144872E-2,4.2918865E-2,-1.0536808E-2,-8.36218E-3,9.035971E-2,-3.8756046E-3,1.4703298E-1,1.8432778E-1,2.313934E-1,6.85209E-1,-6.5250257E-3,-5.4461504E-3,-2.835058E-3,-1.6827561E-3,-6.690407E-4,7.13974E-4,2.1831447E-3,3.7760679E-3,8.46363E-3,2.1975525E-3],"split_indices":[1,1,1,1,1,1,1,1,1,1,1,0,0,0,0,0,0,1,0,1,1,1,0,0,0,0,0,0,0,0,0,0,0],"split_type":[0,0,0,0,0,0,0,0,0,0,0,0,0,0,0,0,0,0,0,0,0,0,0,0,0,0,0,0,0,0,0,0,0],"sum_hessian":[9.61E2,8.05E2,1.56E2,4.92E2,3.13E2,1.08E2,4.8E1,2.28E2,2.64E2,1.97E2,1.16E2,4.8E1,6E1,2.9E1,1.9E1,1.38E2,9E1,2.01E2,6.3E1,1.3E2,6.7E1,8.2E1,3.4E1,1.26E2,7.5E1,7.4E1,5.6E1,4.1E1,2.6E1,4.5E1,3.7E1,3.3E1,1E0],"tree_param":{"num_deleted":"0","num_feature":"2","num_nodes":"33","size_leaf_vector":"1"}},{"base_weights":[-8.8403665E-4,-4.6230324E-2,2.1216825E-1,-7.67287E-2,-8.8727195E-3,1.3628832E-1,2.891488E-1,-9.1891915E-2,-5.8633417E-2,-2.6731359E-2,2.2277223E-2,9.912126E-3,1.6308887E-2,2.5296539E-2,3.9047822E-1,-9.871473E-3,-7.907223E-3,-6.299909E-3,-5.161517E-3,-3.4206584E-2,-1.8256513E-2,1.0046586E-2,4.795532E-2,1.0968982E-2,3.994834E-2,-3.9313496E-3,-3.105852E-3,-2.1317082E-3,-9.86808E-4,2.2301407E-4,1.4752462E-3,3.3769568E-3,5.8205747E-3],"categories":[],"categories_nodes":[],"categories_segments":[],"categories_sizes":[],"default_left":[0,0,0,0,0,0,0,0,0,0,0,0,0,0,0,0,0,0,0,0,0,0,0,0,0,0,0,0,0,0,0,0,0],"id":22,"left_children":[1,3,5,7,9,11,13,15,17,19,21,-1,-1,-1,23,-1,-1,-1,-1,25,27,29,31,-1,-1,-1,-1,-1,-1,-1,-1,-1,-1],"loss_changes":[9.303816E0,9.039602E-1,9.4776773E-1,1.1451745E-1,1.9974932E-1,7.049477E-2,2.0553732E-1,1.2836456E-2,2.937436E-3,1.381962E-2,4.066001E-2,0E0,0E0,0E0,6.752014E-3,0E0,0E0,0E0,0E0,7.081926E-4,2.5880374E-3,3.2775905E-3,4.141636E-3,0E0,0E0,0E0,0E0,0E0,0E0,0E0,0E0,0E0,0E0],"parents":[2147483647,0,0,1,1,2,2,3,3,4,4,5,5,6,6,7,7,8,8,9,9,10,10,14,14,19,19,20,20,21,21,22,22],"right_children":[2,4,6,8,10,12,14,16,18,20,22,-1,-1,-1,24,-1,-1,-1,-1,26,28,30,32,-1,-1,-1,-1,-1,-1,-1,-1,-1,-1],"split_conditions":[3.4231135E-1,1.1313319E-1,5.597169E-1,6.5640844E-2,1.8432778E-1,4.208419E-1,8.004167E-1,3.8631458E-2,9.035971E-2,1.420754E-1,2.4418269E-1,9.912126E-3,1.6308887E-2,2.5296539E-2,2.4845433E-1,-9.871473E-3,-7.907223E-3,-6.299909E-3,-5.161517E-3,1.2794945E-1,1.710992E-1,2.0918469E-1,2.6718208E-1,1.0968982E-2,3.994834E-2,-3.9313496E-3,-3.105852E-3,-2.1317082E-3,-9.86808E-4,2.2301407E-4,1.4752462E-3,3.3769568E-3,5.8205747E-3],"split_indices":[1,1,1,1,1,1,1,1,1,1,1,0,0,0,0,0,0,0,0,1,1,1,1,0,0,0,0,0,0,0,0,0,0],"split_type":[0,0,0,0,0,0,0,0,0,0,0,0,0,0,0,0,0,0,0,0,0,0,0,0,0,0,0,0,0,0,0,0,0],"sum_hessian":[9.61E2,7.93E2,1.68E2,4.36E2,3.57E2,8.6E1,8.2E1,2.35E2,2.01E2,2.27E2,1.3E2,3.8E1,4.8E1,6.3E1,1.9E1,1.49E2,8.6E1,1.19E2,8.2E1,1.19E2,1.08E2,8.9E1,4.1E1,1E0,1.8E1,4.1E1,7.8E1,7.8E1,3E1,3.4E1,5.5E1,1.9E1,2.2E1],"tree_param":{"num_deleted":"0","num_feature":"2","num_nodes":"33","size_leaf_vector":"1"}},{"base_weights":[-9.4601815E-4,-4.6589673E-2,2.3338349E-1,-7.857403E-2,-1.6158004E-3,1.8040343E-1,3.4647417E-1,-9.6033774E-2,-5.8388643E-2,-2.1622874E-2,3.8058538E-2,1.299407E-1,2.1798162E-2,3.0882854E-2,4.3681256E-2,-1.0446621E-2,-8.269163E-3,-6.208878E-3,-4.4492404E-3,-2.8349716E-2,-7.0280163E-3,2.1890221E-2,7.3465355E-2,1.3114956E-2,3.5957664E-3,-3.3048156E-3,-2.260497E-3,-1.2560491E-3,6.943047E-5,1.7461816E-3,3.4080923E-3,7.4711493E-3,1.5548237E-3],"categories":[],"categories_nodes":[],"categories_segments":[],"categories_sizes":[],"default_left":[0,0,0,0,0,0,0,0,0,0,0,0,0,0,0,0,0,0,0,0,0,0,0,0,0,0,0,0,0,0,0,0,0],"id":23,"left_children":[1,3,5,7,9,11,13,15,17,19,21,23,-1,-1,-1,-1,-1,-1,-1,25,27,29,31,-1,-1,-1,-1,-1,-1,-1,-1,-1,-1],"loss_changes":[1.0300094E1,1.159272E0,8.781681E-1,1.60388E-1,2.6752877E-1,1.7837143E-1,3.1741142E-2,1.9600868E-2,8.600891E-3,2.1792471E-2,6.308079E-2,8.5121393E-4,0E0,0E0,0E0,0E0,0E0,0E0,0E0,3.3826232E-3,3.0848165E-3,3.6697276E-3,1.3644248E-3,0E0,0E0,0E0,0E0,0E0,0E0,0E0,0E0,0E0,0E0],"parents":[2147483647,0,0,1,1,2,2,3,3,4,4,5,5,6,6,7,7,8,8,9,9,10,10,11,11,19,19,20,20,21,21,22,22],"right_children":[2,4,6,8,10,12,14,16,18,20,22,24,-1,-1,-1,-1,-1,-1,-1,26,28,30,32,-1,-1,-1,-1,-1,-1,-1,-1,-1,-1],"split_conditions":[3.6630854E-1,1.2602916E-1,6.518839E-1,7.033486E-2,2.0703223E-1,4.9842486E-1,8.545798E-1,3.8631458E-2,1.03079975E-1,1.6696998E-1,2.6718208E-1,7.2398347E-1,2.1798162E-2,3.0882854E-2,4.3681256E-2,-1.0446621E-2,-8.269163E-3,-6.208878E-3,-4.4492404E-3,1.4142904E-1,1.8432778E-1,2.4418269E-1,6.85209E-1,1.3114956E-2,3.5957664E-3,-3.3048156E-3,-2.260497E-3,-1.2560491E-3,6.943047E-5,1.7461816E-3,3.4080923E-3,7.4711493E-3,1.5548237E-3],"split_indices":[1,1,1,1,1,1,1,1,1,1,1,0,0,0,0,0,0,0,0,1,1,1,0,0,0,0,0,0,0,0,0,0,0],"split_type":[0,0,0,0,0,0,0,0,0,0,0,0,0,0,0,0,0,0,0,0,0,0,0,0,0,0,0,0,0,0,0,0,0],"sum_hessian":[9.61E2,8.05E2,1.56E2,4.7E2,3.35E2,1.08E2,4.8E1,2.5E2,2.2E2,2.23E2,1.12E2,4.8E1,6E1,3.7E1,1.1E1,1.49E2,1.01E2,1.71E2,4.9E1,1.52E2,7.1E1,7.8E1,3.4E1,4.7E1,1E0,8.1E1,7.1E1,4.1E1,3E1,5.9E1,1.9E1,3.3E1,1E0],"tree_param":{"num_deleted":"0","num_feature":"2","num_nodes":"33","size_leaf_vector":"1"}},{"base_weights":[-5.20243E-4,-4.3332465E-2,2.0653838E-1,-7.2476424E-2,-5.24485E-3,1.5514259E-1,3.1222114E-1,-8.858397E-2,-5.5685785E-2,-2.2305876E-2,3.028246E-2,1.1083854E-1,1.9109295E-1,2.7754849E-2,4.07557E-2,-9.81557E-3,-8.0264425E-3,-6.129309E-3,-4.7850953E-3,-2.986122E-2,-9.801591E-3,1.8354332E-2,6.124221E-2,8.450386E-3,1.1901001E-2,1.5720127E-2,2.0746944E-2,-3.2713022E-3,-2.2950491E-3,-1.4718388E-3,-3.5664334E-4,1.1908514E-3,2.729364E-3,4.4008372E-3,6.981052E-3],"categories":[],"categories_nodes":[],"categories_segments":[],"categories_sizes":[],"default_left":[0,0,0,0,0,0,0,0,0,0,0,0,0,0,0,0,0,0,0,0,0,0,0,0,0,0,0,0,0,0,0,0,0,0,0],"id":24,"left_children":[1,3,5,7,9,11,13,15,17,19,21,23,25,-1,-1,-1,-1,-1,-1,27,29,31,33,-1,-1,-1,-1,-1,-1,-1,-1,-1,-1,-1,-1],"loss_changes":[8.536733E0,8.8541865E-1,8.4778404E-1,1.17313385E-1,2.1100342E-1,1.5879989E-1,6.2077045E-2,1.035738E-2,6.90794E-3,2.1908738E-2,4.0605925E-2,1.3483763E-3,1.2421608E-3,0E0,0E0,0E0,0E0,0E0,0E0,2.1265894E-3,2.7066376E-3,4.457528E-3,1.50536E-3,0E0,0E0,0E0,0E0,0E0,0E0,0E0,0E0,0E0,0E0,0E0,0E0],"parents":[2147483647,0,0,1,1,2,2,3,3,4,4,5,5,6,6,7,7,8,8,9,9,10,10,11,11,12,12,19,19,20,20,21,21,22,22],"right_children":[2,4,6,8,10,12,14,16,18,20,22,24,26,-1,-1,-1,-1,-1,-1,28,30,32,34,-1,-1,-1,-1,-1,-1,-1,-1,-1,-1,-1,-1],"split_conditions":[3.4474623E-1,1.196408E-1,6.3340276E-1,6.1737537E-2,1.9944525E-1,4.8891133E-1,8.545798E-1,2.1706661E-2,9.035971E-2,1.582597E-1,2.6188564E-1,3.82154E-1,5.392841E-1,2.7754849E-2,4.07557E-2,-9.81557E-3,-8.0264425E-3,-6.129309E-3,-4.7850953E-3,1.4142904E-1,1.7365958E-1,2.313934E-1,3.1011847E-1,8.450386E-3,1.1901001E-2,1.5720127E-2,2.0746944E-2,-3.2713022E-3,-2.2950491E-3,-1.4718388E-3,-3.5664334E-4,1.1908514E-3,2.729364E-3,4.4008372E-3,6.981052E-3],"split_indices":[1,1,1,1,1,1,1,1,1,1,1,1,1,0,0,0,0,0,0,1,1,1,1,0,0,0,0,0,0,0,0,0,0,0,0],"split_type":[0,0,0,0,0,0,0,0,0,0,0,0,0,0,0,0,0,0,0,0,0,0,0,0,0,0,0,0,0,0,0,0,0,0,0],"sum_hessian":[9.61E2,7.97E2,1.64E2,4.51E2,3.46E2,1.12E2,5.2E1,2.28E2,2.23E2,2.34E2,1.12E2,5.2E1,6E1,4.1E1,1.1E1,1.01E2,1.27E2,1.26E2,9.7E1,1.45E2,8.9E1,8.2E1,3E1,1.5E1,3.7E1,2.3E1,3.7E1,1E2,4.5E1,4.9E1,4E1,4.9E1,3.3E1,1.2E1,1.8E1],"tree_param":{"num_deleted":"0","num_feature":"2","num_nodes":"35","size_leaf_vector":"1"}},{"base_weights":[3.902268E-3,-3.908194E-2,2.2454794E-1,-6.960452E-2,3.820499E-3,1.6252561E-1,3.1213465E-1,-8.9422435E-2,-5.399515E-2,-1.6170895E-2,4.1378498E-2,1.2196564E-2,1.9160096E-2,2.7129566E-2,3.8841568E-2,-9.805913E-3,-8.083696E-3,-6.0282744E-2,-4.4385653E-2,-2.5162632E-2,-4.7203368E-3,2.6520438E-2,7.5431086E-2,-6.8408856E-3,-5.6441296E-3,-4.8020217E-3,-3.5329142E-3,-2.8218625E-3,-1.9238498E-3,-9.7212644E-4,4.9790926E-4,1.7655827E-3,3.2311068E-3,7.6421606E-3,2.087675E-3],"categories":[],"categories_nodes":[],"categories_segments":[],"categories_sizes":[],"default_left":[0,0,0,0,0,0,0,0,0,0,0,0,0,0,0,0,0,0,0,0,0,0,0,0,0,0,0,0,0,0,0,0,0,0,0],"id":25,"left_children":[1,3,5,7,9,11,13,15,17,19,21,-1,-1,-1,-1,-1,-1,23,25,27,29,31,33,-1,-1,-1,-1,-1,-1,-1,-1,-1,-1,-1,-1],"loss_changes":[9.132652E0,1.0557176E0,8.0214596E-1,1.408732E-1,2.5295025E-1,8.748484E-2,9.399986E-2,7.3479414E-3,1.3396263E-2,2.2532512E-2,5.719632E-2,0E0,0E0,0E0,0E0,0E0,0E0,1.0710955E-3,1.8913597E-3,1.6839206E-3,4.8020044E-3,3.690049E-3,2.9586256E-4,0E0,0E0,0E0,0E0,0E0,0E0,0E0,0E0,0E0,0E0,0E0,0E0],"parents":[2147483647,0,0,1,1,2,2,3,3,4,4,5,5,6,6,7,7,8,8,9,9,10,10,17,17,18,18,19,19,20,20,21,21,22,22],"right_children":[2,4,6,8,10,12,14,16,18,20,22,-1,-1,-1,-1,-1,-1,24,26,28,30,32,34,-1,-1,-1,-1,-1,-1,-1,-1,-1,-1,-1,-1],"split_conditions":[3.6630854E-1,1.2602916E-1,6.017496E-1,5.2657012E-2,2.0316657E-1,4.617137E-1,8.004167E-1,1.9761283E-2,9.115041E-2,1.5588759E-1,2.6718208E-1,1.2196564E-2,1.9160096E-2,2.7129566E-2,3.8841568E-2,-9.805913E-3,-8.083696E-3,7.033486E-2,1.1313319E-1,1.4070109E-1,1.8122773E-1,2.2445905E-1,6.85209E-1,-6.8408856E-3,-5.6441296E-3,-4.8020217E-3,-3.5329142E-3,-2.8218625E-3,-1.9238498E-3,-9.7212644E-4,4.9790926E-4,1.7655827E-3,3.2311068E-3,7.6421606E-3,2.087675E-3],"split_indices":[1,1,1,1,1,1,1,1,1,1,1,0,0,0,0,0,0,1,1,1,1,1,0,0,0,0,0,0,0,0,0,0,0,0,0],"split_type":[0,0,0,0,0,0,0,0,0,0,0,0,0,0,0,0,0,0,0,0,0,0,0,0,0,0,0,0,0,0,0,0,0,0,0],"sum_hessian":[9.61E2,8.05E2,1.56E2,4.7E2,3.35E2,9.3E1,6.3E1,2.05E2,2.65E2,2.19E2,1.16E2,4.1E1,5.2E1,4.4E1,1.9E1,9.7E1,1.08E2,1.57E2,1.08E2,1.22E2,9.7E1,8.2E1,3.4E1,4.5E1,1.12E2,7.4E1,3.4E1,7.8E1,4.4E1,6.4E1,3.3E1,3.4E1,4.8E1,3.3E1,1E0],"tree_param":{"num_deleted":"0","num_feature":"2","num_nodes":"35","size_leaf_vector":"1"}},{"base_weights":[-7.18775E-4,-3.987947E-2,2.0032734E-1,-6.631092E-2,-1.3563366E-3,1.5335095E-1,3.007375E-1,-8.160435E-2,-4.8604958E-2,-1.615624E-2,3.5815295E-2,1.1116018E-2,1.8472796E-2,2.6484216E-2,3.8934465E-2,-9.125099E-3,-7.2897426E-3,-5.361182E-3,-3.9453404E-3,-2.3752501E-2,-1.0466228E-3,2.0568745E-2,6.092894E-2,-2.7991987E-3,-1.921235E-3,-8.913098E-4,3.8515247E-4,1.5192579E-3,3.0561453E-3,6.487255E-3,3.1056094E-3],"categories":[],"categories_nodes":[],"categories_segments":[],"categories_sizes":[],"default_left":[0,0,0,0,0,0,0,0,0,0,0,0,0,0,0,0,0,0,0,0,0,0,0,0,0,0,0,0,0,0,0],"id":26,"left_children":[1,3,5,7,9,11,13,15,17,19,21,-1,-1,-1,-1,-1,-1,-1,-1,23,25,27,29,-1,-1,-1,-1,-1,-1,-1,-1],"loss_changes":[7.581917E0,8.205974E-1,6.944356E-1,1.2546873E-1,1.8157355E-1,1.2376189E-1,5.273342E-2,1.4766097E-2,8.148611E-3,2.706242E-2,3.4739025E-2,0E0,0E0,0E0,0E0,0E0,0E0,0E0,0E0,2.4841204E-3,3.1168216E-3,2.7590413E-3,2.108544E-3,0E0,0E0,0E0,0E0,0E0,0E0,0E0,0E0],"parents":[2147483647,0,0,1,1,2,2,3,3,4,4,5,5,6,6,7,7,8,8,9,9,10,10,19,19,20,20,21,21,22,22],"right_children":[2,4,6,8,10,12,14,16,18,20,22,-1,-1,-1,-1,-1,-1,-1,-1,24,26,28,30,-1,-1,-1,-1,-1,-1,-1,-1],"split_conditions":[3.6630854E-1,1.2794945E-1,6.518839E-1,7.346001E-2,2.1727371E-1,4.9842486E-1,8.545798E-1,2.9055173E-2,9.717481E-2,1.710992E-1,2.6718208E-1,1.1116018E-2,1.8472796E-2,2.6484216E-2,3.8934465E-2,-9.125099E-3,-7.2897426E-3,-5.361182E-3,-3.9453404E-3,1.420754E-1,1.8432778E-1,2.4418269E-1,5.4966646E-1,-2.7991987E-3,-1.921235E-3,-8.913098E-4,3.8515247E-4,1.5192579E-3,3.0561453E-3,6.487255E-3,3.1056094E-3],"split_indices":[1,1,1,1,1,1,1,1,1,1,1,0,0,0,0,0,0,0,0,1,1,1,0,0,0,0,0,0,0,0,0],"split_type":[0,0,0,0,0,0,0,0,0,0,0,0,0,0,0,0,0,0,0,0,0,0,0,0,0,0,0,0,0,0,0],"sum_hessian":[9.61E2,8.05E2,1.56E2,4.77E2,3.28E2,1.08E2,4.8E1,2.54E2,2.23E2,2.35E2,9.3E1,4.8E1,6E1,3.7E1,1.1E1,1.16E2,1.38E2,1.41E2,8.2E1,1.56E2,7.9E1,5.9E1,3.4E1,7.8E1,7.8E1,3E1,4.9E1,4E1,1.9E1,2.9E1,5E0],"tree_param":{"num_deleted":"0","num_feature":"2","num_nodes":"31","size_leaf_vector":"1"}},{"base_weights":[-7.5669E-4,-4.3208778E-2,2.0456164E-1,-7.2766215E-2,-6.1194543E-3,1.46733E-1,2.9352972E-1,-9.024268E-2,-5.833295E-2,-2.2402687E-2,2.8950855E-2,1.1244923E-1,1.8602524E-2,2.5388686E-2,3.680497E-2,-9.873413E-3,-8.232558E-2,-6.564109E-3,-5.1837806E-3,-2.9486472E-2,-1.0860447E-2,1.6667292E-2,5.700186E-2,8.086955E-3,1.2180222E-1,-2.219274E-3,-8.267688E-3,-3.4494314E-3,-2.576464E-3,-1.4266594E-3,-1.8797639E-4,1.1829208E-3,2.254971E-3,3.4673642E-3,6.1506447E-3,1.2310668E-2,3.415978E-3],"categories":[],"categories_nodes":[],"categories_segments":[],"categories_sizes":[],"default_left":[0,0,0,0,0,0,0,0,0,0,0,0,0,0,0,0,0,0,0,0,0,0,0,0,0,0,0,0,0,0,0,0,0,0,0,0,0],"id":27,"left_children":[1,3,5,7,9,11,13,15,17,19,21,23,-1,-1,-1,-1,25,-1,-1,27,29,31,33,-1,35,-1,-1,-1,-1,-1,-1,-1,-1,-1,-1,-1,-1],"loss_changes":[8.393814E0,8.743744E-1,8.058386E-1,1.0673165E-1,2.0337416E-1,1.164844E-1,9.56254E-2,5.2500963E-3,8.274198E-3,1.9548118E-2,3.798593E-2,6.9856644E-3,0E0,0E0,0E0,0E0,4.6777725E-4,0E0,0E0,1.9070208E-3,2.8485982E-3,2.010025E-3,1.2870431E-3,0E0,5.963445E-4,0E0,0E0,0E0,0E0,0E0,0E0,0E0,0E0,0E0,0E0,0E0,0E0],"parents":[2147483647,0,0,1,1,2,2,3,3,4,4,5,5,6,6,7,7,8,8,9,9,10,10,11,11,16,16,19,19,20,20,21,21,22,22,24,24],"right_children":[2,4,6,8,10,12,14,16,18,20,22,24,-1,-1,-1,-1,26,-1,-1,28,30,32,34,-1,36,-1,-1,-1,-1,-1,-1,-1,-1,-1,-1,-1,-1],"split_conditions":[3.4474623E-1,1.155806E-1,6.017496E-1,5.090617E-2,1.9944525E-1,4.9842486E-1,8.004167E-1,1.70001E-2,8.2873136E-2,1.5588759E-1,2.5709748E-1,3.82154E-1,1.8602524E-2,2.5388686E-2,3.680497E-2,-9.873413E-3,1.7417204E-1,-6.564109E-3,-5.1837806E-3,1.336287E-1,1.8288442E-1,2.3014459E-1,2.6718208E-1,8.086955E-3,7.2398347E-1,-2.219274E-3,-8.267688E-3,-3.4494314E-3,-2.576464E-3,-1.4266594E-3,-1.8797639E-4,1.1829208E-3,2.254971E-3,3.4673642E-3,6.1506447E-3,1.2310668E-2,3.415978E-3],"split_indices":[1,1,1,1,1,1,1,1,1,1,1,1,0,0,0,0,0,0,0,1,1,1,1,0,0,0,0,0,0,0,0,0,0,0,0,0,0],"split_type":[0,0,0,0,0,0,0,0,0,0,0,0,0,0,0,0,0,0,0,0,0,0,0,0,0,0,0,0,0,0,0,0,0,0,0,0,0],"sum_hessian":[9.61E2,7.97E2,1.64E2,4.43E2,3.54E2,1.01E2,6.3E1,1.98E2,2.45E2,2.42E2,1.12E2,5.6E1,4.5E1,4.4E1,1.9E1,9E1,1.08E2,1.11E2,1.34E2,1.49E2,9.3E1,7.9E1,3.3E1,1.5E1,4.1E1,1E0,1.07E2,6E1,8.9E1,6.7E1,2.6E1,4.5E1,3.4E1,7E0,2.6E1,4E1,1E0],"tree_param":{"num_deleted":"0","num_feature":"2","num_nodes":"37","size_leaf_vector":"1"}},{"base_weights":[-3.596133E-4,-3.789022E-2,1.9231571E-1,-6.33339E-2,-3.8693317E-5,1.492414E-1,2.9301155E-1,-7.842568E-2,-4.6733163E-2,-1.6040748E-2,3.510345E-2,1.1660959E-1,1.8881679E-2,2.5817601E-2,3.701976E-2,-8.546745E-3,-6.7301258E-3,-5.040801E-2,-3.4566396E-3,-2.343188E-2,-3.2024153E-3,2.0715201E-2,6.2054813E-2,9.512087E-3,1.3169679E-2,-5.407763E-3,-4.603245E-3,-2.7074302E-3,-1.8002667E-3,-8.8738184E-4,2.5452356E-4,1.6294111E-3,3.0511112E-3,4.094064E-3,6.6794544E-3],"categories":[],"categories_nodes":[],"categories_segments":[],"categories_sizes":[],"default_left":[0,0,0,0,0,0,0,0,0,0,0,0,0,0,0,0,0,0,0,0,0,0,0,0,0,0,0,0,0,0,0,0,0,0,0],"id":28,"left_children":[1,3,5,7,9,11,13,15,17,19,21,23,-1,-1,-1,-1,-1,25,-1,27,29,31,33,-1,-1,-1,-1,-1,-1,-1,-1,-1,-1,-1,-1],"loss_changes":[6.963722E0,7.762419E-1,6.372428E-1,1.1709249E-1,1.8332571E-1,1.2262082E-1,2.810955E-2,1.3910055E-2,8.630514E-3,2.1180283E-2,3.8268372E-2,8.221924E-3,0E0,0E0,0E0,0E0,0E0,3.3664703E-4,0E0,2.3207068E-3,2.728157E-3,2.447836E-3,7.6803565E-4,0E0,0E0,0E0,0E0,0E0,0E0,0E0,0E0,0E0,0E0,0E0,0E0],"parents":[2147483647,0,0,1,1,2,2,3,3,4,4,5,5,6,6,7,7,8,8,9,9,10,10,11,11,17,17,19,19,20,20,21,21,22,22],"right_children":[2,4,6,8,10,12,14,16,18,20,22,24,-1,-1,-1,-1,-1,26,-1,28,30,32,34,-1,-1,-1,-1,-1,-1,-1,-1,-1,-1,-1,-1],"split_conditions":[3.6630854E-1,1.2883428E-1,6.627341E-1,7.033486E-2,2.1391636E-1,5.279633E-1,8.545798E-1,3.8631458E-2,1.0398363E-1,1.6696998E-1,2.6718208E-1,4.3269616E-1,1.8881679E-2,2.5817601E-2,3.701976E-2,-8.546745E-3,-6.7301258E-3,8.827627E-2,-3.4566396E-3,1.4467342E-1,1.8432778E-1,2.4418269E-1,3.1011847E-1,9.512087E-3,1.3169679E-2,-5.407763E-3,-4.603245E-3,-2.7074302E-3,-1.8002667E-3,-8.8738184E-4,2.5452356E-4,1.6294111E-3,3.0511112E-3,4.094064E-3,6.6794544E-3],"split_indices":[1,1,1,1,1,1,1,1,1,1,1,1,0,0,0,0,0,1,0,1,1,1,1,0,0,0,0,0,0,0,0,0,0,0,0],"split_type":[0,0,0,0,0,0,0,0,0,0,0,0,0,0,0,0,0,0,0,0,0,0,0,0,0,0,0,0,0,0,0,0,0,0,0],"sum_hessian":[9.61E2,8.05E2,1.56E2,4.81E2,3.24E2,1.11E2,4.5E1,2.5E2,2.31E2,2.23E2,1.01E2,6.3E1,4.8E1,3.4E1,1.1E1,1.49E2,1.01E2,1.75E2,5.6E1,1.41E2,8.2E1,6.7E1,3.4E1,2.9E1,3.4E1,8.9E1,8.6E1,8.2E1,5.9E1,4.1E1,4.1E1,4.8E1,1.9E1,8E0,2.6E1],"tree_param":{"num_deleted":"0","num_feature":"2","num_nodes":"35","size_leaf_vector":"1"}},{"base_weights":[3.5828566E-3,-3.4174327E-2,2.0820291E-1,-5.7474017E-2,1.4224551E-2,1.6331244E-1,3.0614415E-1,-7.743338E-2,-4.0526614E-2,3.4481438E-4,6.063638E-2,1.3028204E-1,2.0445779E-2,2.7313946E-2,3.7689593E-2,-8.56797E-3,-6.6604414E-3,-4.8084978E-2,-2.7659882E-2,-1.0580122E-2,1.7903322E-2,3.8337072E-3,7.3124464E-3,1.0097769E-2,1.4113455E-2,-5.052E-3,-4.2615803E-3,-1.287175E-3,-2.8225337E-3,-1.5135416E-3,-3.9343277E-4,1.5171353E-3,2.7712241E-3],"categories":[],"categories_nodes":[],"categories_segments":[],"categories_sizes":[],"default_left":[0,0,0,0,0,0,0,0,0,0,0,0,0,0,0,0,0,0,0,0,0,0,0,0,0,0,0,0,0,0,0,0,0],"id":29,"left_children":[1,3,5,7,9,11,13,15,17,19,21,23,-1,-1,-1,-1,-1,25,27,29,31,-1,-1,-1,-1,-1,-1,-1,-1,-1,-1,-1,-1],"loss_changes":[7.4394093E0,9.176203E-1,6.094971E-1,1.8256629E-1,1.7068784E-1,1.1606264E-1,4.471302E-3,1.670742E-2,2.7748138E-2,3.9513662E-2,1.4183626E-2,5.1481724E-3,0E0,0E0,0E0,0E0,0E0,3.374219E-4,5.815923E-4,3.785192E-3,1.6965829E-3,0E0,0E0,0E0,0E0,0E0,0E0,0E0,0E0,0E0,0E0,0E0,0E0],"parents":[2147483647,0,0,1,1,2,2,3,3,4,4,5,5,6,6,7,7,8,8,9,9,10,10,11,11,17,17,18,18,19,19,20,20],"right_children":[2,4,6,8,10,12,14,16,18,20,22,24,-1,-1,-1,-1,-1,26,28,30,32,-1,-1,-1,-1,-1,-1,-1,-1,-1,-1,-1,-1],"split_conditions":[3.82154E-1,1.4070109E-1,6.627341E-1,7.033486E-2,2.4418269E-1,5.392841E-1,8.545798E-1,3.327225E-2,1.1313319E-1,1.909609E-1,2.9958832E-1,4.208419E-1,2.0445779E-2,2.7313946E-2,3.7689593E-2,-8.56797E-3,-6.6604414E-3,9.308951E-2,2.8922725E-1,1.6696998E-1,5.4857653E-1,3.8337072E-3,7.3124464E-3,1.0097769E-2,1.4113455E-2,-5.052E-3,-4.2615803E-3,-1.287175E-3,-2.8225337E-3,-1.5135416E-3,-3.9343277E-4,1.5171353E-3,2.7712241E-3],"split_indices":[1,1,1,1,1,1,1,1,1,1,1,1,0,0,0,0,0,1,0,1,0,0,0,0,0,0,0,0,0,0,0,0,0],"split_type":[0,0,0,0,0,0,0,0,0,0,0,0,0,0,0,0,0,0,0,0,0,0,0,0,0,0,0,0,0,0,0,0,0],"sum_hessian":[9.61E2,8.12E2,1.49E2,5.48E2,2.64E2,1.04E2,4.5E1,2.5E2,2.98E2,2.04E2,6E1,6E1,4.4E1,3.4E1,1.1E1,1.38E2,1.12E2,1.86E2,1.12E2,1.26E2,7.8E1,2.3E1,3.7E1,1.9E1,4.1E1,1.23E2,6.3E1,5E0,1.07E2,7.4E1,5.2E1,6.3E1,1.5E1],"tree_param":{"num_deleted":"0","num_feature":"2","num_nodes":"33","size_leaf_vector":"1"}},{"base_weights":[-5.6557974E-4,-3.7518054E-2,1.730488E-1,-6.255643E-2,-7.465193E-3,1.3154796E-1,2.7199882E-1,-7.75715E-2,-5.049703E-2,-2.0636091E-2,2.0644091E-2,9.154273E-2,1.6460566E-2,2.3905491E-2,3.536547E-2,-8.344894E-3,-7.004848E-3,-5.8734557E-3,-4.5610648E-3,-2.6073582E-2,-1.033641E-2,1.0089118E-2,3.900073E-2,7.543865E-3,1.06642134E-1,-2.9152862E-3,-2.1433497E-3,-4.3482124E-3,-9.0449565E-4,1.1260769E-3,-1.3522871E-3,2.9058964E-3,4.9506086E-3,1.0841823E-2,3.0231774E-3],"categories":[],"categories_nodes":[],"categories_segments":[],"categories_sizes":[],"default_left":[0,0,0,0,0,0,0,0,0,0,0,0,0,0,0,0,0,0,0,0,0,0,0,0,0,0,0,0,0,0,0,0,0,0,0],"id":30,"left_children":[1,3,5,7,9,11,13,15,17,19,21,23,-1,-1,-1,-1,-1,-1,-1,25,27,29,31,-1,33,-1,-1,-1,-1,-1,-1,-1,-1,-1,-1],"loss_changes":[6.1781845E0,5.96998E-1,6.5821886E-1,7.448733E-2,1.3444728E-1,1.4495182E-1,4.7270298E-2,2.5997162E-3,7.102251E-3,1.3563588E-2,2.2081964E-2,5.8152974E-3,0E0,0E0,0E0,0E0,0E0,0E0,0E0,1.6755313E-3,3.3308398E-3,2.2271522E-3,2.9479563E-3,0E0,3.8656592E-4,0E0,0E0,0E0,0E0,0E0,0E0,0E0,0E0,0E0,0E0],"parents":[2147483647,0,0,1,1,2,2,3,3,4,4,5,5,6,6,7,7,8,8,9,9,10,10,11,11,19,19,20,20,21,21,22,22,24,24],"right_children":[2,4,6,8,10,12,14,16,18,20,22,24,-1,-1,-1,-1,-1,-1,-1,26,28,30,32,-1,34,-1,-1,-1,-1,-1,-1,-1,-1,-1,-1],"split_conditions":[3.4231135E-1,1.1028415E-1,6.518839E-1,4.843993E-2,1.944814E-1,4.8891133E-1,8.545798E-1,2.1706661E-2,7.712486E-2,1.5588759E-1,2.4418269E-1,4.0959635E-1,1.6460566E-2,2.3905491E-2,3.536547E-2,-8.344894E-3,-7.004848E-3,-5.8734557E-3,-4.5610648E-3,1.367162E-1,1.7417204E-1,2.4214946E-1,2.9958832E-1,7.543865E-3,7.2398347E-1,-2.9152862E-3,-2.1433497E-3,-4.3482124E-3,-9.0449565E-4,1.1260769E-3,-1.3522871E-3,2.9058964E-3,4.9506086E-3,1.0841823E-2,3.0231774E-3],"split_indices":[1,1,1,1,1,1,1,1,1,1,1,1,0,0,0,0,0,0,0,1,0,1,1,0,0,0,0,0,0,0,0,0,0,0,0],"split_type":[0,0,0,0,0,0,0,0,0,0,0,0,0,0,0,0,0,0,0,0,0,0,0,0,0,0,0,0,0,0,0,0,0,0,0],"sum_hessian":[9.61E2,7.93E2,1.68E2,4.32E2,3.61E2,1.2E2,4.8E1,1.9E2,2.42E2,2.46E2,1.15E2,5.6E1,6.4E1,3.7E1,1.1E1,1.01E2,8.9E1,8.6E1,1.56E2,1.6E2,8.6E1,7.4E1,4.1E1,3E1,2.6E1,9.3E1,6.7E1,2E0,8.4E1,7.1E1,3E0,2.3E1,1.8E1,2.5E1,1E0],"tree_param":{"num_deleted":"0","num_feature":"2","num_nodes":"35","size_leaf_vector":"1"}},{"base_weights":[-6.000245E-4,-4.045605E-2,1.7762323E-1,-6.603256E-2,-8.497671E-3,1.13942854E-1,2.4760312E-1,-7.831138E-2,-4.980794E-2,-2.1279957E-2,2.0076578E-2,8.336954E-2,1.4031897E-2,2.0654624E-2,3.0980993E-2,-8.509993E-3,-6.7655663E-3,-5.296989E-3,-4.4211196E-3,-2.70061E-2,-1.0701974E-2,1.3140613E-2,4.0654674E-2,8.62928E-3,4.9498975E-2,-3.1910886E-3,-2.3379375E-3,-1.399456E-3,-5.157808E-4,4.3238976E-4,1.5690515E-3,4.131866E-3,1.1695505E-3,1.0170237E-3,5.5330675E-3],"categories":[],"categories_nodes":[],"categories_segments":[],"categories_sizes":[],"default_left":[0,0,0,0,0,0,0,0,0,0,0,0,0,0,0,0,0,0,0,0,0,0,0,0,0,0,0,0,0,0,0,0,0,0,0],"id":31,"left_children":[1,3,5,7,9,11,13,15,17,19,21,23,-1,-1,-1,-1,-1,-1,-1,25,27,29,31,-1,33,-1,-1,-1,-1,-1,-1,-1,-1,-1,-1],"loss_changes":[6.840532E0,6.4271986E-1,7.56104E-1,8.3158255E-2,1.2862796E-1,6.410384E-2,1.4799309E-1,1.21097565E-2,1.0381937E-3,1.4429741E-2,1.5023228E-2,2.8318167E-4,0E0,0E0,0E0,0E0,0E0,0E0,0E0,2.0467117E-3,1.5159734E-3,1.7981427E-3,3.59267E-5,0E0,8.133957E-4,0E0,0E0,0E0,0E0,0E0,0E0,0E0,0E0,0E0,0E0],"parents":[2147483647,0,0,1,1,2,2,3,3,4,4,5,5,6,6,7,7,8,8,9,9,10,10,11,11,19,19,20,20,21,21,22,22,24,24],"right_children":[2,4,6,8,10,12,14,16,18,20,22,24,-1,-1,-1,-1,-1,-1,-1,26,28,30,32,-1,34,-1,-1,-1,-1,-1,-1,-1,-1,-1,-1],"split_conditions":[3.2238063E-1,1.1313319E-1,5.597169E-1,6.937472E-2,1.944814E-1,4.208419E-1,7.175561E-1,3.636603E-2,9.115041E-2,1.5588759E-1,2.5315654E-1,5.7858473E-1,1.4031897E-2,2.0654624E-2,3.0980993E-2,-8.509993E-3,-6.7655663E-3,-5.296989E-3,-4.4211196E-3,1.3303253E-1,1.7365958E-1,2.0918469E-1,6.85209E-1,8.62928E-3,5.8975154E-1,-3.1910886E-3,-2.3379375E-3,-1.399456E-3,-5.157808E-4,4.3238976E-4,1.5690515E-3,4.131866E-3,1.1695505E-3,1.0170237E-3,5.5330675E-3],"split_indices":[1,1,1,1,1,1,1,1,1,1,1,0,0,0,0,0,0,0,0,1,1,1,0,0,0,0,0,0,0,0,0,0,0,0,0],"split_type":[0,0,0,0,0,0,0,0,0,0,0,0,0,0,0,0,0,0,0,0,0,0,0,0,0,0,0,0,0,0,0,0,0,0,0],"sum_hessian":[9.61E2,7.86E2,1.75E2,4.36E2,3.5E2,9.3E1,8.2E1,2.46E2,1.9E2,2.42E2,1.08E2,4.5E1,4.8E1,5.2E1,3E1,1.46E2,1E2,1.16E2,7.4E1,1.56E2,8.6E1,8.2E1,2.6E1,4E1,5E0,6.3E1,9.3E1,5.3E1,3.3E1,1.9E1,6.3E1,2.5E1,1E0,1E0,4E0],"tree_param":{"num_deleted":"0","num_feature":"2","num_nodes":"35","size_leaf_vector":"1"}},{"base_weights":[-2.3428505E-4,-3.566679E-2,1.6623697E-1,-5.975614E-2,-6.1620027E-3,1.1543621E-1,2.3999345E-1,-7.44091E-2,-4.818338E-2,-1.9233918E-2,2.2721255E-2,8.466217E-2,1.42290285E-2,2.0553218E-2,3.124239E-2,-8.159318E-3,-6.8256E-3,-5.492169E-3,-4.2552743E-3,-2.4985688E-2,-8.368758E-3,1.4003896E-2,4.6081904E-2,6.272588E-3,8.993874E-3,-2.799468E-3,-1.9987763E-3,-1.1931658E-3,-3.4605E-4,8.1204623E-4,2.0433401E-3,3.2123183E-3,5.2472576E-3],"categories":[],"categories_nodes":[],"categories_segments":[],"categories_sizes":[],"default_left":[0,0,0,0,0,0,0,0,0,0,0,0,0,0,0,0,0,0,0,0,0,0,0,0,0,0,0,0,0,0,0,0,0],"id":32,"left_children":[1,3,5,7,9,11,13,15,17,19,21,23,-1,-1,-1,-1,-1,-1,-1,25,27,29,31,-1,-1,-1,-1,-1,-1,-1,-1,-1,-1],"loss_changes":[5.6802797E0,5.6396806E-1,6.055193E-1,7.051909E-2,1.3560331E-1,7.224703E-2,1.05517864E-1,2.8737783E-3,7.034421E-3,1.5226886E-2,2.2162702E-2,1.4591217E-4,0E0,0E0,0E0,0E0,0E0,0E0,0E0,1.8616915E-3,1.4801347E-3,2.9737595E-3,9.905845E-4,0E0,0E0,0E0,0E0,0E0,0E0,0E0,0E0,0E0,0E0],"parents":[2147483647,0,0,1,1,2,2,3,3,4,4,5,5,6,6,7,7,8,8,9,9,10,10,11,11,19,19,20,20,21,21,22,22],"right_children":[2,4,6,8,10,12,14,16,18,20,22,24,-1,-1,-1,-1,-1,-1,-1,26,28,30,32,-1,-1,-1,-1,-1,-1,-1,-1,-1,-1],"split_conditions":[3.4231135E-1,1.1313319E-1,5.9621465E-1,4.843993E-2,1.9758146E-1,4.4793287E-1,8.004167E-1,1.5475174E-2,8.033787E-2,1.582597E-1,2.5709748E-1,3.6630854E-1,1.42290285E-2,2.0553218E-2,3.124239E-2,-8.159318E-3,-6.8256E-3,-5.492169E-3,-4.2552743E-3,1.3807796E-1,1.7365958E-1,2.2669938E-1,2.9958832E-1,6.272588E-3,8.993874E-3,-2.799468E-3,-1.9987763E-3,-1.1931658E-3,-3.4605E-4,8.1204623E-4,2.0433401E-3,3.2123183E-3,5.2472576E-3],"split_indices":[1,1,1,1,1,1,1,1,1,1,1,1,0,0,0,0,0,0,0,1,1,1,1,0,0,0,0,0,0,0,0,0,0],"split_type":[0,0,0,0,0,0,0,0,0,0,0,0,0,0,0,0,0,0,0,0,0,0,0,0,0,0,0,0,0,0,0,0,0],"sum_hessian":[9.61E2,7.93E2,1.68E2,4.36E2,3.57E2,1.01E2,6.7E1,1.9E2,2.46E2,2.46E2,1.11E2,4.9E1,5.2E1,4.8E1,1.9E1,8.2E1,1.08E2,1.08E2,1.38E2,1.6E2,8.6E1,8.2E1,2.9E1,1.2E1,3.7E1,9.7E1,6.3E1,4.9E1,3.7E1,4.4E1,3.8E1,1.1E1,1.8E1],"tree_param":{"num_deleted":"0","num_feature":"2","num_nodes":"33","size_leaf_vector":"1"}},{"base_weights":[3.3228418E-3,-3.4231942E-2,1.712336E-1,-5.7708193E-2,-2.5489128E-3,1.0456039E-1,2.3378175E-1,-7.400913E-2,-4.592599E-2,-1.5864618E-2,2.3869377E-2,8.147293E-3,1.2735712E-2,1.8994635E-2,2.8876845E-2,-8.148684E-3,-6.784191E-2,-5.318804E-3,-4.0904615E-2,-2.1527795E-2,-5.9846663E-3,1.6167274E-2,4.057214E-2,-1.3654418E-3,-6.821722E-3,-4.3029673E-3,-3.3859105E-3,-2.3902648E-3,-1.58775E-3,-8.637438E-4,-1.6271848E-5,1.2386722E-3,2.1929287E-3,2.8425453E-3,4.5673656E-3],"categories":[],"categories_nodes":[],"categories_segments":[],"categories_sizes":[],"default_left":[0,0,0,0,0,0,0,0,0,0,0,0,0,0,0,0,0,0,0,0,0,0,0,0,0,0,0,0,0,0,0,0,0,0,0],"id":33,"left_children":[1,3,5,7,9,11,13,15,17,19,21,-1,-1,-1,-1,-1,23,-1,25,27,29,31,33,-1,-1,-1,-1,-1,-1,-1,-1,-1,-1,-1,-1],"loss_changes":[6.072091E0,5.852224E-1,7.0952606E-1,8.341265E-2,1.1857614E-1,3.5413623E-2,1.620822E-1,3.1416416E-3,7.4877143E-3,1.2404393E-2,1.3881095E-2,0E0,0E0,0E0,0E0,0E0,1.285255E-3,0E0,9.535551E-4,1.5259236E-3,1.2804705E-3,1.4492739E-3,8.70537E-4,0E0,0E0,0E0,0E0,0E0,0E0,0E0,0E0,0E0,0E0,0E0,0E0],"parents":[2147483647,0,0,1,1,2,2,3,3,4,4,5,5,6,6,7,7,8,8,9,9,10,10,16,16,18,18,19,19,20,20,21,21,22,22],"right_children":[2,4,6,8,10,12,14,16,18,20,22,-1,-1,-1,-1,-1,24,-1,26,28,30,32,34,-1,-1,-1,-1,-1,-1,-1,-1,-1,-1,-1,-1],"split_conditions":[3.2238063E-1,1.196408E-1,5.392841E-1,4.705934E-2,1.909609E-1,4.208419E-1,6.911366E-1,1.4038105E-2,7.932125E-2,1.5588759E-1,2.4418269E-1,8.147293E-3,1.2735712E-2,1.8994635E-2,2.8876845E-2,-8.148684E-3,2.662511E-1,-5.318804E-3,1.0078945E-1,1.4070109E-1,1.772993E-1,2.2445905E-1,2.5709748E-1,-1.3654418E-3,-6.821722E-3,-4.3029673E-3,-3.3859105E-3,-2.3902648E-3,-1.58775E-3,-8.637438E-4,-1.6271848E-5,1.2386722E-3,2.1929287E-3,2.8425453E-3,4.5673656E-3],"split_indices":[1,1,1,1,1,1,1,1,1,1,1,0,0,0,0,0,0,0,1,1,1,1,1,0,0,0,0,0,0,0,0,0,0,0,0],"split_type":[0,0,0,0,0,0,0,0,0,0,0,0,0,0,0,0,0,0,0,0,0,0,0,0,0,0,0,0,0,0,0,0,0,0,0],"sum_hessian":[9.61E2,7.86E2,1.75E2,4.51E2,3.35E2,8.6E1,8.9E1,1.87E2,2.64E2,2.23E2,1.12E2,4.5E1,4.1E1,5.2E1,3.7E1,7.9E1,1.08E2,1.04E2,1.6E2,1.41E2,8.2E1,7.8E1,3.4E1,1E0,1.07E2,1.19E2,4.1E1,9.7E1,4.4E1,5.6E1,2.6E1,4.9E1,2.9E1,1.2E1,2.2E1],"tree_param":{"num_deleted":"0","num_feature":"2","num_nodes":"35","size_leaf_vector":"1"}},{"base_weights":[-4.376317E-4,-3.2364026E-2,1.6346753E-1,-5.4070238E-2,-1.3697019E-3,1.24862224E-1,2.4600856E-1,-6.649853E-2,-3.9902505E-2,-1.3400718E-2,2.9362356E-2,9.0562835E-2,1.5036727E-2,2.157785E-2,3.2123636E-2,-7.2212564E-3,-5.684079E-3,-4.381014E-3,-3.2175698E-3,-1.9520031E-2,-9.180877E-4,1.8048385E-2,5.1773056E-2,7.1516964E-3,9.931473E-2,-2.2868456E-3,-1.5754978E-3,-7.175214E-4,2.9796927E-4,1.2793099E-3,2.6274153E-3,5.4390687E-3,2.7283228E-3,1.0071054E-2,2.8720186E-3],"categories":[],"categories_nodes":[],"categories_segments":[],"categories_sizes":[],"default_left":[0,0,0,0,0,0,0,0,0,0,0,0,0,0,0,0,0,0,0,0,0,0,0,0,0,0,0,0,0,0,0,0,0,0,0],"id":34,"left_children":[1,3,5,7,9,11,13,15,17,19,21,23,-1,-1,-1,-1,-1,-1,-1,25,27,29,31,-1,33,-1,-1,-1,-1,-1,-1,-1,-1,-1,-1],"loss_changes":[5.0393414E0,5.421781E-1,4.6956635E-1,8.080888E-2,1.2351618E-1,8.1736326E-2,4.211712E-2,9.746671E-3,5.3537786E-3,1.8314514E-2,2.2899657E-2,1.0650158E-3,0E0,0E0,0E0,0E0,0E0,0E0,0E0,1.669433E-3,1.9724923E-3,2.4305135E-3,5.033165E-4,0E0,1.6221404E-4,0E0,0E0,0E0,0E0,0E0,0E0,0E0,0E0,0E0,0E0],"parents":[2147483647,0,0,1,1,2,2,3,3,4,4,5,5,6,6,7,7,8,8,9,9,10,10,11,11,19,19,20,20,21,21,22,22,24,24],"right_children":[2,4,6,8,10,12,14,16,18,20,22,24,-1,-1,-1,-1,-1,-1,-1,26,28,30,32,-1,34,-1,-1,-1,-1,-1,-1,-1,-1,-1,-1],"split_conditions":[3.6630854E-1,1.2651238E-1,6.518839E-1,7.033486E-2,2.1727371E-1,4.9842486E-1,8.545798E-1,4.053291E-2,9.717481E-2,1.710992E-1,2.9958832E-1,4.0959635E-1,1.5036727E-2,2.157785E-2,3.2123636E-2,-7.2212564E-3,-5.684079E-3,-4.381014E-3,-3.2175698E-3,1.420754E-1,1.8432778E-1,2.4418269E-1,5.4966646E-1,7.1516964E-3,7.2398347E-1,-2.2868456E-3,-1.5754978E-3,-7.175214E-4,2.9796927E-4,1.2793099E-3,2.6274153E-3,5.4390687E-3,2.7283228E-3,1.0071054E-2,2.8720186E-3],"split_indices":[1,1,1,1,1,1,1,1,1,1,1,1,0,0,0,0,0,0,0,1,1,1,0,0,0,0,0,0,0,0,0,0,0,0,0],"split_type":[0,0,0,0,0,0,0,0,0,0,0,0,0,0,0,0,0,0,0,0,0,0,0,0,0,0,0,0,0,0,0,0,0,0,0],"sum_hessian":[9.61E2,8.05E2,1.56E2,4.73E2,3.32E2,1.08E2,4.8E1,2.5E2,2.23E2,2.39E2,9.3E1,4.8E1,6E1,3.7E1,1.1E1,1.53E2,9.7E1,1.45E2,7.8E1,1.6E2,7.9E1,6.3E1,3E1,1.8E1,3E1,8.2E1,7.8E1,3E1,4.9E1,4E1,2.3E1,2.6E1,4E0,2.9E1,1E0],"tree_param":{"num_deleted":"0","num_feature":"2","num_nodes":"35","size_leaf_vector":"1"}},{"base_weights":[-4.8210987E-4,-3.406441E-2,1.7192435E-1,-5.7486054E-2,-1.130901E-3,1.3187917E-1,2.5749582E-1,-7.034159E-2,-4.2625304E-2,-1.5790636E-2,2.7939111E-2,9.532388E-3,1.590813E-2,2.2636011E-2,3.346343E-2,-7.974575E-3,-6.3477814E-2,-4.5323116E-3,-3.249233E-3,-2.0728318E-2,-5.078742E-3,1.608621E-2,5.389454E-2,-1.7700319E-3,-6.366625E-3,-2.427614E-3,-1.6399849E-3,-9.549395E-4,-7.978252E-6,1.2721334E-3,2.5376526E-3,5.48261E-3,1.1110731E-3],"categories":[],"categories_nodes":[],"categories_segments":[],"categories_sizes":[],"default_left":[0,0,0,0,0,0,0,0,0,0,0,0,0,0,0,0,0,0,0,0,0,0,0,0,0,0,0,0,0,0,0,0,0],"id":35,"left_children":[1,3,5,7,9,11,13,15,17,19,21,-1,-1,-1,-1,-1,23,-1,-1,25,27,29,31,-1,-1,-1,-1,-1,-1,-1,-1,-1,-1],"loss_changes":[5.5756493E0,6.216488E-1,5.040374E-1,8.6982846E-2,1.4363047E-1,9.322345E-2,4.1938543E-2,1.1139512E-2,4.568815E-3,1.1742517E-2,3.389716E-2,0E0,0E0,0E0,0E0,0E0,1.6707182E-4,0E0,0E0,1.9514412E-3,1.6083387E-3,2.1467786E-3,7.8579783E-4,0E0,0E0,0E0,0E0,0E0,0E0,0E0,0E0,0E0,0E0],"parents":[2147483647,0,0,1,1,2,2,3,3,4,4,5,5,6,6,7,7,8,8,9,9,10,10,16,16,19,19,20,20,21,21,22,22],"right_children":[2,4,6,8,10,12,14,16,18,20,22,-1,-1,-1,-1,-1,24,-1,-1,26,28,30,32,-1,-1,-1,-1,-1,-1,-1,-1,-1,-1],"split_conditions":[3.6630854E-1,1.2602916E-1,6.518839E-1,7.033486E-2,2.0703223E-1,4.9842486E-1,8.545798E-1,2.1706661E-2,1.03079975E-1,1.6696998E-1,2.6718208E-1,9.532388E-3,1.590813E-2,2.2636011E-2,3.346343E-2,-7.974575E-3,1.7417204E-1,-4.5323116E-3,-3.249233E-3,1.4142904E-1,1.8288442E-1,2.4418269E-1,6.85209E-1,-1.7700319E-3,-6.366625E-3,-2.427614E-3,-1.6399849E-3,-9.549395E-4,-7.978252E-6,1.2721334E-3,2.5376526E-3,5.48261E-3,1.1110731E-3],"split_indices":[1,1,1,1,1,1,1,1,1,1,1,0,0,0,0,0,0,0,0,1,1,1,0,0,0,0,0,0,0,0,0,0,0],"split_type":[0,0,0,0,0,0,0,0,0,0,0,0,0,0,0,0,0,0,0,0,0,0,0,0,0,0,0,0,0,0,0,0,0],"sum_hessian":[9.61E2,8.05E2,1.56E2,4.7E2,3.35E2,1.08E2,4.8E1,2.5E2,2.2E2,2.23E2,1.12E2,4.8E1,6E1,3.7E1,1.1E1,1.01E2,1.49E2,1.71E2,4.9E1,1.52E2,7.1E1,7.8E1,3.4E1,1E0,1.48E2,8.1E1,7.1E1,3.7E1,3.4E1,5.9E1,1.9E1,3.3E1,1E0],"tree_param":{"num_deleted":"0","num_feature":"2","num_nodes":"33","size_leaf_vector":"1"}},{"base_weights":[-1.4688863E-4,-3.212499E-2,1.5009429E-1,-5.423828E-2,-5.9857043E-3,1.17266044E-1,2.4656859E-1,-6.776765E-2,-4.431985E-2,-1.766299E-2,2.0550158E-2,8.36709E-2,1.4955384E-2,2.1498043E-2,3.0762395E-2,-7.436515E-3,-6.2787957E-3,-5.178854E-3,-3.982314E-3,-2.3856957E-2,-9.20444E-3,1.1913523E-2,4.0013216E-2,6.7105615E-3,9.595241E-3,-2.7264354E-3,-2.0942136E-3,-1.3134903E-3,-4.303795E-4,5.810423E-4,1.6165521E-3,2.862007E-3,4.750149E-3],"categories":[],"categories_nodes":[],"categories_segments":[],"categories_sizes":[],"default_left":[0,0,0,0,0,0,0,0,0,0,0,0,0,0,0,0,0,0,0,0,0,0,0,0,0,0,0,0,0,0,0,0,0],"id":36,"left_children":[1,3,5,7,9,11,13,15,17,19,21,23,-1,-1,-1,-1,-1,-1,-1,25,27,29,31,-1,-1,-1,-1,-1,-1,-1,-1,-1,-1],"loss_changes":[4.6266804E0,4.5862764E-1,5.063226E-1,5.4698348E-2,1.1346439E-1,1.2633002E-1,1.4869213E-2,1.2443662E-3,6.367326E-3,1.3087966E-2,1.8349972E-2,6.7850947E-3,0E0,0E0,0E0,0E0,0E0,0E0,0E0,8.7910146E-4,2.043007E-3,1.95615E-3,1.5412085E-3,0E0,0E0,0E0,0E0,0E0,0E0,0E0,0E0,0E0,0E0],"parents":[2147483647,0,0,1,1,2,2,3,3,4,4,5,5,6,6,7,7,8,8,9,9,10,10,11,11,19,19,20,20,21,21,22,22],"right_children":[2,4,6,8,10,12,14,16,18,20,22,24,-1,-1,-1,-1,-1,-1,-1,26,28,30,32,-1,-1,-1,-1,-1,-1,-1,-1,-1,-1],"split_conditions":[3.4231135E-1,1.0928636E-1,6.72348E-1,4.560972E-2,1.9758146E-1,5.05742E-1,8.545798E-1,1.2826949E-2,7.571916E-2,1.4934862E-1,2.5315654E-1,4.0959635E-1,1.4955384E-2,2.1498043E-2,3.0762395E-2,-7.436515E-3,-6.2787957E-3,-5.178854E-3,-3.982314E-3,1.3155153E-1,1.710992E-1,2.1947637E-1,2.9958832E-1,6.7105615E-3,9.595241E-3,-2.7264354E-3,-2.0942136E-3,-1.3134903E-3,-4.303795E-4,5.810423E-4,1.6165521E-3,2.862007E-3,4.750149E-3],"split_indices":[1,1,1,1,1,1,1,1,1,1,1,1,0,0,0,0,0,0,0,1,1,1,1,0,0,0,0,0,0,0,0,0,0],"split_type":[0,0,0,0,0,0,0,0,0,0,0,0,0,0,0,0,0,0,0,0,0,0,0,0,0,0,0,0,0,0,0,0,0],"sum_hessian":[9.61E2,7.93E2,1.68E2,4.29E2,3.64E2,1.27E2,4.1E1,1.79E2,2.5E2,2.53E2,1.11E2,6.4E1,6.3E1,3E1,1.1E1,7.1E1,1.08E2,9E1,1.6E2,1.45E2,1.08E2,7.8E1,3.3E1,3E1,3.4E1,6.3E1,8.2E1,5.9E1,4.9E1,3.3E1,4.5E1,1.5E1,1.8E1],"tree_param":{"num_deleted":"0","num_feature":"2","num_nodes":"33","size_leaf_vector":"1"}},{"base_weights":[3.0377444E-3,-2.8236736E-2,1.6731058E-1,-4.9372286E-2,5.943949E-3,1.3070512E-1,2.504124E-1,-6.2937476E-2,-3.555534E-2,-9.651231E-3,3.2108743E-2,1.0433285E-1,1.6589385E-2,2.2081288E-2,3.158767E-2,-6.964655E-3,-5.4127757E-2,-3.926725E-3,-2.5644093E-3,-1.4538135E-2,5.788116E-4,2.0144666E-2,5.6136455E-2,8.145004E-3,1.1492464E-2,-1.4000259E-3,-5.436104E-3,-1.7986431E-3,-1.0707023E-3,-8.410052E-5,2.2086315E-3,1.6880938E-3,2.892862E-3,6.0287444E-3,3.8484961E-3],"categories":[],"categories_nodes":[],"categories_segments":[],"categories_sizes":[],"default_left":[0,0,0,0,0,0,0,0,0,0,0,0,0,0,0,0,0,0,0,0,0,0,0,0,0,0,0,0,0,0,0,0,0,0,0],"id":37,"left_children":[1,3,5,7,9,11,13,15,17,19,21,23,-1,-1,-1,-1,25,-1,-1,27,29,31,33,-1,-1,-1,-1,-1,-1,-1,-1,-1,-1,-1,-1],"loss_changes":[4.9470444E0,5.8473736E-1,4.3573523E-1,9.147692E-2,1.2680373E-1,8.384442E-2,1.93851E-2,1.1065483E-2,8.190423E-3,9.757098E-3,3.221561E-2,6.3934326E-3,0E0,0E0,0E0,0E0,2.9671192E-4,0E0,0E0,1.5512463E-3,1.9729245E-3,1.7764606E-3,4.6414137E-4,0E0,0E0,0E0,0E0,0E0,0E0,0E0,0E0,0E0,0E0,0E0,0E0],"parents":[2147483647,0,0,1,1,2,2,3,3,4,4,5,5,6,6,7,7,8,8,9,9,10,10,11,11,16,16,19,19,20,20,21,21,22,22],"right_children":[2,4,6,8,10,12,14,16,18,20,22,24,-1,-1,-1,-1,26,-1,-1,28,30,32,34,-1,-1,-1,-1,-1,-1,-1,-1,-1,-1,-1,-1],"split_conditions":[3.7485567E-1,1.3303253E-1,6.627341E-1,7.033486E-2,2.0703223E-1,5.392841E-1,8.545798E-1,3.327225E-2,1.0928636E-1,1.7030223E-1,2.6718208E-1,4.208419E-1,1.6589385E-2,2.2081288E-2,3.158767E-2,-6.964655E-3,1.7417204E-1,-3.926725E-3,-2.5644093E-3,1.4703298E-1,6.85209E-1,2.4418269E-1,5.038233E-1,8.145004E-3,1.1492464E-2,-1.4000259E-3,-5.436104E-3,-1.7986431E-3,-1.0707023E-3,-8.410052E-5,2.2086315E-3,1.6880938E-3,2.892862E-3,6.0287444E-3,3.8484961E-3],"split_indices":[1,1,1,1,1,1,1,1,1,1,1,1,0,0,0,0,0,0,0,1,0,1,0,0,0,0,0,0,0,0,0,0,0,0,0],"split_type":[0,0,0,0,0,0,0,0,0,0,0,0,0,0,0,0,0,0,0,0,0,0,0,0,0,0,0,0,0,0,0,0,0,0,0],"sum_hessian":[9.61E2,8.08E2,1.53E2,4.99E2,3.09E2,1.08E2,4.5E1,2.5E2,2.49E2,1.94E2,1.15E2,6.4E1,4.4E1,3.4E1,1.1E1,1.38E2,1.12E2,1.79E2,7E1,1.31E2,6.3E1,7.8E1,3.7E1,2.3E1,4.1E1,1E0,1.11E2,6.7E1,6.4E1,6E1,3E0,5.9E1,1.9E1,2.8E1,9E0],"tree_param":{"num_deleted":"0","num_feature":"2","num_nodes":"35","size_leaf_vector":"1"}},{"base_weights":[-3.147397E-4,-3.0018434E-2,1.4334503E-1,-4.9625576E-2,-3.8642788E-3,9.6855894E-2,2.0204829E-1,-6.044037E-2,-3.7435822E-2,-1.5137689E-2,1.9215561E-2,7.0367977E-3,1.1601885E-2,1.7385567E-2,2.666563E-1,-6.8035396E-3,-5.443222E-3,-4.0438296E-3,-3.0827539E-3,-1.9758465E-2,-7.1170945E-3,1.031397E-2,3.651307E-2,6.822154E-3,2.7350962E-2,-2.1642742E-3,-1.5707798E-3,-3.9532976E-3,-5.8746577E-4,6.767247E-4,1.6499978E-3,2.4999809E-3,4.2934776E-3],"categories":[],"categories_nodes":[],"categories_segments":[],"categories_sizes":[],"default_left":[0,0,0,0,0,0,0,0,0,0,0,0,0,0,0,0,0,0,0,0,0,0,0,0,0,0,0,0,0,0,0,0,0],"id":38,"left_children":[1,3,5,7,9,11,13,15,17,19,21,-1,-1,-1,23,-1,-1,-1,-1,25,27,29,31,-1,-1,-1,-1,-1,-1,-1,-1,-1,-1],"loss_changes":[4.1093745E0,4.090292E-1,4.3072557E-1,5.785179E-2,8.9535534E-2,3.9549172E-2,8.478618E-2,7.248342E-3,3.0589104E-3,8.420557E-3,1.702262E-2,0E0,0E0,0E0,8.539557E-3,0E0,0E0,0E0,0E0,7.7439845E-4,3.231381E-3,1.5557855E-3,1.7361566E-3,0E0,0E0,0E0,0E0,0E0,0E0,0E0,0E0,0E0,0E0],"parents":[2147483647,0,0,1,1,2,2,3,3,4,4,5,5,6,6,7,7,8,8,9,9,10,10,14,14,19,19,20,20,21,21,22,22],"right_children":[2,4,6,8,10,12,14,16,18,20,22,-1,-1,-1,24,-1,-1,-1,-1,26,28,30,32,-1,-1,-1,-1,-1,-1,-1,-1,-1,-1],"split_conditions":[3.4474623E-1,1.22245096E-1,5.8735377E-1,6.8063155E-2,1.9944525E-1,4.402455E-1,8.004167E-1,2.1706661E-2,9.538004E-2,1.5926377E-1,2.5315654E-1,7.0367977E-3,1.1601885E-2,1.7385567E-2,2.4845433E-1,-6.8035396E-3,-5.443222E-3,-4.0438296E-3,-3.0827539E-3,1.4142904E-1,1.7417204E-1,2.313934E-1,2.9958832E-1,6.822154E-3,2.7350962E-2,-2.1642742E-3,-1.5707798E-3,-3.9532976E-3,-5.8746577E-4,6.767247E-4,1.6499978E-3,2.4999809E-3,4.2934776E-3],"split_indices":[1,1,1,1,1,1,1,1,1,1,1,0,0,0,0,0,0,0,0,1,0,1,1,0,0,0,0,0,0,0,0,0,0],"split_type":[0,0,0,0,0,0,0,0,0,0,0,0,0,0,0,0,0,0,0,0,0,0,0,0,0,0,0,0,0,0,0,0,0],"sum_hessian":[9.61E2,7.97E2,1.64E2,4.55E2,3.42E2,9.3E1,7.1E1,2.39E2,2.16E2,2.3E2,1.12E2,4.1E1,5.2E1,5.2E1,1.9E1,1.01E2,1.38E2,1.45E2,7.1E1,1.45E2,8.5E1,7.5E1,3.7E1,1E0,1.8E1,9.6E1,4.9E1,2E0,8.3E1,4.9E1,2.6E1,1.5E1,2.2E1],"tree_param":{"num_deleted":"0","num_feature":"2","num_nodes":"33","size_leaf_vector":"1"}},{"base_weights":[-3.6838918E-4,-3.0340085E-2,1.5708272E-1,-5.1788177E-2,-4.510249E-4,1.2055729E-1,2.3289114E-1,-6.318423E-2,-3.815785E-2,-1.423403E-2,2.616832E-2,8.760003E-2,1.4343396E-2,2.0431979E-2,3.039595E-2,-6.8932534E-3,-5.388597E-3,-4.1076723E-3,-3.0700224E-3,-1.8682072E-2,-4.5842435E-3,1.4525819E-2,4.968383E-2,8.843918E-3,2.4919063E-3,-2.1282346E-3,-1.3929292E-3,-8.230201E-4,5.033189E-5,1.147041E-3,2.2965758E-3,3.6512532E-3,5.668631E-3],"categories":[],"categories_nodes":[],"categories_segments":[],"categories_sizes":[],"default_left":[0,0,0,0,0,0,0,0,0,0,0,0,0,0,0,0,0,0,0,0,0,0,0,0,0,0,0,0,0,0,0,0,0],"id":39,"left_children":[1,3,5,7,9,11,13,15,17,19,21,23,-1,-1,-1,-1,-1,-1,-1,25,27,29,31,-1,-1,-1,-1,-1,-1,-1,-1,-1,-1],"loss_changes":[4.5445175E0,5.185968E-1,3.983395E-1,7.0750475E-2,1.2474975E-1,6.735408E-2,3.739047E-2,9.914994E-3,3.4625232E-3,9.529028E-3,3.1036705E-2,2.1570921E-4,0E0,0E0,0E0,0E0,0E0,0E0,0E0,1.5944093E-3,1.3396728E-3,1.7737821E-3,1.4350489E-3,0E0,0E0,0E0,0E0,0E0,0E0,0E0,0E0,0E0,0E0],"parents":[2147483647,0,0,1,1,2,2,3,3,4,4,5,5,6,6,7,7,8,8,9,9,10,10,11,11,19,19,20,20,21,21,22,22],"right_children":[2,4,6,8,10,12,14,16,18,20,22,24,-1,-1,-1,-1,-1,-1,-1,26,28,30,32,-1,-1,-1,-1,-1,-1,-1,-1,-1,-1],"split_conditions":[3.7485567E-1,1.2602916E-1,6.518839E-1,7.346001E-2,2.0703223E-1,4.9842486E-1,8.545798E-1,4.053291E-2,1.0020583E-1,1.6696998E-1,2.6718208E-1,7.2398347E-1,1.4343396E-2,2.0431979E-2,3.039595E-2,-6.8932534E-3,-5.388597E-3,-4.1076723E-3,-3.0700224E-3,1.4703298E-1,1.8432778E-1,2.4418269E-1,3.2238063E-1,8.843918E-3,2.4919063E-3,-2.1282346E-3,-1.3929292E-3,-8.230201E-4,5.033189E-5,1.147041E-3,2.2965758E-3,3.6512532E-3,5.668631E-3],"split_indices":[1,1,1,1,1,1,1,1,1,1,1,0,0,0,0,0,0,0,0,1,1,1,1,0,0,0,0,0,0,0,0,0,0],"split_type":[0,0,0,0,0,0,0,0,0,0,0,0,0,0,0,0,0,0,0,0,0,0,0,0,0,0,0,0,0,0,0,0,0],"sum_hessian":[9.61E2,8.08E2,1.53E2,4.7E2,3.38E2,1.05E2,4.8E1,2.54E2,2.16E2,2.23E2,1.15E2,4.5E1,6E1,3.7E1,1.1E1,1.53E2,1.01E2,1.52E2,6.4E1,1.52E2,7.1E1,7.8E1,3.7E1,4.4E1,1E0,9.6E1,5.6E1,4.1E1,3E1,5.9E1,1.9E1,1.5E1,2.2E1],"tree_param":{"num_deleted":"0","num_feature":"2","num_nodes":"33","size_leaf_vector":"1"}},{"base_weights":[-6.578416E-5,-2.9664498E-2,1.3228793E-1,-4.886765E-2,-6.516399E-3,8.2941E-2,1.8658099E-1,-6.1489083E-2,-4.021503E-2,-1.6911976E-2,1.4242427E-2,6.241059E-3,1.0052177E-2,1.4963849E-2,2.3296958E-2,-6.5907515E-3,-5.5903946E-3,-4.7201016E-3,-3.5991408E-2,-2.185605E-2,-1.0057132E-2,7.816973E-3,2.9623762E-2,-3.8132817E-3,-3.2110275E-3,-2.475955E-3,-1.93742E-3,-1.301498E-3,-6.1733363E-4,1.7794875E-4,1.1542587E-3,2.3041514E-3,3.6000086E-3],"categories":[],"categories_nodes":[],"categories_segments":[],"categories_sizes":[],"default_left":[0,0,0,0,0,0,0,0,0,0,0,0,0,0,0,0,0,0,0,0,0,0,0,0,0,0,0,0,0,0,0,0,0],"id":40,"left_children":[1,3,5,7,9,11,13,15,17,19,21,-1,-1,-1,-1,-1,-1,-1,23,25,27,29,31,-1,-1,-1,-1,-1,-1,-1,-1,-1,-1],"loss_changes":[3.7725592E0,3.4951603E-1,4.560628E-1,4.448688E-2,7.749725E-2,2.7654827E-2,1.07376814E-1,5.8472157E-4,5.913794E-3,7.880099E-3,1.1628278E-2,0E0,0E0,0E0,0E0,0E0,0E0,0E0,1.4686584E-4,5.147457E-4,1.0913974E-3,1.913887E-3,6.394703E-4,0E0,0E0,0E0,0E0,0E0,0E0,0E0,0E0,0E0,0E0],"parents":[2147483647,0,0,1,1,2,2,3,3,4,4,5,5,6,6,7,7,8,8,9,9,10,10,18,18,19,19,20,20,21,21,22,22],"right_children":[2,4,6,8,10,12,14,16,18,20,22,-1,-1,-1,-1,-1,-1,-1,24,26,28,30,32,-1,-1,-1,-1,-1,-1,-1,-1,-1,-1],"split_conditions":[3.2238063E-1,1.0928636E-1,5.597169E-1,4.4241678E-2,1.876914E-1,4.208419E-1,6.9532233E-1,1.70001E-2,7.512927E-2,1.4703298E-1,2.4418269E-1,6.241059E-3,1.0052177E-2,1.4963849E-2,2.3296958E-2,-6.5907515E-3,-5.5903946E-3,-4.7201016E-3,9.14328E-2,1.3077965E-1,1.6696998E-1,2.1113636E-1,2.6718208E-1,-3.8132817E-3,-3.2110275E-3,-2.475955E-3,-1.93742E-3,-1.301498E-3,-6.1733363E-4,1.7794875E-4,1.1542587E-3,2.3041514E-3,3.6000086E-3],"split_indices":[1,1,1,1,1,1,1,1,1,1,1,0,0,0,0,0,0,0,1,1,1,1,1,0,0,0,0,0,0,0,0,0,0],"split_type":[0,0,0,0,0,0,0,0,0,0,0,0,0,0,0,0,0,0,0,0,0,0,0,0,0,0,0,0,0,0,0,0,0],"sum_hessian":[9.61E2,7.86E2,1.75E2,4.29E2,3.57E2,9.3E1,8.2E1,1.72E2,2.57E2,2.38E2,1.19E2,4.5E1,4.8E1,4.8E1,3.4E1,9E1,8.2E1,9.3E1,1.64E2,1.37E2,1.01E2,8.5E1,3.4E1,1E2,6.4E1,5.9E1,7.8E1,5.6E1,4.5E1,3.3E1,5.2E1,1.9E1,1.5E1],"tree_param":{"num_deleted":"0","num_feature":"2","num_nodes":"33","size_leaf_vector":"1"}},{"base_weights":[2.8205786E-3,-2.4989448E-2,1.5353212E-1,-4.447564E-2,6.1191046E-3,1.2008644E-1,2.2653787E-1,-5.784391E-2,-3.3057224E-2,-5.896024E-3,3.6088936E-2,9.629158E-2,1.496731E-2,1.8875146E-2,2.6622264E-2,-6.572497E-3,-5.2268226E-2,-3.7447007E-3,-2.525426E-2,-1.1944029E-2,7.1218754E-3,2.2984393E-2,5.3416616E-3,7.590712E-3,1.0370581E-2,-2.3597092E-3,-5.272717E-3,-2.8786706E-3,-2.202243E-3,-1.5167834E-3,-6.780395E-4,5.866423E-4,3.4041812E-3,1.8177632E-3,2.803516E-3],"categories":[],"categories_nodes":[],"categories_segments":[],"categories_sizes":[],"default_left":[0,0,0,0,0,0,0,0,0,0,0,0,0,0,0,0,0,0,0,0,0,0,0,0,0,0,0,0,0,0,0,0,0,0,0],"id":41,"left_children":[1,3,5,7,9,11,13,15,17,19,21,23,-1,-1,-1,-1,25,-1,27,29,31,33,-1,-1,-1,-1,-1,-1,-1,-1,-1,-1,-1,-1,-1],"loss_changes":[4.0358596E0,4.9310243E-1,3.3905506E-1,7.441008E-2,1.1328147E-1,5.950904E-2,1.8728971E-2,6.6274405E-3,8.371204E-3,1.7799836E-2,1.9208662E-2,1.3472438E-3,0E0,0E0,0E0,0E0,5.84811E-4,0E0,5.190894E-4,2.4607237E-3,2.2336594E-3,7.771142E-4,0E0,0E0,0E0,0E0,0E0,0E0,0E0,0E0,0E0,0E0,0E0,0E0,0E0],"parents":[2147483647,0,0,1,1,2,2,3,3,4,4,5,5,6,6,7,7,8,8,9,9,10,10,11,11,16,16,18,18,19,19,20,20,21,21],"right_children":[2,4,6,8,10,12,14,16,18,20,22,24,-1,-1,-1,-1,26,-1,28,30,32,34,-1,-1,-1,-1,-1,-1,-1,-1,-1,-1,-1,-1,-1],"split_conditions":[3.82154E-1,1.3303253E-1,6.627341E-1,6.1737537E-2,2.2445905E-1,5.392841E-1,8.004167E-1,1.70001E-2,9.900095E-2,1.7883052E-1,2.9958832E-1,4.208419E-1,1.496731E-2,1.8875146E-2,2.6622264E-2,-6.572497E-3,2.662511E-1,-3.7447007E-3,1.155806E-1,1.5588759E-1,8.189679E-1,2.4418269E-1,5.3416616E-3,7.590712E-3,1.0370581E-2,-2.3597092E-3,-5.272717E-3,-2.8786706E-3,-2.202243E-3,-1.5167834E-3,-6.780395E-4,5.866423E-4,3.4041812E-3,1.8177632E-3,2.803516E-3],"split_indices":[1,1,1,1,1,1,1,1,1,1,1,1,0,0,0,0,0,0,1,1,0,1,0,0,0,0,0,0,0,0,0,0,0,0,0],"split_type":[0,0,0,0,0,0,0,0,0,0,0,0,0,0,0,0,0,0,0,0,0,0,0,0,0,0,0,0,0,0,0,0,0,0,0],"sum_hessian":[9.61E2,8.12E2,1.49E2,4.99E2,3.13E2,1.04E2,4.5E1,2.28E2,2.71E2,2.24E2,8.9E1,6E1,4.4E1,2.6E1,1.9E1,9E1,1.38E2,1.71E2,1E2,1.53E2,7.1E1,5.2E1,3.7E1,1.9E1,4.1E1,3E0,1.35E2,4.4E1,5.6E1,9.3E1,6E1,6.9E1,2E0,2.9E1,2.3E1],"tree_param":{"num_deleted":"0","num_feature":"2","num_nodes":"35","size_leaf_vector":"1"}},{"base_weights":[-2.2955638E-4,-2.6264176E-2,1.3342734E-1,-4.3715145E-2,-8.300495E-4,1.0263022E-1,2.0551105E-1,-5.3842086E-2,-3.1991553E-2,-1.2107385E-2,2.0833774E-2,8.1585154E-2,1.32151E-1,1.7865406E-2,2.6671797E-2,-5.873816E-3,-4.5922115E-3,-3.4547409E-3,-2.3897248E-3,-1.5725683E-2,-2.5962344E-3,1.190142E-2,4.040012E-2,6.216502E-3,9.212702E-3,1.8673927E-3,1.343056E-2,-3.2364614E-3,-1.5079145E-3,-5.912327E-4,8.036071E-5,6.8389246E-4,1.7183613E-3,4.3303957E-3,1.9147595E-3],"categories":[],"categories_nodes":[],"categories_segments":[],"categories_sizes":[],"default_left":[0,0,0,0,0,0,0,0,0,0,0,0,0,0,0,0,0,0,0,0,0,0,0,0,0,0,0,0,0,0,0,0,0,0,0],"id":42,"left_children":[1,3,5,7,9,11,13,15,17,19,21,23,25,-1,-1,-1,-1,-1,-1,27,29,31,33,-1,-1,-1,-1,-1,-1,-1,-1,-1,-1,-1,-1],"loss_changes":[3.350982E0,3.5770696E-1,3.274436E-1,5.5027664E-2,8.06303E-2,5.880046E-2,2.7966022E-2,7.1907043E-3,3.8084835E-3,7.4270517E-3,1.9268595E-2,8.194178E-3,8.494437E-3,0E0,0E0,0E0,0E0,0E0,0E0,1.2009256E-3,6.9247663E-4,1.995028E-3,1.3308153E-3,0E0,0E0,0E0,0E0,0E0,0E0,0E0,0E0,0E0,0E0,0E0,0E0],"parents":[2147483647,0,0,1,1,2,2,3,3,4,4,5,5,6,6,7,7,8,8,9,9,10,10,11,11,12,12,19,19,20,20,21,21,22,22],"right_children":[2,4,6,8,10,12,14,16,18,20,22,24,26,-1,-1,-1,-1,-1,-1,28,30,32,34,-1,-1,-1,-1,-1,-1,-1,-1,-1,-1,-1,-1],"split_conditions":[3.6630854E-1,1.2794945E-1,6.627341E-1,7.346001E-2,2.0703223E-1,5.392841E-1,8.545798E-1,4.053291E-2,1.03079975E-1,1.710992E-1,2.6718208E-1,4.208419E-1,2.4845433E-1,1.7865406E-2,2.6671797E-2,-5.873816E-3,-4.5922115E-3,-3.4547409E-3,-2.3897248E-3,2.0946725E-1,1.8432778E-1,2.313934E-1,5.4966646E-1,6.216502E-3,9.212702E-3,1.8673927E-3,1.343056E-2,-3.2364614E-3,-1.5079145E-3,-5.912327E-4,8.036071E-5,6.8389246E-4,1.7183613E-3,4.3303957E-3,1.9147595E-3],"split_indices":[1,1,1,1,1,1,1,1,1,1,1,1,0,0,0,0,0,0,0,0,1,1,0,0,0,0,0,0,0,0,0,0,0,0,0],"split_type":[0,0,0,0,0,0,0,0,0,0,0,0,0,0,0,0,0,0,0,0,0,0,0,0,0,0,0,0,0,0,0,0,0,0,0],"sum_hessian":[9.61E2,8.05E2,1.56E2,4.77E2,3.28E2,1.11E2,4.5E1,2.54E2,2.23E2,2.16E2,1.12E2,6.7E1,4.4E1,3.4E1,1.1E1,1.53E2,1.01E2,1.67E2,5.6E1,1.56E2,6E1,7.8E1,3.4E1,2.6E1,4.1E1,1E0,4.3E1,4E0,1.52E2,3E1,3E1,4.1E1,3.7E1,2.9E1,5E0],"tree_param":{"num_deleted":"0","num_feature":"2","num_nodes":"35","size_leaf_vector":"1"}},{"base_weights":[-2.634473E-4,-2.6904102E-2,1.4413066E-1,-4.6110116E-2,1.0603605E-3,1.12136036E-1,2.140286E-1,-5.6913972E-2,-3.382462E-2,-9.2525305E-3,3.2110512E-2,8.967174E-2,1.4009573E-2,1.8663308E-2,2.7609656E-2,-6.584829E-3,-5.1641624E-2,-3.6574006E-2,-2.5698034E-2,-1.4639823E-2,4.269384E-3,1.733557E-2,4.6120916E-2,7.478189E-2,1.0166896E-2,-1.4121004E-3,-5.1784306E-3,-3.847921E-3,-3.2503323E-3,-9.194687E-4,-2.6101626E-3,-1.7715626E-3,-9.358505E-4,-1.3593049E-4,7.4803666E-4,2.0513302E-3,8.6688355E-4,3.3089474E-3,5.2135075E-3,7.7160345E-3,2.686283E-3],"categories":[],"categories_nodes":[],"categories_segments":[],"categories_sizes":[],"default_left":[0,0,0,0,0,0,0,0,0,0,0,0,0,0,0,0,0,0,0,0,0,0,0,0,0,0,0,0,0,0,0,0,0,0,0,0,0,0,0,0,0],"id":43,"left_children":[1,3,5,7,9,11,13,15,17,19,21,23,-1,-1,-1,-1,25,27,29,31,33,35,37,39,-1,-1,-1,-1,-1,-1,-1,-1,-1,-1,-1,-1,-1,-1,-1,-1,-1],"loss_changes":[3.704455E0,4.3669963E-1,3.1145358E-1,6.2051058E-2,1.0660909E-1,5.3387284E-2,2.6689053E-2,8.611262E-3,4.1543543E-3,1.8274128E-2,1.6381718E-2,3.293842E-3,0E0,0E0,0E0,0E0,1.5208125E-4,5.221367E-5,1.6630068E-4,2.7419366E-3,1.3114689E-3,9.788759E-4,1.5665442E-3,1.460433E-3,0E0,0E0,0E0,0E0,0E0,0E0,0E0,0E0,0E0,0E0,0E0,0E0,0E0,0E0,0E0,0E0,0E0],"parents":[2147483647,0,0,1,1,2,2,3,3,4,4,5,5,6,6,7,7,8,8,9,9,10,10,11,11,16,16,17,17,18,18,19,19,20,20,21,21,22,22,23,23],"right_children":[2,4,6,8,10,12,14,16,18,20,22,24,-1,-1,-1,-1,26,28,30,32,34,36,38,40,-1,-1,-1,-1,-1,-1,-1,-1,-1,-1,-1,-1,-1,-1,-1,-1,-1],"split_conditions":[3.82154E-1,1.2883428E-1,6.627341E-1,7.346001E-2,2.3014459E-1,5.392841E-1,8.545798E-1,1.70001E-2,1.03079975E-1,1.8288442E-1,2.6718208E-1,4.4793287E-1,1.4009573E-2,1.8663308E-2,2.7609656E-2,-6.584829E-3,1.7417204E-1,9.115041E-2,2.9985717E-1,1.5588759E-1,1.9944525E-1,5.4344636E-1,3.2238063E-1,5.909777E-1,1.0166896E-2,-1.4121004E-3,-5.1784306E-3,-3.847921E-3,-3.2503323E-3,-9.194687E-4,-2.6101626E-3,-1.7715626E-3,-9.358505E-4,-1.3593049E-4,7.4803666E-4,2.0513302E-3,8.6688355E-4,3.3089474E-3,5.2135075E-3,7.7160345E-3,2.686283E-3],"split_indices":[1,1,1,1,1,1,1,1,1,1,1,1,0,0,0,0,0,1,0,1,1,0,1,0,0,0,0,0,0,0,0,0,0,0,0,0,0,0,0,0,0],"split_type":[0,0,0,0,0,0,0,0,0,0,0,0,0,0,0,0,0,0,0,0,0,0,0,0,0,0,0,0,0,0,0,0,0,0,0,0,0,0,0,0,0],"sum_hessian":[9.61E2,8.12E2,1.49E2,4.81E2,3.31E2,1.04E2,4.5E1,2.54E2,2.27E2,2.49E2,8.2E1,6E1,4.4E1,3.4E1,1.1E1,9E1,1.64E2,1.67E2,6E1,1.78E2,7.1E1,4.1E1,4.1E1,3E1,3E1,1E0,1.63E2,1.08E2,5.9E1,2E0,5.8E1,1.11E2,6.7E1,2.6E1,4.5E1,2.9E1,1.2E1,1.5E1,2.6E1,2.8E1,2E0],"tree_param":{"num_deleted":"0","num_feature":"2","num_nodes":"41","size_leaf_vector":"1"}},{"base_weights":[-2.6426287E-5,-2.496714E-2,1.2801333E-1,-4.2125676E-2,-4.6829894E-4,1.0019295E-1,2.0180263E-1,-5.245576E-2,-3.1749003E-2,-1.1750599E-2,2.160123E-2,7.642079E-2,1.2700851E-2,1.735121E-2,2.5806958E-2,-5.717887E-3,-4.557656E-3,-3.4966454E-2,-2.561835E-3,-1.6402751E-2,-4.396678E-3,1.2760346E-2,4.093919E-2,6.327305E-3,8.550684E-3,-3.699837E-3,-3.1262082E-3,-1.8527299E-3,-1.3170438E-3,-7.19712E-4,-3.0389429E-6,8.1781263E-4,1.8584514E-3,2.6958468E-3,4.408316E-3],"categories":[],"categories_nodes":[],"categories_segments":[],"categories_sizes":[],"default_left":[0,0,0,0,0,0,0,0,0,0,0,0,0,0,0,0,0,0,0,0,0,0,0,0,0,0,0,0,0,0,0,0,0,0,0],"id":44,"left_children":[1,3,5,7,9,11,13,15,17,19,21,23,-1,-1,-1,-1,-1,25,-1,27,29,31,33,-1,-1,-1,-1,-1,-1,-1,-1,-1,-1,-1,-1],"loss_changes":[3.0752497E0,3.387938E-1,3.0207753E-1,4.9143553E-2,8.316918E-2,6.423974E-2,2.2078395E-2,5.0619245E-3,3.818497E-3,7.488642E-3,1.8796608E-2,2.235204E-3,0E0,0E0,0E0,0E0,0E0,2.5182962E-6,0E0,6.8305805E-4,1.0635769E-3,1.9563353E-3,3.5001338E-4,0E0,0E0,0E0,0E0,0E0,0E0,0E0,0E0,0E0,0E0,0E0,0E0],"parents":[2147483647,0,0,1,1,2,2,3,3,4,4,5,5,6,6,7,7,8,8,9,9,10,10,11,11,17,17,19,19,20,20,21,21,22,22],"right_children":[2,4,6,8,10,12,14,16,18,20,22,24,-1,-1,-1,-1,-1,26,-1,28,30,32,34,-1,-1,-1,-1,-1,-1,-1,-1,-1,-1,-1,-1],"split_conditions":[3.6630854E-1,1.2651238E-1,6.72348E-1,6.5640844E-2,2.0703223E-1,5.279633E-1,8.545798E-1,3.2569405E-2,9.626488E-2,1.6202495E-1,2.6718208E-1,4.3269616E-1,1.2700851E-2,1.735121E-2,2.5806958E-2,-5.717887E-3,-4.557656E-3,8.685175E-2,-2.561835E-3,1.4142904E-1,1.8288442E-1,2.3484488E-1,3.1011847E-1,6.327305E-3,8.550684E-3,-3.699837E-3,-3.1262082E-3,-1.8527299E-3,-1.3170438E-3,-7.19712E-4,-3.0389429E-6,8.1781263E-4,1.8584514E-3,2.6958468E-3,4.408316E-3],"split_indices":[1,1,1,1,1,1,1,1,1,1,1,1,0,0,0,0,0,1,0,1,1,1,1,0,0,0,0,0,0,0,0,0,0,0,0],"split_type":[0,0,0,0,0,0,0,0,0,0,0,0,0,0,0,0,0,0,0,0,0,0,0,0,0,0,0,0,0,0,0,0,0,0,0],"sum_hessian":[9.61E2,8.05E2,1.56E2,4.73E2,3.32E2,1.15E2,4.1E1,2.35E2,2.38E2,2.2E2,1.12E2,6.3E1,5.2E1,3E1,1.1E1,1.35E2,1E2,1.53E2,8.5E1,1.34E2,8.6E1,7.8E1,3.4E1,2.9E1,3.4E1,9.3E1,6E1,7.8E1,5.6E1,5.2E1,3.4E1,4.5E1,3.3E1,8E0,2.6E1],"tree_param":{"num_deleted":"0","num_feature":"2","num_nodes":"35","size_leaf_vector":"1"}},{"base_weights":[2.6083293E-3,-2.504031E-2,1.2622692E-1,-4.205272E-2,-1.598445E-3,8.383412E-2,1.8090384E-1,-5.4314487E-2,-3.332683E-2,-1.147185E-2,1.7638259E-2,6.053463E-3,1.0147595E-2,1.5666774E-2,2.409315E-2,-6.0728886E-3,-4.990294E-2,-3.8141427E-3,-2.8817875E-2,-1.55488625E-2,-4.5549884E-3,1.2192962E-2,2.9425124E-2,-5.0088116E-3,-1.421123E-3,-3.0313039E-3,-2.4053515E-3,-2.1272512E-4,-1.6468763E-3,5.207077E-4,-5.383293E-4,9.938929E-4,2.0447029E-3,2.0543362E-3,3.3165894E-3],"categories":[],"categories_nodes":[],"categories_segments":[],"categories_sizes":[],"default_left":[0,0,0,0,0,0,0,0,0,0,0,0,0,0,0,0,0,0,0,0,0,0,0,0,0,0,0,0,0,0,0,0,0,0,0],"id":45,"left_children":[1,